0.00415039062500
0.01806640625000
0.11785888671875
0.01483154296875
0.02026367187500
0.04125976562500
0.06524658203125
-0.07946777343750
0.10467529296875
-0.05310058593750
0.10827636718750
-0.05541992187500
0.06927490234375
-0.00573730468750
0.03906250000000
0.06793212890625
0.11492919921875
0.12799072265625
0.06829833984375
-0.05566406250000
0.09722900390625
0.01086425781250
0.09057617187500
-0.00750732421875
-0.01690673828125
0.07543945312500
0.08068847656250
0.08294677734375
0.12420654296875
0.02380371093750
0.07122802734375
0.05603027343750
0.02130126953125
-0.01379394531250
-0.07360839843750
-0.00238037109375
0.02746582031250
0.09539794921875
0.13830566406250
0.14855957031250
0.03039550781250
-0.05303955078125
-0.04357910156250
0.05975341796875
0.06683349609375
-0.05438232421875
-0.05670166015625
-0.02600097656250
0.01153564453125
0.05029296875000
0.03082275390625
-0.02532958984375
0.08129882812500
-0.01110839843750
0.00518798828125
0.02600097656250
0.03125000000000
0.09100341796875
0.00329589843750
-0.05529785156250
0.03027343750000
0.06250000000000
0.02001953125000
0.12048339843750
0.02679443359375
0.12988281250000
-0.01550292968750
0.03015136718750
-0.03442382812500
0.08886718750000
0.09600830078125
-0.02062988281250
0.13568115234375
-0.04559326171875
0.01544189453125
0.00750732421875
-0.06011962890625
0.02423095703125
-0.05902099609375
0.06164550781250
0.04205322265625
0.04498291015625
0.10437011718750
0.07586669921875
0.09295654296875
0.13580322265625
0.03924560546875
-0.02618408203125
0.05541992187500
0.08416748046875
0.01483154296875
-0.04852294921875
-0.03948974609375
-0.00750732421875
0.08886718750000
-0.03344726562500
0.07043457031250
0.09332275390625
0.02673339843750
0.05847167968750
-0.00671386718750
-0.04846191406250
0.05883789062500
0.05462646484375
0.02001953125000
0.08551025390625
0.06823730468750
-0.01873779296875
0.07775878906250
0.05334472656250
0.09313964843750
-0.02392578125000
-0.01239013671875
0.08947753906250
0.02709960937500
-0.03503417968750
0.06115722656250
0.08563232421875
0.10382080078125
0.02703857421875
0.00750732421875
0.10864257812500
0.04260253906250
-0.05023193359375
-0.05798339843750
0.04656982421875
0.07507324218750
0.07336425781250
0.02978515625000
0.08691406250000
0.05151367187500
0.06677246093750
0.05627441406250
-0.02600097656250
0.00970458984375
0.03967285156250
-0.00720214843750
0.09912109375000
0.06756591796875
0.05657958984375
0.09869384765625
0.02343750000000
0.03057861328125
-0.00762939453125
0.06695556640625
0.04418945312500
0.03106689453125
0.05822753906250
0.08203125000000
0.03448486328125
-0.04925537109375
0.06890869140625
0.12500000000000
0.03674316406250
0.09149169921875
0.04388427734375
-0.00122070312500
-0.04229736328125
-0.02062988281250
-0.03173828125000
-0.02685546875000
-0.03881835937500
0.11456298828125
-0.00451660156250
-0.02124023437500
0.01684570312500
0.04663085937500
-0.01806640625000
0.04290771484375
-0.02752685546875
-0.01226806640625
0.06054687500000
0.06610107421875
-0.00988769531250
-0.03985595703125
-0.01666259765625
-0.03045654296875
0.09112548828125
-0.00866699218750
-0.04479980468750
0.10546875000000
0.03479003906250
0.05297851562500
0.08514404296875
0.08312988281250
-0.05566406250000
-0.00152587890625
0.07751464843750
0.08618164062500
0.02337646484375
-0.03240966796875
0.02520751953125
-0.03955078125000
-0.02813720703125
0.00543212890625
0.09875488281250
0.06787109375000
0.10595703125000
-0.04699707031250
0.00183105468750
-0.00610351562500
0.04345703125000
0.03576660156250
-0.02557373046875
-0.01275634765625
-0.01446533203125
0.05981445312500
0.05572509765625
0.01062011718750
0.03906250000000
0.11755371093750
0.11932373046875
0.02062988281250
0.04260253906250
0.12139892578125
0.04876708984375
0.04296875000000
0.00457763671875
0.10882568359375
-0.00012207031250
0.08062744140625
-0.02197265625000
0.01470947265625
-0.00457763671875
0.08715820312500
0.05725097656250
0.05139160156250
0.00891113281250
0.00555419921875
-0.01422119140625
0.02655029296875
0.09704589843750
0.02648925781250
-0.05035400390625
0.07043457031250
-0.04821777343750
-0.02630615234375
0.05358886718750
-0.00024414062500
-0.02386474609375
0.02923583984375
0.04449462890625
-0.00085449218750
0.08367919921875
-0.00494384765625
0.10900878906250
0.05487060546875
-0.05743408203125
-0.00701904296875
-0.03210449218750
0.10864257812500
0.03405761718750
-0.02801513671875
0.08520507812500
0.10583496093750
0.02459716796875
0.05218505859375
-0.01910400390625
0.08081054687500
0.06549072265625
-0.07922363281250
-0.00927734375000
-0.02691650390625
0.10852050781250
0.06549072265625
0.09332275390625
0.00775146484375
0.01763916015625
0.08410644531250
0.00775146484375
0.07183837890625
-0.00177001953125
-0.04815673828125
0.04467773437500
-0.04101562500000
0.00836181640625
0.07666015625000
0.03247070312500
0.07543945312500
-0.00366210937500
-0.03942871093750
0.00067138671875
-0.01171875000000
-0.00317382812500
0.01007080078125
-0.05059814453125
0.06030273437500
0.04278564453125
0.00524902343750
-0.02984619140625
0.12133789062500
0.02258300781250
0.04333496093750
0.01165771484375
-0.00579833984375
0.01812744140625
0.08599853515625
-0.06658935546875
0.06085205078125
0.00408935546875
0.00616455078125
0.13964843750000
0.08752441406250
0.01690673828125
0.06274414062500
-0.03417968750000
0.00512695312500
0.11291503906250
-0.04382324218750
0.09277343750000
0.09887695312500
0.08825683593750
0.06201171875000
0.04718017578125
0.00311279296875
-0.00305175781250
0.03143310546875
0.13995361328125
0.05084228515625
0.01531982421875
0.11511230468750
-0.00244140625000
-0.02624511718750
0.06420898437500
0.00518798828125
-0.05810546875000
-0.03869628906250
0.07604980468750
0.07318115234375
-0.02246093750000
0.02038574218750
0.10906982421875
-0.02575683593750
0.03100585937500
0.10644531250000
0.03625488281250
-0.01611328125000
-0.00274658203125
0.04498291015625
-0.04333496093750
-0.03344726562500
-0.02990722656250
0.12518310546875
-0.02551269531250
0.08349609375000
0.02880859375000
0.10974121093750
0.09729003906250
0.02026367187500
0.09790039062500
0.01989746093750
0.07312011718750
-0.02728271484375
-0.03393554687500
0.06732177734375
-0.02960205078125
0.02416992187500
-0.05084228515625
0.11944580078125
0.02044677734375
0.11157226562500
0.13061523437500
-0.04022216796875
0.00689697265625
-0.02929687500000
0.02874755859375
0.03619384765625
-0.01593017578125
0.06469726562500
0.00347900390625
-0.04785156250000
-0.02209472656250
0.03442382812500
0.04064941406250
0.10534667968750
0.05657958984375
0.04180908203125
0.09582519531250
0.07409667968750
0.03710937500000
-0.02453613281250
0.03057861328125
0.06231689453125
0.08917236328125
0.04620361328125
-0.04809570312500
0.07989501953125
0.03216552734375
0.01440429687500
-0.00347900390625
-0.02343750000000
-0.03326416015625
0.07446289062500
0.02935791015625
0.10723876953125
0.08746337890625
0.09045410156250
-0.06250000000000
0.03295898437500
0.03649902343750
0.01727294921875
0.03985595703125
-0.01763916015625
0.05029296875000
0.08038330078125
0.06347656250000
-0.04553222656250
-0.04010009765625
0.05981445312500
0.11511230468750
0.13403320312500
0.09216308593750
0.05938720703125
0.04815673828125
0.02972412109375
0.03088378906250
0.10400390625000
0.00170898437500
0.03155517578125
-0.02038574218750
0.01489257812500
-0.03320312500000
-0.00708007812500
-0.00079345703125
0.05371093750000
0.01654052734375
0.06866455078125
-0.02270507812500
0.05212402343750
0.00708007812500
0.07928466796875
0.08538818359375
-0.03906250000000
0.00775146484375
0.07446289062500
0.03381347656250
0.02984619140625
0.07196044921875
0.06951904296875
0.02337646484375
-0.02886962890625
-0.02429199218750
0.05029296875000
0.00524902343750
0.02069091796875
0.08001708984375
0.05517578125000
-0.00213623046875
-0.00756835937500
-0.00860595703125
0.08898925781250
0.10308837890625
0.07189941406250
-0.02825927734375
-0.02484130859375
-0.00347900390625
0.00598144531250
0.01251220703125
0.02227783203125
-0.00793457031250
0.11157226562500
0.07305908203125
-0.02471923828125
0.04608154296875
0.07641601562500
0.01812744140625
0.04370117187500
-0.00958251953125
0.04516601562500
0.03637695312500
-0.00225830078125
0.06481933593750
0.07104492187500
0.08514404296875
-0.04327392578125
0.08483886718750
-0.06579589843750
0.03845214843750
-0.01977539062500
0.05230712890625
0.13513183593750
0.00061035156250
0.06616210937500
0.00012207031250
0.07250976562500
0.04541015625000
0.05487060546875
0.02569580078125
0.03515625000000
0.03747558593750
0.05334472656250
0.09185791015625
0.13177490234375
0.06762695312500
0.06915283203125
0.01086425781250
0.08386230468750
-0.04675292968750
0.02996826171875
-0.03930664062500
0.06793212890625
-0.01782226562500
-0.00854492187500
0.06140136718750
0.07330322265625
0.11083984375000
-0.00463867187500
-0.07196044921875
-0.00817871093750
-0.02648925781250
0.08459472656250
0.04339599609375
0.09802246093750
0.01239013671875
-0.02191162109375
-0.05804443359375
0.08868408203125
0.05432128906250
-0.06268310546875
-0.00231933593750
0.03631591796875
0.09997558593750
0.09417724609375
-0.01086425781250
0.03704833984375
0.09838867187500
-0.06799316406250
0.11126708984375
0.05084228515625
0.06909179687500
-0.02423095703125
-0.03424072265625
0.13562011718750
-0.00262451171875
0.01037597656250
0.06243896484375
0.02557373046875
0.01354980468750
-0.07434082031250
-0.01593017578125
0.05163574218750
0.10742187500000
-0.05914306640625
0.04852294921875
0.09704589843750
0.11419677734375
0.01568603515625
-0.00195312500000
0.10260009765625
0.00103759765625
0.09893798828125
-0.02075195312500
0.04339599609375
-0.05072021484375
0.03222656250000
-0.02893066406250
-0.03338623046875
0.02777099609375
0.09490966796875
-0.02050781250000
-0.01422119140625
0.04742431640625
0.01873779296875
0.01110839843750
-0.03253173828125
0.03948974609375
0.04394531250000
0.04534912109375
0.00451660156250
0.00317382812500
0.05554199218750
0.04724121093750
-0.01513671875000
-0.07037353515625
-0.06439208984375
0.04748535156250
0.05133056640625
0.04980468750000
-0.06042480468750
-0.06292724609375
0.00231933593750
0.08770751953125
0.07208251953125
0.03979492187500
0.14056396484375
0.06579589843750
0.02227783203125
0.01983642578125
0.05090332031250
0.03015136718750
0.00018310546875
0.11578369140625
-0.06433105468750
0.01019287109375
0.10095214843750
-0.04620361328125
0.07324218750000
0.05590820312500
0.11926269531250
-0.02117919921875
0.03143310546875
0.04943847656250
0.11645507812500
-0.07629394531250
-0.02087402343750
0.09124755859375
-0.03820800781250
-0.04083251953125
0.10992431640625
0.09344482421875
-0.05328369140625
-0.06207275390625
0.07958984375000
-0.02416992187500
0.02380371093750
-0.01220703125000
0.03436279296875
0.00958251953125
0.07727050781250
-0.04241943359375
0.00036621093750
0.03558349609375
0.01434326171875
0.10864257812500
-0.00115966796875
-0.02349853515625
0.09246826171875
0.05560302734375
0.03930664062500
0.01434326171875
0.01855468750000
0.07684326171875
0.06158447265625
0.05682373046875
0.07897949218750
0.02490234375000
0.06805419921875
0.06042480468750
-0.06671142578125
0.02490234375000
0.08697509765625
0.02520751953125
0.10937500000000
0.07745361328125
0.01141357421875
-0.04223632812500
-0.02886962890625
0.02331542968750
0.06365966796875
0.01147460937500
0.01409912109375
0.05639648437500
0.09234619140625
0.04095458984375
-0.04809570312500
-0.05279541015625
0.00646972656250
-0.06762695312500
0.06335449218750
0.05908203125000
0.00726318359375
0.01947021484375
0.01531982421875
0.09649658203125
0.05633544921875
-0.04229736328125
-0.04772949218750
0.07812500000000
0.02984619140625
-0.01898193359375
0.09796142578125
0.04376220703125
0.08789062500000
-0.02465820312500
-0.03631591796875
0.06414794921875
-0.04785156250000
-0.03741455078125
-0.02081298828125
0.05352783203125
0.04168701171875
0.04437255859375
0.02008056640625
0.06195068359375
0.03009033203125
-0.04174804687500
0.05529785156250
0.10858154296875
0.08770751953125
0.00305175781250
-0.01019287109375
0.04541015625000
0.00604248046875
-0.06402587890625
0.03784179687500
0.04876708984375
0.07720947265625
-0.03302001953125
0.02343750000000
0.00750732421875
0.00103759765625
-0.01873779296875
0.03320312500000
-0.03564453125000
0.03247070312500
-0.04101562500000
-0.02496337890625
0.06054687500000
0.02136230468750
0.09399414062500
0.00506591796875
0.06787109375000
0.10577392578125
0.07067871093750
0.06280517578125
0.00823974609375
0.03564453125000
-0.03839111328125
-0.04589843750000
0.06787109375000
0.02471923828125
0.02484130859375
0.02258300781250
0.01794433593750
0.01739501953125
-0.05676269531250
-0.05273437500000
0.01678466796875
0.07208251953125
-0.01879882812500
0.04663085937500
-0.02484130859375
0.08386230468750
0.01226806640625
-0.04473876953125
0.03100585937500
-0.01184082031250
0.07305908203125
-0.03192138671875
0.03021240234375
0.02453613281250
0.09631347656250
0.11169433593750
0.04437255859375
0.12872314453125
0.06286621093750
0.02227783203125
0.03216552734375
0.01629638671875
-0.05249023437500
0.04876708984375
0.00500488281250
-0.06634521484375
-0.01306152343750
0.00335693359375
0.00830078125000
0.09533691406250
-0.02105712890625
0.02624511718750
0.07525634765625
0.10986328125000
0.07244873046875
0.11370849609375
0.04339599609375
0.06323242187500
0.04547119140625
0.07818603515625
0.00762939453125
0.05511474609375
0.08050537109375
0.02398681640625
0.07556152343750
0.10272216796875
-0.03375244140625
0.01239013671875
0.02313232421875
0.06079101562500
0.06298828125000
0.09277343750000
0.04559326171875
-0.01867675781250
0.08148193359375
0.03326416015625
0.02447509765625
-0.03771972656250
0.06567382812500
0.10095214843750
0.01342773437500
0.03857421875000
0.04211425781250
0.07006835937500
0.08013916015625
0.09875488281250
0.09069824218750
0.01995849609375
0.08782958984375
0.09332275390625
-0.00372314453125
0.03155517578125
-0.05285644531250
-0.00012207031250
-0.07379150390625
-0.02459716796875
0.13861083984375
0.02502441406250
0.06726074218750
0.08496093750000
-0.02203369140625
-0.01257324218750
-0.02850341796875
-0.07299804687500
0.15069580078125
0.04595947265625
0.01232910156250
0.12506103515625
-0.07763671875000
-0.01312255859375
-0.04748535156250
-0.03839111328125
0.04595947265625
0.12322998046875
-0.01635742187500
0.03350830078125
0.00512695312500
0.06896972656250
0.07495117187500
-0.01538085937500
-0.02966308593750
0.10241699218750
0.06988525390625
-0.01251220703125
0.08471679687500
0.07037353515625
0.12963867187500
-0.01379394531250
-0.05749511718750
0.02795410156250
-0.06549072265625
-0.00994873046875
0.10168457031250
0.04656982421875
-0.04510498046875
0.05102539062500
0.11163330078125
-0.03686523437500
0.04864501953125
-0.05877685546875
0.07385253906250
0.04425048828125
-0.04931640625000
-0.00939941406250
0.02490234375000
0.07745361328125
0.04766845703125
-0.03924560546875
0.08929443359375
0.03283691406250
0.06530761718750
-0.02679443359375
0.01257324218750
0.07037353515625
0.07421875000000
0.06427001953125
0.06457519531250
-0.06518554687500
-0.00457763671875
-0.01544189453125
0.04559326171875
-0.05462646484375
0.06207275390625
0.07672119140625
0.04339599609375
0.06280517578125
0.10015869140625
-0.03546142578125
0.10632324218750
-0.02752685546875
0.06793212890625
-0.01989746093750
-0.00909423828125
0.05328369140625
-0.05920410156250
0.07000732421875
0.00433349609375
0.03912353515625
-0.03344726562500
-0.07537841796875
-0.02374267578125
0.05816650390625
0.03387451171875
0.05224609375000
0.03228759765625
0.00860595703125
0.00482177734375
0.06072998046875
0.07135009765625
-0.06121826171875
0.02416992187500
-0.03674316406250
0.00036621093750
0.03405761718750
0.04034423828125
0.02252197265625
0.00915527343750
0.09924316406250
-0.00628662109375
-0.00030517578125
0.03131103515625
-0.01184082031250
-0.05285644531250
-0.04943847656250
0.07318115234375
-0.00573730468750
0.01196289062500
0.03045654296875
0.07586669921875
0.02874755859375
-0.01318359375000
0.01892089843750
0.03765869140625
0.06878662109375
-0.01116943359375
0.03643798828125
0.05969238281250
0.01074218750000
-0.03277587890625
0.05615234375000
0.03619384765625
0.10864257812500
0.06121826171875
0.02557373046875
-0.01470947265625
0.07202148437500
0.06909179687500
0.10290527343750
0.00732421875000
-0.04632568359375
0.09014892578125
-0.00433349609375
0.09796142578125
0.05773925781250
0.00238037109375
0.11425781250000
0.06311035156250
-0.08923339843750
-0.02844238281250
0.09124755859375
0.09564208984375
0.10180664062500
-0.01635742187500
-0.03863525390625
-0.05377197265625
0.08032226562500
0.09216308593750
0.06579589843750
0.08551025390625
0.09832763671875
0.06896972656250
0.05859375000000
0.08172607421875
-0.03466796875000
0.06713867187500
0.06915283203125
0.09045410156250
0.04241943359375
0.05853271484375
0.09478759765625
0.09118652343750
0.10058593750000
0.05957031250000
-0.01721191406250
0.13708496093750
0.05627441406250
0.01788330078125
0.03918457031250
0.07891845703125
-0.01770019531250
0.00445556640625
-0.05364990234375
0.07769775390625
0.09136962890625
-0.04492187500000
0.06036376953125
0.08331298828125
-0.01025390625000
-0.00231933593750
0.04370117187500
0.01220703125000
0.10522460937500
0.03106689453125
-0.00146484375000
0.08984375000000
0.08361816406250
0.08416748046875
-0.01031494140625
0.02905273437500
0.06652832031250
0.02465820312500
0.03155517578125
0.03869628906250
-0.02612304687500
0.07775878906250
0.00622558593750
-0.01867675781250
-0.05432128906250
0.06298828125000
0.00366210937500
-0.01593017578125
0.10986328125000
-0.02868652343750
0.03314208984375
0.03906250000000
0.04925537109375
0.01232910156250
-0.04895019531250
0.06811523437500
0.10876464843750
0.07757568359375
-0.03875732421875
0.10314941406250
0.02929687500000
0.03338623046875
-0.02117919921875
0.09179687500000
-0.04754638671875
0.02539062500000
0.02783203125000
0.05609130859375
0.00225830078125
-0.04119873046875
0.05578613281250
0.06640625000000
-0.04174804687500
0.03802490234375
-0.02148437500000
0.04473876953125
-0.04779052734375
-0.00964355468750
0.04907226562500
0.07641601562500
-0.02978515625000
-0.06280517578125
0.09271240234375
-0.08209228515625
0.07067871093750
-0.05902099609375
0.12048339843750
0.05895996093750
0.09191894531250
0.05859375000000
-0.03717041015625
-0.07061767578125
0.05596923828125
-0.04833984375000
0.00067138671875
-0.04754638671875
-0.07318115234375
0.00311279296875
0.11273193359375
0.07800292968750
0.08605957031250
0.05957031250000
0.13305664062500
0.06958007812500
0.02648925781250
-0.00073242187500
-0.02478027343750
-0.06445312500000
0.01098632812500
0.03924560546875
0.08843994140625
0.07238769531250
-0.06158447265625
0.05218505859375
0.09375000000000
0.04461669921875
0.01550292968750
-0.04779052734375
0.07434082031250
-0.00354003906250
-0.04125976562500
-0.04473876953125
0.08593750000000
0.08123779296875
0.01977539062500
0.07196044921875
0.08770751953125
0.01342773437500
0.02551269531250
-0.00402832031250
0.06286621093750
0.07275390625000
0.08721923828125
-0.05017089843750
-0.00189208984375
0.01562500000000
0.05755615234375
0.04772949218750
-0.00537109375000
-0.05371093750000
0.03350830078125
0.07086181640625
0.05773925781250
0.08282470703125
-0.01055908203125
0.03881835937500
-0.01507568359375
0.02105712890625
-0.00189208984375
-0.03094482421875
-0.02160644531250
0.00134277343750
-0.00384521484375
-0.04608154296875
0.02203369140625
-0.07440185546875
0.03717041015625
-0.02667236328125
-0.04681396484375
0.02655029296875
-0.06311035156250
-0.02343750000000
-0.07043457031250
0.01397705078125
0.05267333984375
-0.06109619140625
-0.01159667968750
0.04315185546875
-0.00158691406250
0.07922363281250
-0.01806640625000
0.05407714843750
-0.00354003906250
-0.00091552734375
-0.07220458984375
-0.01641845703125
-0.04473876953125
-0.00720214843750
0.02813720703125
0.06134033203125
-0.05297851562500
0.09649658203125
0.02703857421875
0.03063964843750
0.00946044921875
-0.01910400390625
-0.02374267578125
0.06597900390625
-0.00628662109375
0.03045654296875
0.03808593750000
0.10620117187500
0.10400390625000
0.04742431640625
-0.05078125000000
-0.00268554687500
0.03771972656250
-0.04333496093750
-0.01336669921875
0.07019042968750
0.09771728515625
0.09924316406250
0.09259033203125
0.02661132812500
0.09124755859375
0.01910400390625
0.08172607421875
-0.03997802734375
0.09216308593750
0.07226562500000
-0.01531982421875
-0.00817871093750
0.05047607421875
-0.00463867187500
0.03741455078125
0.04760742187500
0.01843261718750
-0.00805664062500
0.09637451171875
-0.07238769531250
-0.01702880859375
-0.04949951171875
-0.02337646484375
-0.03466796875000
0.05548095703125
0.02545166015625
-0.02026367187500
-0.03472900390625
-0.06256103515625
0.08386230468750
-0.04382324218750
0.09735107421875
-0.06597900390625
0.09362792968750
-0.02990722656250
-0.01739501953125
-0.01013183593750
0.01586914062500
0.09417724609375
0.09271240234375
0.01226806640625
0.11352539062500
0.08996582031250
-0.00299072265625
0.02923583984375
0.06726074218750
-0.01354980468750
0.08386230468750
-0.02728271484375
0.06384277343750
-0.01971435546875
0.02685546875000
0.02520751953125
-0.05609130859375
0.00054931640625
0.08911132812500
-0.02697753906250
-0.00622558593750
0.00000000000000
0.07940673828125
0.06835937500000
0.03216552734375
-0.07110595703125
-0.00915527343750
-0.01586914062500
-0.01654052734375
-0.01879882812500
-0.06384277343750
-0.02117919921875
0.06060791015625
0.05883789062500
0.03253173828125
-0.00878906250000
0.05499267578125
0.00854492187500
-0.06591796875000
0.09106445312500
0.03704833984375
0.03820800781250
0.13598632812500
0.05841064453125
0.09338378906250
0.05706787109375
0.11248779296875
0.05364990234375
0.03680419921875
0.00292968750000
0.01397705078125
-0.05169677734375
0.01434326171875
-0.02368164062500
0.10711669921875
-0.03509521484375
0.06182861328125
0.09191894531250
0.05432128906250
0.01300048828125
-0.06103515625000
-0.04968261718750
0.07281494140625
0.08398437500000
0.02014160156250
0.04705810546875
0.00665283203125
0.06817626953125
0.09216308593750
0.04693603515625
0.05126953125000
-0.00115966796875
0.07275390625000
-0.01251220703125
-0.06927490234375
0.01397705078125
0.02978515625000
-0.00183105468750
-0.06207275390625
0.03002929687500
0.03082275390625
-0.04858398437500
-0.00494384765625
0.04492187500000
-0.01580810546875
-0.00646972656250
-0.01892089843750
0.07666015625000
0.08276367187500
0.00164794921875
0.09338378906250
0.02642822265625
-0.01257324218750
0.07843017578125
-0.01080322265625
0.04205322265625
0.05413818359375
0.03747558593750
0.05944824218750
-0.00616455078125
0.00030517578125
0.03955078125000
0.03698730468750
0.08544921875000
0.09320068359375
0.02038574218750
-0.06536865234375
0.02148437500000
0.07757568359375
0.04675292968750
0.01025390625000
0.10461425781250
0.04583740234375
0.10321044921875
-0.03710937500000
-0.01733398437500
-0.00714111328125
0.08111572265625
0.03216552734375
-0.01556396484375
0.13769531250000
-0.05108642578125
0.05273437500000
0.06677246093750
-0.04620361328125
-0.00506591796875
-0.00976562500000
-0.00415039062500
-0.05310058593750
0.07092285156250
-0.07556152343750
0.12768554687500
0.01062011718750
0.01715087890625
0.08068847656250
-0.04815673828125
-0.00842285156250
-0.07122802734375
0.09185791015625
0.09191894531250
-0.01727294921875
0.03601074218750
-0.02087402343750
-0.04608154296875
0.00262451171875
-0.03369140625000
0.12322998046875
0.04913330078125
-0.04071044921875
-0.02838134765625
-0.04315185546875
-0.07647705078125
0.11529541015625
-0.03479003906250
0.03002929687500
-0.07330322265625
-0.00927734375000
-0.01196289062500
0.04809570312500
-0.02374267578125
-0.02972412109375
0.05554199218750
0.05950927734375
0.10253906250000
-0.05218505859375
0.06665039062500
0.02703857421875
0.03735351562500
0.02404785156250
0.04595947265625
-0.06195068359375
0.04425048828125
-0.00402832031250
-0.03771972656250
0.00469970703125
-0.04669189453125
0.02331542968750
0.08990478515625
-0.02343750000000
0.05859375000000
-0.02404785156250
0.08184814453125
-0.00701904296875
0.07501220703125
0.01007080078125
-0.03491210937500
-0.03192138671875
-0.01263427734375
0.03436279296875
0.00769042968750
-0.01000976562500
-0.06268310546875
-0.08178710937500
-0.04467773437500
-0.00097656250000
0.10156250000000
0.02624511718750
-0.02740478515625
0.06652832031250
-0.04992675781250
-0.01788330078125
0.08691406250000
0.05822753906250
-0.02526855468750
-0.02764892578125
-0.00292968750000
0.04022216796875
-0.05908203125000
-0.04071044921875
0.10241699218750
0.10864257812500
0.03686523437500
0.10662841796875
0.03997802734375
0.03540039062500
-0.05920410156250
0.12805175781250
0.09143066406250
0.00238037109375
-0.05401611328125
-0.01892089843750
-0.00909423828125
0.07800292968750
0.06604003906250
-0.02569580078125
-0.00787353515625
0.03582763671875
0.05218505859375
-0.02709960937500
-0.01342773437500
0.03179931640625
0.01397705078125
0.06433105468750
0.10076904296875
-0.08874511718750
0.05853271484375
0.08740234375000
-0.02600097656250
-0.05017089843750
0.09014892578125
0.02972412109375
-0.02642822265625
-0.06488037109375
-0.06115722656250
0.07598876953125
0.03588867187500
0.01141357421875
0.08026123046875
-0.05053710937500
0.05468750000000
-0.00421142578125
-0.01989746093750
0.05883789062500
0.04431152343750
-0.08654785156250
0.12841796875000
0.04766845703125
-0.02172851562500
-0.01306152343750
-0.06713867187500
0.02740478515625
0.01599121093750
0.08306884765625
0.07775878906250
0.05480957031250
0.07452392578125
-0.00762939453125
0.03363037109375
-0.03430175781250
-0.02337646484375
0.03625488281250
0.06988525390625
0.05047607421875
0.06170654296875
0.04937744140625
0.00170898437500
0.01373291015625
-0.07159423828125
-0.04718017578125
0.04754638671875
-0.02740478515625
-0.05163574218750
0.07031250000000
0.04064941406250
0.04986572265625
-0.00646972656250
-0.09960937500000
0.07318115234375
0.04547119140625
0.03973388671875
-0.07415771484375
0.03186035156250
-0.03546142578125
-0.03839111328125
0.08135986328125
0.10058593750000
-0.02734375000000
0.06640625000000
0.08514404296875
0.00787353515625
0.06390380859375
-0.00982666015625
-0.07238769531250
0.03607177734375
-0.05474853515625
0.00360107421875
0.02502441406250
0.03106689453125
-0.02325439453125
-0.02093505859375
-0.00097656250000
-0.02655029296875
-0.03594970703125
-0.01959228515625
-0.07067871093750
0.00982666015625
0.05883789062500
0.05810546875000
0.04370117187500
0.01275634765625
0.05047607421875
0.04907226562500
0.10217285156250
-0.02618408203125
0.01092529296875
0.08721923828125
-0.06011962890625
-0.04309082031250
0.07000732421875
0.05682373046875
0.02038574218750
-0.02093505859375
0.08978271484375
-0.04028320312500
0.08868408203125
0.10131835937500
-0.01348876953125
0.03100585937500
-0.04187011718750
0.07019042968750
0.08703613281250
0.06103515625000
0.00903320312500
-0.00189208984375
0.05401611328125
-0.00268554687500
-0.04437255859375
0.05828857421875
-0.01782226562500
0.11431884765625
-0.05346679687500
0.02593994140625
-0.01342773437500
0.03674316406250
-0.07989501953125
-0.03430175781250
0.02404785156250
-0.05322265625000
0.01684570312500
0.09222412109375
-0.04736328125000
0.09063720703125
-0.02014160156250
0.03381347656250
0.00701904296875
0.09246826171875
0.01708984375000
0.10266113281250
0.00585937500000
-0.00048828125000
0.09863281250000
0.00524902343750
0.06243896484375
0.05731201171875
0.07800292968750
0.04357910156250
0.03631591796875
0.07409667968750
0.15850830078125
0.08496093750000
-0.00714111328125
0.01031494140625
-0.01312255859375
0.00512695312500
0.04553222656250
0.03143310546875
0.09851074218750
-0.00280761718750
0.03314208984375
0.06201171875000
0.01239013671875
-0.02905273437500
0.02618408203125
0.04565429687500
-0.00549316406250
-0.02624511718750
0.06420898437500
-0.00634765625000
0.04724121093750
0.05664062500000
0.07781982421875
0.00488281250000
0.11083984375000
0.11077880859375
0.05706787109375
0.06982421875000
0.08685302734375
0.00573730468750
0.03497314453125
0.02069091796875
0.02154541015625
0.01757812500000
0.07666015625000
0.01763916015625
0.02703857421875
-0.10449218750000
0.11822509765625
-0.00500488281250
0.00543212890625
-0.00152587890625
0.07293701171875
0.04779052734375
0.06072998046875
0.10070800781250
0.14672851562500
0.05578613281250
0.03247070312500
0.03765869140625
0.10986328125000
0.07568359375000
0.08636474609375
0.05786132812500
0.09661865234375
0.09197998046875
0.07476806640625
0.03503417968750
-0.01678466796875
0.04388427734375
0.07781982421875
0.11718750000000
0.06121826171875
0.05560302734375
-0.04736328125000
0.10351562500000
0.12500000000000
0.02636718750000
0.09826660156250
0.13806152343750
-0.02899169921875
0.04840087890625
-0.02416992187500
-0.00335693359375
0.02557373046875
-0.02239990234375
0.00793457031250
-0.06866455078125
-0.02294921875000
0.06799316406250
-0.02117919921875
0.04339599609375
0.10906982421875
0.09271240234375
0.06176757812500
-0.06427001953125
-0.02423095703125
-0.02038574218750
-0.06732177734375
-0.00347900390625
0.08349609375000
-0.03155517578125
0.09179687500000
-0.05462646484375
0.03137207031250
-0.01019287109375
0.02038574218750
-0.05017089843750
0.08953857421875
-0.03674316406250
0.07525634765625
-0.02795410156250
-0.00103759765625
-0.03576660156250
-0.00579833984375
0.08282470703125
0.00701904296875
-0.00408935546875
-0.01037597656250
-0.04125976562500
0.12377929687500
-0.02191162109375
-0.00305175781250
0.03082275390625
0.11059570312500
-0.01031494140625
0.00006103515625
0.06835937500000
-0.05328369140625
-0.04492187500000
0.09661865234375
0.08392333984375
-0.01171875000000
0.03424072265625
0.03076171875000
-0.01501464843750
0.13861083984375
-0.00469970703125
-0.03521728515625
-0.06555175781250
0.00799560546875
0.01391601562500
-0.00750732421875
0.09375000000000
0.01324462890625
0.01171875000000
0.05273437500000
-0.02154541015625
0.08569335937500
0.05151367187500
0.04370117187500
0.08020019531250
0.12811279296875
0.05487060546875
0.06427001953125
0.09442138671875
0.08068847656250
0.01861572265625
-0.02105712890625
0.04162597656250
0.05999755859375
-0.02667236328125
0.11877441406250
-0.04614257812500
0.11499023437500
-0.05273437500000
-0.00677490234375
0.01379394531250
0.10083007812500
0.07165527343750
-0.04168701171875
0.05749511718750
-0.01605224609375
0.12139892578125
0.04577636718750
0.01110839843750
0.04669189453125
0.09149169921875
0.03308105468750
0.10870361328125
0.05383300781250
0.10943603515625
0.06451416015625
-0.01007080078125
0.06256103515625
0.07147216796875
0.05761718750000
0.03015136718750
0.04357910156250
0.04724121093750
0.06744384765625
0.02288818359375
0.05206298828125
0.05108642578125
-0.06750488281250
-0.03472900390625
-0.03552246093750
0.03222656250000
0.04449462890625
-0.05163574218750
0.09338378906250
-0.01232910156250
0.01812744140625
0.10382080078125
-0.02258300781250
0.01110839843750
-0.04998779296875
0.04724121093750
0.11669921875000
0.05004882812500
-0.03582763671875
-0.02447509765625
-0.02893066406250
0.06530761718750
0.10943603515625
-0.01306152343750
-0.01904296875000
-0.01293945312500
0.03820800781250
0.06787109375000
0.03027343750000
0.03631591796875
0.03320312500000
-0.00231933593750
0.13037109375000
0.05700683593750
0.02014160156250
0.11486816406250
-0.04260253906250
0.07537841796875
-0.01416015625000
0.05493164062500
0.05163574218750
0.07379150390625
0.03021240234375
0.10699462890625
-0.00183105468750
0.05938720703125
0.06689453125000
0.05224609375000
-0.00207519531250
0.02844238281250
0.01190185546875
0.01062011718750
-0.04010009765625
0.05218505859375
-0.01373291015625
0.16217041015625
0.13873291015625
0.09539794921875
0.08160400390625
0.02508544921875
0.05767822265625
0.09777832031250
-0.02252197265625
0.00921630859375
0.11169433593750
0.08880615234375
-0.00268554687500
0.00604248046875
0.08166503906250
-0.02111816406250
-0.02587890625000
0.04656982421875
0.05224609375000
0.05743408203125
0.02386474609375
0.18780517578125
-0.06445312500000
0.12194824218750
0.00952148437500
-0.02520751953125
0.21313476562500
-0.02270507812500
-0.01940917968750
0.08856201171875
0.01544189453125
0.03839111328125
0.10461425781250
0.03295898437500
0.03570556640625
0.01312255859375
0.01135253906250
-0.01751708984375
-0.04663085937500
0.06262207031250
-0.05322265625000
0.14147949218750
0.06762695312500
0.11169433593750
0.00677490234375
-0.02838134765625
0.13372802734375
0.06982421875000
-0.04956054687500
-0.05004882812500
-0.02478027343750
-0.00323486328125
0.09448242187500
-0.04742431640625
-0.01208496093750
0.08074951171875
0.06854248046875
0.00640869140625
0.07196044921875
0.09313964843750
0.08007812500000
0.07641601562500
0.02502441406250
0.05120849609375
0.06103515625000
-0.01898193359375
0.14794921875000
-0.02026367187500
0.00366210937500
0.02636718750000
0.13549804687500
-0.01715087890625
0.05432128906250
0.01678466796875
-0.01635742187500
0.06207275390625
0.06567382812500
-0.03350830078125
0.06860351562500
0.00854492187500
0.04077148437500
0.05950927734375
0.06024169921875
0.02722167968750
0.09124755859375
0.04156494140625
0.07537841796875
-0.03833007812500
0.06195068359375
-0.03088378906250
0.01770019531250
0.00305175781250
-0.01049804687500
0.08697509765625
-0.01196289062500
-0.00738525390625
-0.00677490234375
0.10150146484375
0.01550292968750
0.05187988281250
0.10058593750000
-0.00744628906250
0.08184814453125
0.07788085937500
0.12518310546875
0.04968261718750
0.06274414062500
-0.04327392578125
0.03857421875000
0.03845214843750
0.02801513671875
0.04217529296875
0.04272460937500
-0.00561523437500
0.12591552734375
-0.02392578125000
-0.01062011718750
0.09130859375000
-0.00958251953125
0.03961181640625
0.05932617187500
0.08312988281250
-0.00207519531250
0.04754638671875
0.07238769531250
0.07873535156250
-0.01574707031250
0.06146240234375
-0.06909179687500
-0.02789306640625
-0.00091552734375
0.08496093750000
0.05249023437500
0.03369140625000
0.12127685546875
0.11895751953125
0.10235595703125
0.06958007812500
0.07415771484375
0.10363769531250
0.05676269531250
0.09362792968750
0.04156494140625
0.05487060546875
0.09533691406250
0.06860351562500
0.12957763671875
0.06512451171875
-0.00183105468750
0.06066894531250
0.03552246093750
0.00408935546875
0.04321289062500
0.10186767578125
-0.03509521484375
0.16217041015625
0.07830810546875
-0.01574707031250
0.03393554687500
0.00891113281250
0.07794189453125
0.04980468750000
-0.02416992187500
0.00872802734375
-0.05767822265625
0.04571533203125
-0.02899169921875
0.00335693359375
0.05920410156250
0.02886962890625
0.09143066406250
0.02313232421875
0.07025146484375
0.05377197265625
0.00299072265625
0.06842041015625
-0.02288818359375
-0.07104492187500
0.09033203125000
0.03076171875000
0.10913085937500
-0.01397705078125
0.05957031250000
0.12243652343750
-0.03155517578125
0.03796386718750
-0.02282714843750
-0.00793457031250
0.08215332031250
-0.04547119140625
-0.03668212890625
0.04779052734375
0.04516601562500
-0.05151367187500
0.04296875000000
-0.04559326171875
0.14843750000000
0.01556396484375
-0.01190185546875
-0.01287841796875
-0.04064941406250
0.11169433593750
0.01153564453125
0.05877685546875
-0.06549072265625
0.09393310546875
0.08337402343750
-0.00952148437500
0.03533935546875
0.12609863281250
0.02087402343750
0.08319091796875
-0.01544189453125
-0.04370117187500
0.03283691406250
-0.05328369140625
-0.06555175781250
0.11968994140625
0.12811279296875
0.11462402343750
-0.01513671875000
0.07263183593750
0.06878662109375
0.10919189453125
0.10253906250000
-0.00354003906250
0.08679199218750
0.01666259765625
0.03723144531250
-0.04675292968750
0.02215576171875
-0.03680419921875
0.00036621093750
0.13769531250000
0.07281494140625
-0.02972412109375
-0.03375244140625
0.09118652343750
0.00231933593750
0.04125976562500
0.00421142578125
0.10760498046875
0.03033447265625
-0.03125000000000
-0.01745605468750
-0.03955078125000
0.03826904296875
0.08856201171875
0.05413818359375
-0.02526855468750
0.04724121093750
0.02288818359375
0.07739257812500
0.00531005859375
-0.02166748046875
-0.04431152343750
0.04528808593750
-0.02899169921875
-0.04919433593750
0.03649902343750
0.07568359375000
0.01177978515625
-0.05633544921875
-0.03497314453125
0.08197021484375
0.13873291015625
0.05541992187500
-0.02374267578125
-0.02166748046875
0.07653808593750
0.02770996093750
0.02862548828125
0.02276611328125
0.00024414062500
0.04138183593750
0.11822509765625
0.01354980468750
-0.00640869140625
0.02691650390625
0.09197998046875
0.06103515625000
-0.06042480468750
0.01959228515625
-0.04522705078125
0.07244873046875
0.07666015625000
0.08825683593750
0.08203125000000
-0.00360107421875
0.08764648437500
-0.03234863281250
-0.00775146484375
-0.05578613281250
-0.04614257812500
0.01477050781250
0.03417968750000
0.01428222656250
0.04943847656250
-0.00335693359375
0.09045410156250
0.04254150390625
-0.01782226562500
0.03948974609375
-0.03137207031250
0.07965087890625
0.03497314453125
0.00830078125000
0.02301025390625
0.07952880859375
0.09436035156250
0.02423095703125
-0.00347900390625
-0.02557373046875
-0.05413818359375
-0.03948974609375
-0.03533935546875
0.05676269531250
0.02288818359375
0.10052490234375
0.12274169921875
0.06347656250000
0.02923583984375
0.06585693359375
0.02984619140625
-0.00482177734375
0.03088378906250
-0.03637695312500
0.00762939453125
0.02288818359375
-0.01593017578125
0.05200195312500
0.08911132812500
0.00549316406250
0.00726318359375
0.00695800781250
0.01794433593750
0.11181640625000
0.10791015625000
0.03002929687500
0.11535644531250
0.11267089843750
0.00744628906250
0.01531982421875
-0.03619384765625
0.11718750000000
0.03979492187500
-0.02990722656250
-0.00891113281250
0.09002685546875
-0.02856445312500
-0.01916503906250
0.10247802734375
0.11578369140625
0.11346435546875
0.10668945312500
0.03948974609375
0.05694580078125
0.03350830078125
-0.00805664062500
0.09228515625000
0.07708740234375
0.04644775390625
0.02453613281250
-0.04803466796875
0.05651855468750
0.07989501953125
0.03558349609375
0.05511474609375
0.05212402343750
0.03710937500000
0.00567626953125
0.03472900390625
0.09600830078125
0.07104492187500
0.09692382812500
-0.04760742187500
0.02648925781250
0.00238037109375
-0.04125976562500
0.01544189453125
0.06640625000000
-0.03375244140625
0.07629394531250
0.01702880859375
-0.02966308593750
-0.01861572265625
0.05456542968750
-0.01159667968750
0.10894775390625
-0.00140380859375
-0.02392578125000
0.00067138671875
0.11608886718750
0.04425048828125
0.06365966796875
-0.01031494140625
0.05023193359375
0.02117919921875
-0.04388427734375
0.03558349609375
-0.01672363281250
0.05279541015625
0.09802246093750
0.11779785156250
0.05334472656250
0.02801513671875
0.08819580078125
0.09265136718750
0.01800537109375
-0.05920410156250
-0.02111816406250
0.07678222656250
0.11090087890625
0.03192138671875
0.08062744140625
0.07305908203125
0.03149414062500
-0.00762939453125
0.01354980468750
0.03942871093750
0.02075195312500
0.02465820312500
0.06787109375000
0.10717773437500
0.02862548828125
0.04577636718750
-0.02990722656250
0.00659179687500
0.08654785156250
0.08709716796875
-0.00140380859375
-0.06628417968750
0.03778076171875
-0.05810546875000
0.05303955078125
0.00958251953125
0.05139160156250
-0.00396728515625
0.10107421875000
0.05871582031250
-0.02807617187500
0.03796386718750
0.07012939453125
0.07086181640625
-0.00488281250000
0.05499267578125
0.04644775390625
0.01800537109375
0.14056396484375
0.04144287109375
0.06817626953125
0.07617187500000
0.16278076171875
-0.06744384765625
0.08056640625000
0.00085449218750
0.00756835937500
0.01971435546875
0.07318115234375
0.00036621093750
0.04669189453125
0.02221679687500
0.08502197265625
0.02062988281250
-0.02972412109375
0.04998779296875
0.00280761718750
-0.01635742187500
0.08245849609375
0.09783935546875
0.06744384765625
-0.04150390625000
-0.04644775390625
-0.01342773437500
0.09448242187500
0.04797363281250
0.10998535156250
0.03723144531250
0.00000000000000
0.11279296875000
-0.01208496093750
0.04870605468750
0.07452392578125
-0.02642822265625
-0.00701904296875
-0.05712890625000
-0.02044677734375
0.06732177734375
0.02856445312500
-0.04400634765625
0.12506103515625
0.02990722656250
0.03552246093750
0.09576416015625
-0.05023193359375
0.08703613281250
-0.00708007812500
-0.05529785156250
0.06677246093750
-0.03088378906250
-0.01873779296875
0.07794189453125
-0.02453613281250
0.02355957031250
0.10052490234375
-0.02166748046875
0.02593994140625
0.02435302734375
0.04742431640625
-0.03210449218750
-0.00299072265625
0.11242675781250
0.01788330078125
0.05206298828125
0.12542724609375
0.10485839843750
0.14257812500000
0.03918457031250
0.01788330078125
0.05218505859375
0.12579345703125
0.03674316406250
-0.04699707031250
0.01354980468750
0.11682128906250
-0.04101562500000
-0.04760742187500
0.03765869140625
0.05969238281250
0.01678466796875
0.09771728515625
-0.00341796875000
-0.02587890625000
0.11779785156250
0.08721923828125
0.03515625000000
-0.02954101562500
0.04174804687500
0.03680419921875
0.12207031250000
0.01470947265625
0.06439208984375
0.07067871093750
0.11633300781250
0.12432861328125
0.02453613281250
0.08941650390625
0.06903076171875
-0.00415039062500
0.03009033203125
0.06317138671875
0.10119628906250
0.05102539062500
0.06671142578125
0.06921386718750
0.00573730468750
0.15368652343750
0.01269531250000
0.06585693359375
0.05364990234375
-0.03826904296875
0.05535888671875
0.10443115234375
-0.04534912109375
0.08453369140625
0.05456542968750
0.01196289062500
0.06164550781250
0.09661865234375
0.07421875000000
0.03240966796875
0.01214599609375
0.02349853515625
0.09936523437500
-0.07202148437500
0.02526855468750
-0.04309082031250
0.10375976562500
0.05096435546875
0.00280761718750
0.08636474609375
0.11657714843750
0.06512451171875
-0.02044677734375
0.12115478515625
-0.01971435546875
0.02868652343750
0.06121826171875
-0.03247070312500
0.02148437500000
0.01782226562500
0.05706787109375
0.04211425781250
0.02709960937500
-0.04455566406250
0.02545166015625
0.00061035156250
0.11700439453125
0.01556396484375
-0.01892089843750
0.02478027343750
0.08251953125000
0.07208251953125
0.07434082031250
0.02966308593750
-0.02813720703125
0.01904296875000
0.10705566406250
0.03552246093750
0.00079345703125
0.03155517578125
-0.00659179687500
0.08770751953125
0.08367919921875
0.09167480468750
0.03283691406250
0.09259033203125
0.08172607421875
-0.03552246093750
0.01190185546875
0.00378417968750
0.07110595703125
0.02038574218750
-0.03381347656250
0.06018066406250
0.04943847656250
-0.00134277343750
0.03979492187500
0.02734375000000
0.10723876953125
0.04516601562500
0.11059570312500
0.09088134765625
-0.03826904296875
0.03546142578125
0.01239013671875
-0.01519775390625
0.02929687500000
0.01104736328125
0.11999511718750
0.09375000000000
0.10131835937500
-0.03564453125000
0.03967285156250
0.11523437500000
0.01312255859375
0.06195068359375
0.00994873046875
0.09570312500000
-0.01068115234375
-0.02459716796875
0.06964111328125
0.04418945312500
0.03070068359375
0.05035400390625
0.05273437500000
0.04376220703125
0.08612060546875
0.09100341796875
0.03540039062500
0.06866455078125
0.03527832031250
0.03814697265625
-0.02545166015625
0.08093261718750
0.07873535156250
-0.00738525390625
0.11694335937500
0.01611328125000
-0.00939941406250
0.02478027343750
-0.02563476562500
0.05059814453125
-0.05267333984375
0.00000000000000
-0.04168701171875
0.05096435546875
-0.01800537109375
0.06634521484375
0.03454589843750
0.02301025390625
-0.02062988281250
0.07098388671875
-0.03863525390625
0.08807373046875
-0.05224609375000
0.06890869140625
-0.03375244140625
-0.07910156250000
0.07922363281250
0.04028320312500
-0.03594970703125
0.05267333984375
-0.00366210937500
0.05346679687500
-0.01263427734375
0.02514648437500
0.09838867187500
0.10437011718750
-0.01123046875000
-0.02539062500000
-0.04504394531250
0.04449462890625
0.05505371093750
0.01086425781250
-0.04260253906250
0.08673095703125
0.06866455078125
0.08605957031250
0.02618408203125
0.09222412109375
0.09716796875000
0.08703613281250
0.06854248046875
-0.01416015625000
0.05316162109375
0.00091552734375
0.09631347656250
-0.00885009765625
0.00299072265625
0.00421142578125
0.04406738281250
0.01281738281250
0.12237548828125
0.02764892578125
-0.00677490234375
-0.04425048828125
0.06036376953125
0.04516601562500
0.02075195312500
0.02606201171875
0.08081054687500
0.00775146484375
0.00256347656250
-0.01300048828125
0.07000732421875
0.06298828125000
0.00073242187500
0.05535888671875
0.04602050781250
0.09436035156250
0.00152587890625
0.13024902343750
0.06042480468750
-0.04785156250000
0.12304687500000
-0.03027343750000
0.01580810546875
0.10565185546875
-0.11132812500000
0.00964355468750
-0.07257080078125
0.06744384765625
-0.07159423828125
0.11767578125000
0.06164550781250
-0.00158691406250
-0.01318359375000
-0.01757812500000
-0.08074951171875
-0.04339599609375
0.02233886718750
0.12518310546875
-0.07806396484375
-0.08599853515625
0.00000000000000
-0.02917480468750
-0.06439208984375
0.00622558593750
-0.12103271484375
-0.03863525390625
0.04278564453125
-0.03863525390625
-0.05822753906250
0.00543212890625
-0.04656982421875
-0.09442138671875
0.07672119140625
0.01330566406250
-0.04046630859375
-0.06243896484375
-0.09667968750000
0.07171630859375
-0.05139160156250
0.00683593750000
-0.06958007812500
-0.04272460937500
-0.05334472656250
-0.05529785156250
-0.00646972656250
-0.01800537109375
-0.06677246093750
-0.03497314453125
-0.03723144531250
-0.10308837890625
-0.06182861328125
-0.10333251953125
0.02136230468750
-0.01995849609375
-0.07934570312500
-0.04357910156250
0.02404785156250
-0.05993652343750
0.00439453125000
0.02966308593750
-0.00091552734375
0.15716552734375
0.02032470703125
-0.09356689453125
0.13946533203125
-0.07098388671875
-0.01159667968750
-0.00592041015625
-0.03228759765625
-0.01763916015625
0.07470703125000
0.04382324218750
0.00445556640625
-0.02172851562500
0.02374267578125
0.05889892578125
0.01232910156250
0.03729248046875
-0.01708984375000
-0.05676269531250
0.01824951171875
0.13433837890625
0.02532958984375
-0.02172851562500
0.19628906250000
-0.08917236328125
0.04846191406250
0.04718017578125
-0.00268554687500
-0.04162597656250
-0.00201416015625
0.03564453125000
0.04565429687500
0.01806640625000
0.00292968750000
0.02886962890625
-0.01794433593750
-0.00964355468750
0.07879638671875
0.00311279296875
-0.02655029296875
0.06597900390625
0.00482177734375
-0.06152343750000
0.07165527343750
0.04608154296875
-0.08160400390625
0.00885009765625
-0.19671630859375
-0.02038574218750
0.00994873046875
-0.07617187500000
0.03643798828125
0.06311035156250
0.00103759765625
-0.07446289062500
0.07061767578125
-0.00799560546875
0.00415039062500
0.01745605468750
0.10980224609375
0.00433349609375
-0.05242919921875
-0.00720214843750
-0.06213378906250
-0.05950927734375
0.01904296875000
-0.00146484375000
-0.00189208984375
0.05731201171875
-0.09472656250000
0.05560302734375
0.05804443359375
-0.03271484375000
0.02014160156250
-0.07238769531250
0.11694335937500
0.04760742187500
-0.06823730468750
0.02746582031250
0.00225830078125
-0.11157226562500
-0.06048583984375
0.06176757812500
0.05316162109375
-0.00451660156250
-0.03649902343750
0.06146240234375
0.00830078125000
0.00238037109375
-0.00512695312500
-0.01550292968750
0.03601074218750
-0.09643554687500
0.02270507812500
0.00177001953125
0.00299072265625
0.01330566406250
0.05261230468750
0.05712890625000
-0.09783935546875
0.01562500000000
-0.02874755859375
-0.02716064453125
-0.11950683593750
-0.05700683593750
-0.08105468750000
-0.06439208984375
-0.08624267578125
-0.02008056640625
-0.03491210937500
0.02996826171875
-0.04724121093750
-0.08337402343750
-0.07647705078125
-0.10064697265625
0.02166748046875
-0.10723876953125
-0.05902099609375
0.02447509765625
0.03820800781250
0.04718017578125
-0.03656005859375
-0.06640625000000
0.03735351562500
0.00988769531250
-0.03704833984375
-0.01098632812500
0.05480957031250
0.02832031250000
0.00146484375000
0.01330566406250
0.02478027343750
-0.10723876953125
-0.00988769531250
0.02374267578125
0.04711914062500
0.12322998046875
0.01916503906250
-0.00744628906250
0.20947265625000
0.16357421875000
-0.00170898437500
0.02838134765625
0.01849365234375
-0.00244140625000
0.06140136718750
-0.07092285156250
-0.06713867187500
-0.02111816406250
-0.09051513671875
-0.00463867187500
0.13305664062500
-0.02575683593750
0.03631591796875
0.04650878906250
0.07934570312500
-0.08062744140625
0.03479003906250
-0.01068115234375
0.02008056640625
-0.03820800781250
-0.01580810546875
-0.01916503906250
-0.02734375000000
0.04376220703125
-0.07775878906250
-0.10491943359375
0.01770019531250
-0.05773925781250
0.04223632812500
-0.08789062500000
-0.00903320312500
-0.05328369140625
-0.04821777343750
-0.05926513671875
-0.17071533203125
0.00567626953125
0.05096435546875
0.01373291015625
-0.00036621093750
-0.09674072265625
-0.09411621093750
0.04754638671875
0.12542724609375
0.05718994140625
0.00805664062500
-0.00616455078125
-0.01116943359375
0.02215576171875
-0.09503173828125
0.03802490234375
-0.02923583984375
0.02014160156250
-0.08996582031250
-0.06671142578125
-0.02441406250000
0.07794189453125
0.03063964843750
0.01953125000000
0.01574707031250
-0.01806640625000
-0.04010009765625
0.06896972656250
-0.00903320312500
-0.10723876953125
-0.06005859375000
-0.05212402343750
0.07873535156250
-0.07446289062500
0.02630615234375
-0.04992675781250
0.04766845703125
-0.09320068359375
0.03381347656250
-0.04876708984375
-0.00061035156250
0.03930664062500
-0.02642822265625
0.04644775390625
0.08111572265625
-0.05749511718750
-0.03363037109375
-0.09832763671875
0.00000000000000
-0.02905273437500
0.05480957031250
-0.09808349609375
-0.04437255859375
0.03375244140625
0.07153320312500
-0.08264160156250
0.03491210937500
-0.05786132812500
0.02465820312500
-0.02844238281250
0.01593017578125
0.04779052734375
-0.02252197265625
-0.06243896484375
0.03588867187500
0.02307128906250
-0.09722900390625
0.01623535156250
0.02001953125000
0.05285644531250
0.00042724609375
0.02447509765625
-0.00128173828125
0.01708984375000
0.02600097656250
0.03417968750000
0.05450439453125
-0.02783203125000
-0.05743408203125
-0.07867431640625
-0.00787353515625
-0.09088134765625
-0.05371093750000
-0.00769042968750
-0.02124023437500
0.01385498046875
0.05786132812500
-0.04553222656250
0.00372314453125
-0.06396484375000
-0.00201416015625
0.05749511718750
0.12780761718750
0.16912841796875
-0.03387451171875
-0.01464843750000
0.03900146484375
0.01007080078125
0.05767822265625
-0.06140136718750
0.02105712890625
-0.11230468750000
-0.06750488281250
-0.07464599609375
0.05310058593750
-0.08453369140625
0.06372070312500
-0.02850341796875
0.10247802734375
-0.00506591796875
-0.04327392578125
-0.06726074218750
-0.01788330078125
-0.05120849609375
-0.07147216796875
-0.02056884765625
0.04632568359375
0.01763916015625
0.01068115234375
0.06707763671875
0.10845947265625
-0.03027343750000
-0.04962158203125
-0.04711914062500
0.02154541015625
-0.01409912109375
0.07653808593750
0.03039550781250
-0.06823730468750
-0.05969238281250
-0.05273437500000
0.04943847656250
-0.10003662109375
-0.01165771484375
-0.07714843750000
0.04779052734375
0.02685546875000
-0.06475830078125
-0.07183837890625
-0.07849121093750
-0.07781982421875
-0.01159667968750
0.06494140625000
-0.06903076171875
-0.13897705078125
-0.03625488281250
-0.07086181640625
-0.10821533203125
-0.12939453125000
-0.00842285156250
0.07409667968750
-0.06365966796875
0.18481445312500
-0.01239013671875
0.00982666015625
0.03375244140625
0.00659179687500
0.18041992187500
-0.05987548828125
-0.06634521484375
-0.04412841796875
0.03247070312500
0.06597900390625
-0.10565185546875
0.02099609375000
0.04193115234375
0.03112792968750
-0.09326171875000
0.01849365234375
-0.01220703125000
0.00354003906250
-0.08355712890625
0.11083984375000
0.02099609375000
0.02923583984375
0.06195068359375
-0.04919433593750
-0.09063720703125
0.00817871093750
-0.09216308593750
0.05480957031250
-0.00286865234375
-0.05426025390625
0.05523681640625
-0.00634765625000
-0.02014160156250
-0.06896972656250
0.06213378906250
-0.06091308593750
0.01770019531250
-0.00823974609375
0.04949951171875
-0.02593994140625
-0.02777099609375
-0.06036376953125
0.00268554687500
-0.06188964843750
-0.02478027343750
-0.01330566406250
-0.00183105468750
0.12463378906250
0.04522705078125
0.03137207031250
-0.10803222656250
-0.00317382812500
-0.04827880859375
0.00512695312500
0.05731201171875
0.08300781250000
0.01025390625000
0.02221679687500
-0.00207519531250
-0.11798095703125
0.02862548828125
-0.01318359375000
0.05511474609375
0.09820556640625
0.02789306640625
-0.08038330078125
-0.08959960937500
0.04376220703125
-0.07330322265625
0.01824951171875
-0.02642822265625
-0.01037597656250
-0.09893798828125
-0.06958007812500
0.02606201171875
-0.04785156250000
-0.09832763671875
0.06652832031250
0.01263427734375
0.10430908203125
0.03283691406250
0.03643798828125
0.01074218750000
0.06616210937500
-0.09234619140625
0.03289794921875
0.01733398437500
-0.07666015625000
0.06011962890625
-0.01379394531250
0.00408935546875
-0.05920410156250
-0.09625244140625
0.01947021484375
-0.00994873046875
-0.08068847656250
-0.09466552734375
-0.00897216796875
0.00811767578125
-0.09094238281250
0.02160644531250
-0.07397460937500
-0.06311035156250
0.01861572265625
-0.06951904296875
0.02532958984375
0.03369140625000
0.15039062500000
-0.01922607421875
-0.03649902343750
0.00823974609375
0.01037597656250
-0.00518798828125
-0.02075195312500
0.04296875000000
-0.00524902343750
-0.07263183593750
-0.08044433593750
0.05926513671875
0.06939697265625
0.02337646484375
-0.07122802734375
-0.07086181640625
-0.00561523437500
0.03118896484375
-0.03753662109375
0.01330566406250
0.01519775390625
-0.00555419921875
0.00390625000000
0.04931640625000
-0.06585693359375
-0.00909423828125
0.00317382812500
-0.02093505859375
-0.05810546875000
0.12994384765625
0.00836181640625
-0.00640869140625
0.04821777343750
0.00213623046875
0.01770019531250
0.07305908203125
-0.02679443359375
0.01928710937500
0.09606933593750
-0.00451660156250
0.08068847656250
0.10681152343750
-0.06671142578125
0.07397460937500
-0.05865478515625
-0.01080322265625
-0.04046630859375
0.09094238281250
-0.05548095703125
0.11486816406250
-0.00183105468750
-0.00360107421875
0.06585693359375
0.03613281250000
0.02227783203125
0.02880859375000
0.06549072265625
0.04217529296875
0.10693359375000
0.17315673828125
0.07958984375000
0.07263183593750
-0.02398681640625
0.02447509765625
-0.07489013671875
-0.05737304687500
0.01593017578125
0.02301025390625
-0.06579589843750
0.03924560546875
-0.03570556640625
0.07452392578125
0.08416748046875
0.11151123046875
0.01629638671875
0.00433349609375
-0.08850097656250
0.03869628906250
-0.01324462890625
-0.03765869140625
0.03826904296875
-0.00408935546875
-0.02465820312500
0.08123779296875
0.02416992187500
0.09344482421875
0.06658935546875
-0.02410888671875
0.03710937500000
0.06713867187500
-0.03887939453125
-0.07055664062500
0.03961181640625
0.02893066406250
-0.01647949218750
-0.02453613281250
-0.02380371093750
0.01782226562500
-0.06762695312500
-0.04931640625000
0.04968261718750
0.10235595703125
0.02319335937500
-0.00408935546875
0.00653076171875
-0.02661132812500
0.11334228515625
0.06011962890625
-0.03002929687500
-0.02691650390625
0.06518554687500
0.07934570312500
0.08264160156250
-0.01141357421875
0.01251220703125
0.05181884765625
-0.02362060546875
0.05328369140625
0.03149414062500
-0.01550292968750
-0.04522705078125
0.08343505859375
-0.03082275390625
0.01318359375000
0.00402832031250
-0.01879882812500
-0.03863525390625
-0.01397705078125
0.09545898437500
-0.05279541015625
0.08740234375000
-0.00482177734375
0.04162597656250
-0.03973388671875
0.13928222656250
0.00823974609375
-0.06634521484375
0.01348876953125
0.00177001953125
-0.02203369140625
0.06250000000000
0.11309814453125
0.04345703125000
-0.00024414062500
-0.07214355468750
0.00695800781250
0.04278564453125
-0.02978515625000
0.03723144531250
0.02484130859375
0.05889892578125
0.04876708984375
-0.00744628906250
-0.06585693359375
-0.05029296875000
0.04595947265625
-0.00811767578125
0.06024169921875
0.00054931640625
0.06561279296875
-0.09033203125000
0.05682373046875
-0.02136230468750
0.04840087890625
0.09936523437500
-0.05676269531250
0.03295898437500
-0.01055908203125
-0.01373291015625
0.14227294921875
0.08807373046875
0.16265869140625
-0.01556396484375
0.03216552734375
-0.03002929687500
0.07012939453125
-0.02569580078125
-0.00616455078125
-0.00280761718750
0.01574707031250
0.05609130859375
-0.03411865234375
0.00891113281250
0.08905029296875
0.06860351562500
0.08734130859375
0.06231689453125
0.05645751953125
-0.09838867187500
0.00408935546875
-0.03894042968750
0.09661865234375
0.01727294921875
-0.04565429687500
0.06652832031250
0.11187744140625
-0.01220703125000
-0.01000976562500
-0.06701660156250
0.07409667968750
-0.01153564453125
0.02966308593750
-0.00708007812500
0.09002685546875
0.02282714843750
0.00476074218750
0.09393310546875
-0.00878906250000
0.06622314453125
-0.03942871093750
0.02697753906250
0.07812500000000
-0.07641601562500
0.00805664062500
-0.03546142578125
-0.05957031250000
-0.11309814453125
-0.00817871093750
-0.00482177734375
-0.06011962890625
0.04107666015625
0.11956787109375
-0.01293945312500
0.04547119140625
0.06561279296875
0.00183105468750
0.01904296875000
0.05957031250000
0.12963867187500
0.08856201171875
-0.02862548828125
0.05706787109375
-0.05468750000000
0.11193847656250
0.13281250000000
0.04724121093750
-0.01983642578125
0.02978515625000
0.14813232421875
0.01049804687500
-0.06530761718750
0.01611328125000
-0.06518554687500
0.09936523437500
0.07312011718750
0.09765625000000
0.09045410156250
-0.03106689453125
-0.07220458984375
0.07427978515625
0.10638427734375
0.03271484375000
0.07562255859375
0.05578613281250
0.02929687500000
0.11004638671875
0.10693359375000
0.06597900390625
0.02551269531250
-0.04827880859375
-0.04803466796875
0.07641601562500
0.13104248046875
0.05718994140625
0.05938720703125
0.12615966796875
0.00103759765625
-0.00744628906250
-0.01123046875000
0.01690673828125
0.04156494140625
0.01599121093750
-0.01647949218750
0.04339599609375
-0.02276611328125
0.07397460937500
0.03247070312500
0.06774902343750
0.07153320312500
0.00152587890625
0.00701904296875
-0.03338623046875
0.04541015625000
0.06530761718750
0.00628662109375
0.00762939453125
0.02368164062500
0.09259033203125
-0.01440429687500
0.13470458984375
0.00384521484375
0.07855224609375
0.05902099609375
0.02221679687500
0.07891845703125
0.04815673828125
0.15472412109375
0.10290527343750
0.05847167968750
-0.02703857421875
-0.03894042968750
0.10290527343750
0.14056396484375
-0.02874755859375
-0.04089355468750
-0.01776123046875
0.02520751953125
0.08782958984375
0.11163330078125
-0.06134033203125
0.11236572265625
-0.02148437500000
-0.06250000000000
0.06933593750000
-0.03021240234375
0.05261230468750
0.07336425781250
0.08557128906250
0.07519531250000
0.06616210937500
-0.07391357421875
0.05889892578125
0.13415527343750
0.06079101562500
-0.06927490234375
-0.05364990234375
0.08587646484375
0.02789306640625
0.02801513671875
-0.00531005859375
0.08660888671875
-0.02856445312500
-0.01550292968750
0.07354736328125
0.06011962890625
0.09606933593750
0.01654052734375
0.07073974609375
0.08081054687500
0.08569335937500
-0.06774902343750
0.01879882812500
0.12158203125000
0.03344726562500
0.01477050781250
-0.02105712890625
-0.01367187500000
0.03143310546875
0.05450439453125
0.00006103515625
0.02545166015625
0.06384277343750
0.00402832031250
-0.02008056640625
0.09942626953125
0.14263916015625
-0.04901123046875
0.05523681640625
-0.04376220703125
0.12829589843750
-0.09484863281250
0.12933349609375
0.14312744140625
0.10180664062500
0.06445312500000
0.09143066406250
0.12261962890625
-0.00933837890625
0.00134277343750
0.07312011718750
0.03540039062500
0.09802246093750
-0.04309082031250
0.04486083984375
0.11651611328125
0.01702880859375
-0.04345703125000
0.10925292968750
0.11950683593750
0.07873535156250
0.00585937500000
-0.00482177734375
0.09674072265625
0.05523681640625
0.08392333984375
-0.02239990234375
0.06475830078125
-0.05078125000000
0.02716064453125
0.03820800781250
0.02777099609375
0.11224365234375
0.09710693359375
0.07067871093750
0.09301757812500
-0.03100585937500
0.06134033203125
0.07745361328125
0.00317382812500
0.07800292968750
-0.06994628906250
0.06005859375000
-0.02294921875000
0.11608886718750
-0.01788330078125
0.02709960937500
0.10198974609375
0.07641601562500
-0.07885742187500
0.00384521484375
0.03887939453125
0.02453613281250
0.04956054687500
0.10919189453125
-0.04046630859375
0.04571533203125
-0.06219482421875
0.00292968750000
0.06823730468750
0.08709716796875
0.01287841796875
0.05480957031250
0.09857177734375
0.02563476562500
0.00726318359375
0.02691650390625
0.11828613281250
0.06591796875000
0.06756591796875
0.02191162109375
-0.04272460937500
-0.04394531250000
0.02404785156250
0.06707763671875
0.06707763671875
0.10681152343750
0.09692382812500
0.05212402343750
-0.04473876953125
-0.03643798828125
-0.04229736328125
0.04064941406250
-0.05358886718750
-0.00012207031250
0.03729248046875
-0.03869628906250
0.03912353515625
0.02124023437500
0.09777832031250
0.14221191406250
0.18878173828125
0.10589599609375
-0.09387207031250
-0.00756835937500
-0.05065917968750
0.01007080078125
0.00994873046875
-0.00256347656250
0.06640625000000
0.06225585937500
0.05651855468750
-0.06158447265625
0.09497070312500
0.09747314453125
-0.02478027343750
0.02142333984375
0.02581787109375
0.03051757812500
-0.00549316406250
-0.01025390625000
0.08605957031250
0.00665283203125
0.03741455078125
-0.02056884765625
0.08038330078125
0.05072021484375
0.07391357421875
0.03808593750000
-0.04174804687500
-0.01525878906250
-0.01300048828125
0.05621337890625
-0.06280517578125
0.05578613281250
-0.05194091796875
0.09265136718750
0.08154296875000
0.04907226562500
0.04681396484375
0.02862548828125
0.05096435546875
0.11865234375000
-0.09600830078125
0.00274658203125
0.09722900390625
0.05322265625000
0.06091308593750
0.03265380859375
0.06115722656250
-0.02673339843750
0.12066650390625
-0.00787353515625
0.04644775390625
0.03643798828125
0.13464355468750
-0.00634765625000
0.02752685546875
0.03936767578125
-0.03485107421875
0.05761718750000
0.01416015625000
0.03668212890625
-0.04431152343750
0.06646728515625
-0.01544189453125
0.05029296875000
-0.00543212890625
-0.00823974609375
0.13574218750000
-0.01782226562500
-0.03277587890625
0.10430908203125
-0.06097412109375
0.07617187500000
-0.00244140625000
0.07788085937500
-0.05627441406250
0.03521728515625
0.02563476562500
0.00219726562500
0.01892089843750
-0.00286865234375
-0.04870605468750
-0.02801513671875
0.10180664062500
-0.05633544921875
0.08764648437500
-0.00250244140625
0.05914306640625
0.06939697265625
-0.05230712890625
0.01019287109375
-0.01690673828125
0.08111572265625
0.03997802734375
-0.04241943359375
-0.06860351562500
-0.03320312500000
0.10284423828125
0.11614990234375
-0.02642822265625
0.02453613281250
0.06866455078125
0.06591796875000
0.03564453125000
-0.01519775390625
0.03002929687500
0.01422119140625
0.08526611328125
-0.00531005859375
0.06884765625000
0.08392333984375
-0.01696777343750
0.05352783203125
-0.02941894531250
0.05572509765625
0.03881835937500
-0.05206298828125
-0.01959228515625
0.00531005859375
0.02166748046875
0.08905029296875
-0.04187011718750
-0.07647705078125
-0.00762939453125
-0.03967285156250
0.00408935546875
0.08410644531250
-0.06091308593750
0.05584716796875
0.07562255859375
0.04187011718750
0.09594726562500
0.00439453125000
-0.04144287109375
0.09039306640625
0.03369140625000
0.00762939453125
-0.05187988281250
0.06402587890625
0.03076171875000
0.02429199218750
0.05999755859375
-0.00811767578125
0.10083007812500
0.05010986328125
-0.09271240234375
-0.01159667968750
0.05487060546875
0.05889892578125
0.00488281250000
0.08007812500000
0.03491210937500
-0.02697753906250
0.05718994140625
0.01763916015625
0.16497802734375
0.10766601562500
-0.05871582031250
0.12438964843750
-0.02423095703125
0.03448486328125
0.08892822265625
0.06665039062500
0.15173339843750
0.00103759765625
0.04040527343750
0.06176757812500
-0.01501464843750
0.01489257812500
-0.03399658203125
-0.04046630859375
0.06610107421875
-0.06378173828125
0.01257324218750
-0.02947998046875
0.10089111328125
0.02728271484375
0.02185058593750
0.00823974609375
0.13812255859375
0.00787353515625
-0.01361083984375
0.07189941406250
0.10516357421875
0.00634765625000
0.04339599609375
0.00573730468750
0.02136230468750
0.12347412109375
-0.02819824218750
-0.04217529296875
-0.03607177734375
0.07220458984375
-0.04840087890625
-0.07989501953125
0.07287597656250
0.05902099609375
0.09472656250000
0.05035400390625
-0.01165771484375
0.02130126953125
0.06555175781250
0.10986328125000
0.01397705078125
0.06359863281250
0.02795410156250
0.00988769531250
-0.00225830078125
0.02539062500000
-0.05267333984375
-0.03326416015625
0.06506347656250
-0.04797363281250
0.03015136718750
0.05340576171875
0.09771728515625
0.11761474609375
0.07824707031250
-0.02984619140625
-0.05694580078125
0.09094238281250
-0.00189208984375
-0.01342773437500
0.00213623046875
-0.01275634765625
-0.05474853515625
-0.01342773437500
0.05133056640625
-0.05767822265625
0.07604980468750
0.02178955078125
-0.02832031250000
0.03967285156250
0.03790283203125
0.06414794921875
-0.01989746093750
0.11395263671875
-0.03112792968750
0.06054687500000
0.04705810546875
0.07745361328125
-0.01721191406250
0.04071044921875
0.01483154296875
-0.04248046875000
0.10168457031250
-0.00573730468750
0.08593750000000
-0.05511474609375
0.07147216796875
-0.01147460937500
0.07067871093750
0.04388427734375
0.05364990234375
0.08032226562500
-0.05676269531250
-0.06353759765625
0.06707763671875
0.05895996093750
0.03485107421875
-0.05963134765625
0.03198242187500
0.02679443359375
-0.03173828125000
-0.03375244140625
-0.00939941406250
0.02740478515625
-0.04455566406250
-0.04223632812500
-0.05200195312500
0.09301757812500
0.05712890625000
-0.00732421875000
0.05389404296875
-0.02288818359375
-0.05084228515625
0.00122070312500
-0.00408935546875
0.00927734375000
0.08880615234375
0.09704589843750
0.10559082031250
-0.04718017578125
0.01379394531250
0.01800537109375
0.02246093750000
0.11083984375000
-0.00262451171875
0.04949951171875
0.04162597656250
-0.04156494140625
-0.03320312500000
0.04510498046875
0.02935791015625
-0.01556396484375
0.04559326171875
0.12860107421875
0.06549072265625
0.05108642578125
0.07989501953125
-0.04510498046875
0.04772949218750
-0.05535888671875
0.04437255859375
-0.01116943359375
0.04150390625000
0.03393554687500
-0.01544189453125
0.01678466796875
-0.02459716796875
0.07366943359375
0.06329345703125
-0.03125000000000
-0.03997802734375
0.01031494140625
-0.01440429687500
-0.02911376953125
0.09136962890625
0.06054687500000
-0.00415039062500
-0.04522705078125
0.10479736328125
0.00366210937500
0.10113525390625
0.15661621093750
0.10009765625000
0.09936523437500
-0.00286865234375
0.03271484375000
0.06396484375000
-0.04449462890625
0.04180908203125
0.10107421875000
0.06683349609375
0.09869384765625
0.10211181640625
-0.04467773437500
-0.05145263671875
-0.06207275390625
0.08215332031250
0.01037597656250
0.07031250000000
0.04553222656250
0.07824707031250
0.03796386718750
0.03436279296875
-0.03491210937500
0.09930419921875
0.08367919921875
0.03027343750000
0.12145996093750
-0.01159667968750
-0.01208496093750
0.03277587890625
-0.05828857421875
0.09429931640625
0.07934570312500
0.03314208984375
0.11132812500000
0.02593994140625
0.00439453125000
0.09539794921875
0.00030517578125
0.06292724609375
-0.02557373046875
0.03540039062500
-0.00854492187500
0.00494384765625
-0.02154541015625
0.00695800781250
-0.01690673828125
0.08374023437500
0.09674072265625
-0.05749511718750
-0.00219726562500
-0.03637695312500
-0.03643798828125
-0.04229736328125
-0.04693603515625
0.01721191406250
-0.01898193359375
0.03900146484375
0.01409912109375
0.11163330078125
-0.00134277343750
0.04205322265625
-0.05682373046875
0.10284423828125
0.10894775390625
0.06872558593750
-0.01837158203125
0.07635498046875
-0.00653076171875
-0.03161621093750
-0.01556396484375
0.10339355468750
-0.01599121093750
-0.00463867187500
0.06030273437500
-0.03698730468750
0.05511474609375
0.12469482421875
0.04125976562500
0.14489746093750
-0.01977539062500
0.00012207031250
0.11614990234375
-0.03576660156250
-0.00585937500000
0.01635742187500
-0.07183837890625
0.07012939453125
0.03363037109375
0.09649658203125
0.09851074218750
0.02221679687500
0.00048828125000
0.07501220703125
-0.02697753906250
0.03314208984375
-0.00366210937500
0.03442382812500
0.00939941406250
0.04449462890625
0.10766601562500
0.08850097656250
0.04174804687500
0.00665283203125
0.05529785156250
0.01586914062500
0.07763671875000
0.06622314453125
0.05865478515625
0.09197998046875
0.04241943359375
0.10046386718750
0.07550048828125
-0.01666259765625
-0.05700683593750
0.07659912109375
-0.04003906250000
0.03497314453125
0.01464843750000
-0.02947998046875
0.13250732421875
-0.04724121093750
-0.06127929687500
0.03253173828125
-0.03411865234375
0.08764648437500
0.02154541015625
-0.01489257812500
-0.00988769531250
-0.03967285156250
0.06549072265625
0.02221679687500
0.09362792968750
-0.06713867187500
0.10003662109375
0.02368164062500
0.04003906250000
0.07360839843750
0.00946044921875
0.03991699218750
0.03839111328125
0.02239990234375
0.06988525390625
0.10559082031250
0.03887939453125
0.06530761718750
0.13372802734375
-0.07043457031250
0.08843994140625
0.03594970703125
0.09765625000000
0.04217529296875
-0.07293701171875
0.04846191406250
-0.00323486328125
0.03662109375000
0.04272460937500
0.01898193359375
0.08990478515625
0.06103515625000
0.00744628906250
-0.01544189453125
0.05224609375000
0.05065917968750
-0.01959228515625
0.05963134765625
0.08892822265625
-0.02142333984375
-0.00292968750000
0.05273437500000
-0.04602050781250
0.09399414062500
0.03198242187500
0.05578613281250
-0.02050781250000
-0.03820800781250
-0.02545166015625
0.07275390625000
0.02282714843750
0.04339599609375
0.07891845703125
0.01092529296875
-0.03222656250000
0.00537109375000
-0.01373291015625
0.06280517578125
0.04510498046875
0.06231689453125
0.02093505859375
0.05651855468750
-0.01446533203125
0.01342773437500
-0.02758789062500
0.01531982421875
-0.02124023437500
0.09155273437500
-0.01403808593750
-0.04956054687500
0.03668212890625
-0.02630615234375
-0.01477050781250
-0.00433349609375
-0.04608154296875
0.06359863281250
0.00921630859375
-0.08026123046875
0.10949707031250
0.11785888671875
-0.00781250000000
-0.01849365234375
-0.04498291015625
-0.00134277343750
-0.05059814453125
0.12927246093750
0.09356689453125
0.06494140625000
-0.03173828125000
-0.00140380859375
0.01812744140625
-0.06024169921875
-0.03979492187500
0.09527587890625
-0.06079101562500
0.05920410156250
-0.01586914062500
0.06848144531250
-0.08428955078125
0.05432128906250
0.05969238281250
0.04229736328125
0.03173828125000
0.09216308593750
-0.01483154296875
0.02856445312500
0.07238769531250
0.00323486328125
0.06982421875000
0.02661132812500
0.08306884765625
-0.02532958984375
-0.03698730468750
-0.00872802734375
0.10009765625000
0.07647705078125
0.03491210937500
0.01770019531250
0.08367919921875
0.07171630859375
-0.05664062500000
0.14843750000000
0.03192138671875
0.03955078125000
0.00811767578125
0.08117675781250
0.09625244140625
0.01580810546875
0.02923583984375
0.06732177734375
-0.04852294921875
-0.04132080078125
0.00903320312500
0.02825927734375
-0.04669189453125
0.02874755859375
0.09350585937500
0.06665039062500
-0.03753662109375
-0.02899169921875
-0.01068115234375
0.05328369140625
0.00109863281250
-0.01922607421875
0.06182861328125
0.06854248046875
0.10406494140625
-0.06121826171875
-0.01904296875000
0.06719970703125
0.02539062500000
0.10272216796875
-0.03125000000000
-0.04425048828125
0.04223632812500
-0.01684570312500
-0.01165771484375
0.02239990234375
-0.02282714843750
0.02441406250000
-0.00024414062500
0.10095214843750
0.08355712890625
-0.01361083984375
0.09832763671875
0.02935791015625
0.09313964843750
-0.01464843750000
0.00762939453125
-0.07281494140625
0.11401367187500
0.00158691406250
0.11309814453125
-0.07452392578125
-0.02526855468750
-0.09320068359375
0.07543945312500
0.03936767578125
-0.02093505859375
0.06524658203125
0.12176513671875
0.05230712890625
0.07098388671875
0.07897949218750
-0.05682373046875
-0.00836181640625
0.01275634765625
-0.03131103515625
0.05426025390625
0.01959228515625
0.06848144531250
0.04437255859375
0.07598876953125
-0.02587890625000
-0.00231933593750
-0.06127929687500
-0.00952148437500
-0.08898925781250
-0.05041503906250
0.02783203125000
-0.03424072265625
0.08538818359375
-0.03436279296875
-0.00939941406250
0.05255126953125
0.01263427734375
0.09381103515625
0.02410888671875
0.05511474609375
0.02850341796875
0.12652587890625
0.05700683593750
0.05456542968750
-0.01818847656250
0.06921386718750
0.11517333984375
0.01391601562500
-0.04418945312500
0.09906005859375
0.02752685546875
0.04229736328125
0.06695556640625
-0.00067138671875
0.02838134765625
-0.00372314453125
0.05914306640625
0.10217285156250
-0.04571533203125
0.11334228515625
0.05639648437500
0.02935791015625
-0.00347900390625
0.08020019531250
-0.02148437500000
-0.02398681640625
0.01037597656250
-0.02117919921875
0.05578613281250
-0.00177001953125
-0.04675292968750
0.06280517578125
-0.01983642578125
0.08312988281250
0.06109619140625
-0.03582763671875
0.10772705078125
-0.02124023437500
-0.01403808593750
0.04510498046875
-0.02087402343750
0.00622558593750
0.00158691406250
0.04302978515625
-0.05310058593750
0.07806396484375
-0.01544189453125
0.05078125000000
-0.03540039062500
0.02471923828125
0.03924560546875
0.04077148437500
0.02484130859375
0.02154541015625
0.06359863281250
-0.03112792968750
0.03967285156250
-0.04589843750000
0.07922363281250
-0.04248046875000
-0.02069091796875
0.07214355468750
0.11676025390625
-0.04113769531250
-0.08642578125000
-0.01831054687500
-0.00921630859375
0.02185058593750
0.05187988281250
0.06628417968750
-0.04718017578125
0.05261230468750
0.02301025390625
0.08215332031250
0.04687500000000
-0.00689697265625
-0.04467773437500
-0.03106689453125
-0.02624511718750
-0.05010986328125
0.03710937500000
-0.02490234375000
-0.02618408203125
0.08538818359375
0.03857421875000
0.07678222656250
-0.01367187500000
0.07965087890625
-0.02972412109375
-0.03375244140625
-0.00372314453125
0.03979492187500
0.02246093750000
-0.04180908203125
-0.01812744140625
0.03607177734375
0.10296630859375
0.04357910156250
0.01483154296875
-0.03240966796875
0.02825927734375
0.09466552734375
-0.02307128906250
-0.02947998046875
0.01025390625000
-0.01428222656250
0.10461425781250
0.04846191406250
-0.08038330078125
0.00109863281250
-0.02850341796875
0.05816650390625
0.03918457031250
0.04803466796875
0.04528808593750
0.11956787109375
0.04730224609375
0.01733398437500
0.06744384765625
-0.03155517578125
-0.03112792968750
-0.07189941406250
-0.02844238281250
0.01617431640625
-0.00292968750000
-0.05126953125000
-0.07672119140625
0.07501220703125
-0.05120849609375
0.01934814453125
0.00750732421875
-0.06341552734375
0.01782226562500
0.06616210937500
0.06329345703125
-0.02032470703125
0.11578369140625
0.01257324218750
0.06304931640625
-0.04467773437500
0.07745361328125
0.10809326171875
-0.00622558593750
0.03918457031250
-0.02600097656250
-0.06195068359375
0.04345703125000
0.10345458984375
0.02142333984375
0.08923339843750
0.08972167968750
0.02264404296875
0.00195312500000
-0.05664062500000
0.04815673828125
0.06597900390625
-0.07128906250000
0.12127685546875
0.05804443359375
0.04998779296875
-0.01428222656250
-0.02307128906250
0.00927734375000
0.08300781250000
0.01715087890625
0.02050781250000
0.03027343750000
-0.00689697265625
0.10656738281250
0.01147460937500
0.07421875000000
-0.01153564453125
-0.03717041015625
-0.04309082031250
-0.05627441406250
0.03808593750000
-0.04467773437500
0.04302978515625
-0.03985595703125
0.00311279296875
0.05792236328125
0.02124023437500
-0.02984619140625
0.04089355468750
-0.08178710937500
0.12750244140625
-0.00659179687500
-0.03222656250000
-0.04388427734375
0.00701904296875
-0.00567626953125
0.11236572265625
-0.06109619140625
-0.04180908203125
0.06994628906250
0.05041503906250
-0.00286865234375
-0.05328369140625
-0.03692626953125
0.04492187500000
-0.07763671875000
0.03002929687500
0.04852294921875
-0.02862548828125
0.05236816406250
-0.06097412109375
0.00836181640625
0.08618164062500
0.11645507812500
-0.00164794921875
0.11450195312500
0.05664062500000
-0.09332275390625
-0.04010009765625
0.11828613281250
-0.04199218750000
-0.05847167968750
0.10369873046875
0.04687500000000
0.10351562500000
0.00537109375000
-0.04644775390625
-0.00830078125000
0.08947753906250
-0.00244140625000
-0.04541015625000
0.06463623046875
0.00476074218750
0.11517333984375
0.05310058593750
0.04382324218750
0.02667236328125
-0.01721191406250
0.16894531250000
0.10961914062500
0.00939941406250
-0.03186035156250
0.03240966796875
-0.02319335937500
0.09588623046875
0.01800537109375
-0.06469726562500
0.03466796875000
0.09606933593750
0.02197265625000
-0.00073242187500
-0.01330566406250
0.08618164062500
-0.01171875000000
0.02117919921875
0.13830566406250
0.06970214843750
-0.01251220703125
0.09472656250000
0.08306884765625
0.07342529296875
-0.07305908203125
-0.02685546875000
0.04754638671875
0.03839111328125
-0.00946044921875
0.03149414062500
0.08868408203125
0.03912353515625
0.07525634765625
-0.06597900390625
0.02142333984375
0.04016113281250
-0.00817871093750
-0.07763671875000
0.10058593750000
0.02612304687500
-0.09576416015625
0.08496093750000
0.09814453125000
-0.01812744140625
0.08630371093750
0.07403564453125
0.11468505859375
0.06536865234375
-0.04217529296875
0.03765869140625
-0.03247070312500
0.07586669921875
-0.02716064453125
0.01092529296875
0.01226806640625
0.00616455078125
-0.02410888671875
0.01000976562500
0.15795898437500
0.08746337890625
0.04138183593750
-0.03479003906250
0.06341552734375
0.12536621093750
-0.05499267578125
0.00683593750000
-0.02191162109375
0.01861572265625
0.09259033203125
-0.02014160156250
-0.03076171875000
-0.01849365234375
0.01489257812500
0.01715087890625
-0.05487060546875
0.00030517578125
-0.02136230468750
-0.03387451171875
0.07348632812500
0.02374267578125
0.08374023437500
-0.00823974609375
0.07324218750000
-0.01171875000000
-0.00848388671875
0.02264404296875
-0.03601074218750
-0.02807617187500
-0.04339599609375
0.03131103515625
-0.08050537109375
-0.04687500000000
0.09259033203125
0.02587890625000
0.00274658203125
0.03796386718750
-0.05566406250000
-0.03057861328125
0.06146240234375
-0.00067138671875
-0.07690429687500
-0.01422119140625
0.00695800781250
-0.06146240234375
-0.04815673828125
0.07501220703125
0.08673095703125
0.05957031250000
-0.03881835937500
-0.00885009765625
-0.00848388671875
0.11462402343750
0.04968261718750
-0.01977539062500
0.00842285156250
0.06060791015625
0.02069091796875
0.03192138671875
0.05462646484375
0.03942871093750
-0.04486083984375
0.04699707031250
0.07775878906250
0.03039550781250
-0.00555419921875
-0.05694580078125
0.10797119140625
0.10656738281250
0.06774902343750
-0.01440429687500
0.01867675781250
0.02252197265625
-0.04333496093750
0.05688476562500
0.03186035156250
0.04559326171875
0.09313964843750
0.04364013671875
0.01892089843750
-0.03717041015625
-0.01452636718750
0.04357910156250
0.04949951171875
0.11590576171875
-0.03295898437500
-0.01745605468750
0.06921386718750
0.02105712890625
-0.08300781250000
0.01776123046875
-0.05810546875000
-0.00378417968750
-0.01757812500000
-0.01214599609375
0.11041259765625
0.05493164062500
0.05749511718750
0.08190917968750
0.02221679687500
0.02648925781250
0.09387207031250
0.00769042968750
0.05914306640625
0.04095458984375
-0.02453613281250
-0.00067138671875
0.09185791015625
0.05560302734375
0.00524902343750
0.01275634765625
0.06457519531250
0.02551269531250
0.05212402343750
0.09924316406250
0.04833984375000
0.09082031250000
0.02740478515625
0.04840087890625
0.06860351562500
-0.02893066406250
0.08184814453125
0.00115966796875
0.05834960937500
-0.02319335937500
0.11755371093750
0.05310058593750
0.10174560546875
0.07031250000000
0.04003906250000
-0.01440429687500
0.05926513671875
0.07116699218750
0.10577392578125
0.01885986328125
0.11389160156250
0.06091308593750
0.05810546875000
0.07348632812500
0.09777832031250
0.01367187500000
0.02069091796875
0.05267333984375
-0.00128173828125
0.02539062500000
-0.07104492187500
0.01135253906250
0.02191162109375
0.08172607421875
-0.03881835937500
-0.02838134765625
0.00598144531250
-0.03588867187500
0.05792236328125
0.06243896484375
0.08197021484375
-0.05700683593750
-0.09460449218750
0.10174560546875
-0.01269531250000
-0.00384521484375
-0.01879882812500
-0.01367187500000
-0.02789306640625
0.08160400390625
0.05743408203125
0.08026123046875
-0.03399658203125
0.04254150390625
-0.02465820312500
0.11419677734375
0.05505371093750
-0.03643798828125
-0.02148437500000
-0.04321289062500
0.06512451171875
0.02117919921875
0.07452392578125
0.06884765625000
0.01477050781250
-0.01287841796875
0.05010986328125
0.07666015625000
-0.02514648437500
0.13354492187500
-0.09375000000000
0.00292968750000
-0.03161621093750
-0.00885009765625
0.12139892578125
0.07275390625000
0.14099121093750
0.08801269531250
-0.04144287109375
-0.06719970703125
-0.02551269531250
0.01043701171875
0.01531982421875
0.00061035156250
-0.00854492187500
0.05010986328125
0.04083251953125
-0.05438232421875
0.06481933593750
0.06866455078125
-0.05853271484375
0.04467773437500
-0.06146240234375
0.00714111328125
-0.04925537109375
0.07867431640625
0.00762939453125
0.06768798828125
0.11828613281250
0.07922363281250
-0.01116943359375
0.08239746093750
0.11981201171875
-0.03985595703125
-0.00970458984375
0.05450439453125
0.07495117187500
0.04833984375000
-0.03283691406250
-0.00439453125000
0.01135253906250
0.10833740234375
0.08703613281250
0.12347412109375
-0.04278564453125
0.08258056640625
0.02246093750000
0.04272460937500
0.03961181640625
0.19000244140625
0.05926513671875
0.04376220703125
0.00286865234375
0.12036132812500
0.05249023437500
-0.05096435546875
0.06561279296875
-0.03015136718750
0.03930664062500
-0.05664062500000
-0.04205322265625
-0.05084228515625
0.06878662109375
0.03247070312500
0.00476074218750
-0.00872802734375
0.09600830078125
0.08898925781250
0.05364990234375
0.09515380859375
-0.03680419921875
0.05560302734375
-0.07519531250000
-0.00714111328125
0.04614257812500
0.03094482421875
0.10101318359375
-0.08477783203125
-0.06469726562500
-0.04992675781250
-0.01293945312500
-0.03723144531250
-0.04943847656250
0.03833007812500
0.04858398437500
0.10656738281250
-0.04095458984375
0.01330566406250
0.14599609375000
0.08532714843750
0.00164794921875
0.07202148437500
0.03161621093750
-0.00512695312500
-0.05712890625000
0.02343750000000
-0.05938720703125
0.01898193359375
-0.08050537109375
0.03076171875000
0.02154541015625
-0.03186035156250
0.03686523437500
-0.04650878906250
-0.02758789062500
-0.03063964843750
-0.03131103515625
-0.06933593750000
0.02673339843750
0.08050537109375
-0.06726074218750
0.06158447265625
0.11090087890625
-0.00915527343750
-0.00592041015625
-0.05645751953125
0.00848388671875
0.03259277343750
0.13146972656250
-0.04437255859375
0.03930664062500
0.12036132812500
0.01220703125000
-0.01477050781250
0.05419921875000
-0.06384277343750
0.00903320312500
-0.08697509765625
0.01727294921875
0.05773925781250
0.05950927734375
-0.06848144531250
0.08026123046875
0.11047363281250
-0.07159423828125
0.02252197265625
0.07006835937500
-0.01324462890625
-0.06488037109375
-0.04876708984375
-0.00689697265625
0.02325439453125
-0.05053710937500
0.04534912109375
-0.05322265625000
-0.01818847656250
-0.02130126953125
0.03680419921875
-0.02398681640625
-0.00103759765625
-0.02105712890625
0.08099365234375
-0.07257080078125
-0.06127929687500
-0.01861572265625
0.04376220703125
-0.02471923828125
0.11297607421875
-0.01849365234375
-0.05816650390625
0.01519775390625
0.02325439453125
0.07336425781250
0.02825927734375
-0.06683349609375
0.01489257812500
-0.08941650390625
-0.03137207031250
0.06030273437500
0.09454345703125
-0.01452636718750
0.07434082031250
0.01123046875000
0.07543945312500
0.01647949218750
-0.02947998046875
0.20159912109375
0.04333496093750
0.09301757812500
0.09802246093750
0.11627197265625
0.07733154296875
0.00262451171875
0.09014892578125
0.02966308593750
-0.04382324218750
0.00006103515625
-0.01098632812500
-0.06329345703125
-0.00787353515625
0.07275390625000
0.02874755859375
0.05505371093750
0.08087158203125
-0.06164550781250
-0.04400634765625
-0.08605957031250
-0.10260009765625
0.09039306640625
-0.04553222656250
-0.00036621093750
0.01580810546875
0.07580566406250
-0.07391357421875
0.02648925781250
0.08215332031250
0.02502441406250
0.11395263671875
0.00897216796875
-0.00036621093750
0.03143310546875
0.08068847656250
-0.00134277343750
0.10345458984375
0.03216552734375
-0.02911376953125
0.06365966796875
-0.05358886718750
0.00909423828125
-0.04058837890625
-0.02166748046875
0.09851074218750
-0.06701660156250
-0.03839111328125
-0.05358886718750
0.04986572265625
0.08337402343750
-0.05059814453125
-0.04003906250000
0.06665039062500
-0.05419921875000
-0.01531982421875
0.07684326171875
0.03314208984375
0.08428955078125
-0.03320312500000
0.06787109375000
0.14721679687500
0.05438232421875
0.09204101562500
0.07263183593750
-0.00415039062500
0.05999755859375
0.09405517578125
0.11383056640625
0.14703369140625
-0.00567626953125
0.00195312500000
-0.03479003906250
0.12390136718750
0.06304931640625
-0.00518798828125
0.00756835937500
-0.02233886718750
-0.00408935546875
0.00946044921875
0.11151123046875
0.00897216796875
0.10253906250000
0.08972167968750
0.01110839843750
0.03576660156250
-0.11505126953125
0.01702880859375
0.08843994140625
-0.08508300781250
-0.04125976562500
0.03540039062500
0.03430175781250
0.18585205078125
0.07318115234375
-0.04492187500000
0.08837890625000
-0.00115966796875
-0.03015136718750
0.01593017578125
0.04010009765625
-0.02386474609375
0.04217529296875
0.02746582031250
0.08221435546875
-0.02130126953125
0.01013183593750
0.08044433593750
0.01452636718750
0.11444091796875
-0.06555175781250
0.03833007812500
0.04583740234375
0.10876464843750
-0.03051757812500
0.05853271484375
-0.02056884765625
0.08203125000000
-0.02807617187500
-0.02532958984375
-0.07666015625000
-0.02947998046875
0.10388183593750
0.07135009765625
-0.04357910156250
0.04272460937500
0.10766601562500
0.02191162109375
0.03173828125000
0.01922607421875
0.07055664062500
0.02319335937500
0.05303955078125
0.05126953125000
0.06011962890625
-0.00378417968750
0.07183837890625
0.08209228515625
0.05023193359375
0.00183105468750
-0.06872558593750
-0.04345703125000
-0.04962158203125
0.03643798828125
0.04437255859375
0.11657714843750
-0.06317138671875
-0.00933837890625
0.00616455078125
0.08898925781250
0.12945556640625
0.01544189453125
0.07635498046875
-0.01037597656250
0.03778076171875
0.09112548828125
0.07696533203125
-0.02484130859375
-0.06903076171875
0.01135253906250
0.02032470703125
-0.07702636718750
0.08953857421875
0.03790283203125
-0.05230712890625
-0.03894042968750
0.08392333984375
0.04852294921875
-0.04925537109375
-0.03442382812500
-0.00390625000000
-0.03399658203125
-0.00543212890625
-0.04986572265625
0.06896972656250
-0.00311279296875
-0.06475830078125
0.13092041015625
0.09753417968750
0.00720214843750
-0.11676025390625
-0.03503417968750
0.01684570312500
-0.07189941406250
0.08215332031250
-0.02655029296875
-0.03625488281250
-0.03137207031250
0.05072021484375
0.02465820312500
0.02014160156250
0.00000000000000
0.07946777343750
0.05267333984375
-0.04528808593750
-0.06793212890625
0.06121826171875
-0.03875732421875
0.01989746093750
-0.05798339843750
0.07440185546875
0.11199951171875
0.00006103515625
-0.00781250000000
-0.07281494140625
0.01037597656250
0.04003906250000
-0.04888916015625
0.08984375000000
-0.00299072265625
-0.02819824218750
-0.02215576171875
-0.03607177734375
0.04089355468750
0.01574707031250
0.03302001953125
-0.01123046875000
0.01715087890625
0.03283691406250
0.00384521484375
0.06951904296875
0.02960205078125
0.18304443359375
0.08709716796875
-0.10662841796875
0.01373291015625
-0.02819824218750
-0.00402832031250
0.06787109375000
-0.01757812500000
0.02307128906250
-0.04113769531250
0.04522705078125
-0.00817871093750
-0.00164794921875
0.06103515625000
0.00286865234375
0.06732177734375
-0.02069091796875
0.07049560546875
-0.02099609375000
0.05419921875000
0.00701904296875
0.02062988281250
-0.06396484375000
0.09729003906250
0.07574462890625
0.03686523437500
0.09667968750000
0.16955566406250
-0.04071044921875
0.00146484375000
-0.00073242187500
0.08868408203125
0.02746582031250
-0.00634765625000
0.01904296875000
0.04901123046875
0.07678222656250
-0.00653076171875
-0.03619384765625
0.06280517578125
-0.04028320312500
0.00347900390625
-0.00756835937500
0.09967041015625
0.06152343750000
-0.07708740234375
0.07525634765625
-0.05029296875000
0.05725097656250
0.03558349609375
0.06848144531250
0.02722167968750
-0.03997802734375
-0.02825927734375
0.03491210937500
-0.01196289062500
0.03295898437500
-0.03302001953125
-0.04437255859375
0.01696777343750
-0.08496093750000
-0.03497314453125
-0.02398681640625
0.12335205078125
0.09735107421875
0.14532470703125
0.04180908203125
0.12609863281250
-0.04339599609375
0.05157470703125
-0.01733398437500
-0.01623535156250
-0.04107666015625
-0.01171875000000
-0.01123046875000
-0.06396484375000
0.03839111328125
-0.00939941406250
-0.03155517578125
-0.05895996093750
0.03173828125000
0.05236816406250
0.11132812500000
0.05389404296875
-0.00024414062500
-0.00885009765625
-0.00891113281250
0.06072998046875
-0.06005859375000
0.05841064453125
0.05981445312500
0.01617431640625
-0.03594970703125
0.02844238281250
-0.00665283203125
0.03961181640625
-0.06274414062500
-0.02307128906250
-0.03344726562500
0.04760742187500
-0.06848144531250
0.01751708984375
-0.03497314453125
0.01379394531250
0.06823730468750
-0.02722167968750
0.01275634765625
-0.02136230468750
0.09576416015625
-0.02819824218750
0.06884765625000
0.03350830078125
0.04028320312500
-0.05096435546875
0.07684326171875
-0.01232910156250
0.02258300781250
-0.00006103515625
0.05047607421875
0.00317382812500
0.03283691406250
0.08013916015625
0.01892089843750
-0.00531005859375
0.01043701171875
-0.07171630859375
0.06750488281250
0.05249023437500
-0.02416992187500
0.07568359375000
-0.01623535156250
0.05670166015625
-0.06750488281250
0.03881835937500
-0.03814697265625
0.02453613281250
0.06542968750000
0.01269531250000
0.06127929687500
0.02923583984375
0.06268310546875
0.04144287109375
0.05462646484375
0.10144042968750
-0.02154541015625
0.09997558593750
0.07550048828125
0.03521728515625
-0.03845214843750
0.07391357421875
0.03863525390625
0.05529785156250
-0.00427246093750
-0.07147216796875
0.01007080078125
0.07855224609375
-0.00311279296875
-0.04064941406250
0.02130126953125
0.04846191406250
-0.04919433593750
0.07592773437500
0.02270507812500
-0.00817871093750
0.07147216796875
-0.03515625000000
0.03881835937500
0.09460449218750
0.06628417968750
-0.02740478515625
0.03558349609375
0.04284667968750
0.08325195312500
-0.05560302734375
-0.04162597656250
-0.02294921875000
0.05706787109375
0.03643798828125
0.09991455078125
0.06140136718750
0.04803466796875
0.02502441406250
0.04351806640625
0.04589843750000
-0.04699707031250
-0.00518798828125
0.03125000000000
-0.06860351562500
0.10687255859375
0.05242919921875
-0.06683349609375
-0.10522460937500
0.11297607421875
-0.03942871093750
0.10699462890625
0.10931396484375
0.00476074218750
0.08538818359375
0.03167724609375
0.00738525390625
-0.01745605468750
0.06481933593750
0.11035156250000
0.01495361328125
0.03753662109375
-0.06402587890625
-0.02679443359375
0.09344482421875
-0.05511474609375
0.10412597656250
0.06219482421875
-0.03613281250000
0.09320068359375
-0.02764892578125
-0.00262451171875
-0.02587890625000
-0.04040527343750
0.00665283203125
0.06677246093750
0.08563232421875
0.04266357421875
-0.02520751953125
0.06872558593750
0.08758544921875
0.02496337890625
-0.03485107421875
-0.03167724609375
0.03472900390625
-0.02154541015625
0.06866455078125
0.00286865234375
0.06964111328125
-0.05169677734375
-0.02819824218750
0.06274414062500
0.07727050781250
0.04437255859375
0.01367187500000
-0.05743408203125
0.03869628906250
0.10241699218750
-0.03204345703125
0.07043457031250
0.05346679687500
-0.00238037109375
0.07617187500000
-0.00836181640625
0.00128173828125
-0.01519775390625
0.05859375000000
-0.06597900390625
0.06793212890625
-0.03265380859375
0.08038330078125
-0.01599121093750
0.02294921875000
-0.07037353515625
0.11535644531250
0.01190185546875
-0.05407714843750
0.07855224609375
-0.03692626953125
0.01263427734375
-0.04766845703125
0.01080322265625
0.09075927734375
0.02636718750000
-0.05505371093750
-0.05181884765625
0.01434326171875
-0.01245117187500
-0.03198242187500
-0.06170654296875
0.07965087890625
-0.06274414062500
0.07525634765625
-0.02856445312500
0.11437988281250
0.00103759765625
0.00402832031250
0.00616455078125
0.05718994140625
0.09484863281250
-0.06195068359375
0.05078125000000
0.00158691406250
0.02264404296875
0.03503417968750
0.01397705078125
-0.08319091796875
-0.00524902343750
-0.06823730468750
0.01190185546875
0.08435058593750
0.03973388671875
-0.00616455078125
-0.05212402343750
0.08587646484375
-0.06469726562500
-0.03454589843750
0.08215332031250
-0.04827880859375
0.00634765625000
-0.07513427734375
0.01092529296875
-0.05041503906250
0.05285644531250
0.07806396484375
0.03942871093750
-0.00311279296875
0.04858398437500
0.06201171875000
-0.01287841796875
0.02575683593750
0.00103759765625
-0.00109863281250
0.05047607421875
-0.02038574218750
0.11029052734375
0.01678466796875
0.02569580078125
-0.05767822265625
0.05737304687500
0.04046630859375
0.09588623046875
-0.01013183593750
0.04614257812500
-0.04431152343750
0.07769775390625
0.04284667968750
-0.02685546875000
0.03472900390625
0.06433105468750
0.06921386718750
-0.00671386718750
0.04150390625000
0.02893066406250
0.05871582031250
0.02423095703125
-0.01123046875000
0.04504394531250
0.06207275390625
0.06835937500000
0.07543945312500
0.02685546875000
0.00665283203125
-0.04357910156250
0.10906982421875
-0.00128173828125
-0.05023193359375
-0.00622558593750
0.09082031250000
0.01849365234375
0.08404541015625
0.06463623046875
0.01501464843750
-0.01654052734375
0.10174560546875
-0.02215576171875
0.11865234375000
-0.01763916015625
-0.04071044921875
0.00555419921875
-0.06158447265625
0.01849365234375
0.07891845703125
0.07281494140625
0.07189941406250
-0.00073242187500
-0.01849365234375
0.03552246093750
0.01788330078125
0.00946044921875
0.02954101562500
-0.06573486328125
0.08258056640625
0.07983398437500
-0.04693603515625
-0.01123046875000
0.00573730468750
0.00982666015625
0.05480957031250
0.01123046875000
0.05975341796875
0.03771972656250
0.00372314453125
0.13177490234375
0.08593750000000
-0.01873779296875
0.10705566406250
0.02423095703125
-0.05249023437500
-0.03057861328125
0.08294677734375
-0.04785156250000
-0.00421142578125
0.08227539062500
-0.04730224609375
0.07098388671875
-0.02032470703125
-0.04620361328125
-0.03039550781250
0.03350830078125
0.11956787109375
0.11816406250000
0.01568603515625
-0.01190185546875
