-0.00860595703125
0.17633056640625
0.05316162109375
-0.01452636718750
0.08843994140625
0.00616455078125
0.03759765625000
0.17864990234375
-0.04248046875000
-0.03698730468750
0.08435058593750
-0.03405761718750
-0.08978271484375
-0.07037353515625
-0.17047119140625
-0.07751464843750
-0.14849853515625
-0.05731201171875
0.03851318359375
0.10620117187500
0.12609863281250
0.22729492187500
0.08868408203125
0.16101074218750
0.18084716796875
0.25164794921875
0.27307128906250
0.30804443359375
0.17810058593750
0.38519287109375
0.16455078125000
0.23931884765625
-0.08380126953125
-0.13378906250000
-0.19683837890625
-0.20996093750000
0.06011962890625
0.09356689453125
-0.07067871093750
0.00750732421875
0.13891601562500
-0.07440185546875
0.05999755859375
0.13043212890625
0.08721923828125
0.27197265625000
0.11633300781250
0.24676513671875
-0.01806640625000
0.03491210937500
0.12939453125000
0.01367187500000
-0.02716064453125
0.07171630859375
0.12603759765625
0.16802978515625
0.08282470703125
-0.03088378906250
0.00671386718750
0.11114501953125
-0.00524902343750
0.00439453125000
-0.08947753906250
-0.08160400390625
0.16650390625000
0.13647460937500
0.32147216796875
0.17102050781250
-0.16436767578125
0.09698486328125
-0.21734619140625
0.21679687500000
-0.11920166015625
-0.12396240234375
0.09552001953125
0.05194091796875
0.03155517578125
0.02838134765625
0.07318115234375
-0.01702880859375
0.18835449218750
0.25250244140625
0.16088867187500
0.25134277343750
0.19244384765625
0.24957275390625
0.16772460937500
0.23883056640625
0.04418945312500
-0.02679443359375
0.20867919921875
0.13421630859375
-0.15820312500000
0.12402343750000
-0.09533691406250
-0.06109619140625
0.28112792968750
0.14300537109375
0.22088623046875
0.16845703125000
-0.11151123046875
-0.07537841796875
0.00433349609375
-0.07122802734375
0.01312255859375
0.02008056640625
0.02349853515625
-0.07696533203125
0.11077880859375
0.13244628906250
-0.05908203125000
0.06842041015625
0.20288085937500
-0.05035400390625
-0.00744628906250
-0.08227539062500
-0.08789062500000
-0.15246582031250
-0.05291748046875
-0.10919189453125
0.06500244140625
-0.01226806640625
-0.01544189453125
-0.05401611328125
-0.09368896484375
0.03491210937500
0.03411865234375
-0.06243896484375
-0.02447509765625
0.06060791015625
-0.13922119140625
-0.13427734375000
-0.02685546875000
0.02270507812500
-0.04156494140625
0.21820068359375
-0.10076904296875
0.01342773437500
-0.14904785156250
-0.06347656250000
0.04229736328125
-0.16778564453125
-0.03460693359375
0.07971191406250
-0.11010742187500
0.11492919921875
0.10247802734375
0.13659667968750
-0.11785888671875
0.00268554687500
-0.17919921875000
0.05035400390625
0.04846191406250
-0.00054931640625
-0.03558349609375
-0.18347167968750
-0.00689697265625
0.16156005859375
0.16827392578125
-0.03527832031250
0.12042236328125
-0.05718994140625
-0.04504394531250
-0.11480712890625
-0.14019775390625
-0.12145996093750
-0.16766357421875
0.00866699218750
-0.04992675781250
-0.15991210937500
0.02087402343750
-0.15783691406250
0.12414550781250
-0.08770751953125
0.16925048828125
0.08447265625000
-0.12414550781250
-0.08917236328125
0.07324218750000
-0.01629638671875
-0.10089111328125
0.09570312500000
-0.11560058593750
0.14654541015625
-0.04681396484375
-0.02777099609375
-0.10552978515625
-0.09222412109375
-0.00732421875000
0.12353515625000
-0.03887939453125
0.12915039062500
0.03405761718750
-0.09191894531250
-0.11456298828125
-0.08569335937500
0.09832763671875
0.16650390625000
-0.00250244140625
0.23815917968750
0.09411621093750
-0.15783691406250
-0.08355712890625
-0.00646972656250
-0.08386230468750
-0.11492919921875
0.07513427734375
0.03509521484375
-0.03344726562500
0.01770019531250
0.15905761718750
0.12463378906250
0.13720703125000
-0.10253906250000
-0.14141845703125
-0.12481689453125
0.10565185546875
-0.10516357421875
-0.07818603515625
0.15203857421875
-0.09863281250000
0.07867431640625
0.03869628906250
-0.07092285156250
0.14025878906250
-0.14593505859375
0.12261962890625
-0.10546875000000
0.01800537109375
-0.09301757812500
-0.17437744140625
-0.14666748046875
-0.16113281250000
-0.13208007812500
-0.05609130859375
-0.07574462890625
0.04235839843750
0.09490966796875
0.02270507812500
-0.04718017578125
-0.16583251953125
-0.06518554687500
-0.12182617187500
0.08874511718750
0.01446533203125
-0.08123779296875
-0.07507324218750
-0.11334228515625
-0.00335693359375
-0.07049560546875
-0.10675048828125
-0.01306152343750
-0.09002685546875
0.13763427734375
-0.08007812500000
0.14971923828125
-0.03021240234375
-0.00982666015625
0.14514160156250
0.16033935546875
-0.01025390625000
0.10229492187500
-0.00891113281250
0.09655761718750
-0.02862548828125
0.07159423828125
0.09094238281250
-0.03887939453125
-0.05816650390625
-0.04394531250000
0.04589843750000
-0.12646484375000
-0.12976074218750
-0.01580810546875
-0.06915283203125
0.06713867187500
-0.00427246093750
0.05017089843750
-0.04400634765625
0.06573486328125
0.06866455078125
0.12689208984375
0.20587158203125
-0.00097656250000
0.06872558593750
-0.14764404296875
-0.15289306640625
-0.28637695312500
-0.08612060546875
-0.19995117187500
0.02032470703125
-0.14013671875000
0.11596679687500
0.11169433593750
0.22131347656250
0.12786865234375
0.07531738281250
0.09790039062500
0.11773681640625
0.10845947265625
-0.08483886718750
0.15441894531250
-0.09881591796875
-0.05010986328125
0.07055664062500
-0.10729980468750
-0.09204101562500
0.18591308593750
0.14984130859375
0.21252441406250
0.11090087890625
0.00708007812500
0.14788818359375
-0.13751220703125
0.07330322265625
-0.07128906250000
-0.14758300781250
0.14221191406250
0.07757568359375
0.01660156250000
-0.00634765625000
-0.12060546875000
-0.08093261718750
-0.08416748046875
-0.00616455078125
0.11016845703125
0.10406494140625
-0.00170898437500
-0.13879394531250
-0.08880615234375
-0.05108642578125
-0.07226562500000
0.16986083984375
-0.09075927734375
0.03228759765625
0.00103759765625
0.43072509765625
0.45330810546875
0.38208007812500
0.36169433593750
0.24114990234375
0.10559082031250
0.09344482421875
-0.01519775390625
0.10943603515625
0.13323974609375
0.20733642578125
0.11297607421875
-0.12030029296875
0.12103271484375
-0.18286132812500
-0.09893798828125
-0.16229248046875
-0.11199951171875
-0.00201416015625
-0.09521484375000
0.10156250000000
-0.11016845703125
0.02117919921875
0.11230468750000
0.05847167968750
0.06127929687500
-0.09143066406250
-0.00909423828125
-0.14398193359375
-0.25427246093750
0.01251220703125
0.00604248046875
-0.03106689453125
0.07958984375000
-0.18572998046875
0.00476074218750
0.12506103515625
0.02514648437500
0.02893066406250
-0.03497314453125
-0.10705566406250
0.06829833984375
-0.01324462890625
-0.08959960937500
-0.10400390625000
0.05047607421875
0.02276611328125
0.00714111328125
0.08441162109375
0.18853759765625
-0.02532958984375
0.01892089843750
-0.04992675781250
-0.04650878906250
0.19970703125000
0.22399902343750
0.20251464843750
0.03674316406250
0.05297851562500
-0.16345214843750
0.13201904296875
0.10333251953125
0.10357666015625
0.04541015625000
0.10107421875000
0.06921386718750
0.16552734375000
-0.08105468750000
0.13531494140625
-0.03607177734375
0.20520019531250
0.11877441406250
0.15832519531250
0.06176757812500
0.05419921875000
0.12860107421875
-0.11822509765625
-0.19134521484375
0.02160644531250
0.08587646484375
-0.09826660156250
-0.02691650390625
-0.10113525390625
0.04522705078125
0.20104980468750
0.04528808593750
0.02062988281250
0.07739257812500
-0.03228759765625
-0.07519531250000
0.20404052734375
0.06683349609375
-0.01763916015625
0.11700439453125
0.06353759765625
0.14447021484375
0.06793212890625
0.14215087890625
0.09857177734375
0.13208007812500
0.05444335937500
0.13012695312500
0.05834960937500
0.02282714843750
-0.01757812500000
0.14202880859375
-0.11376953125000
-0.07006835937500
0.18176269531250
-0.02490234375000
0.21997070312500
0.00970458984375
-0.09564208984375
0.02764892578125
0.07049560546875
0.12365722656250
0.15960693359375
0.05010986328125
0.14300537109375
-0.04748535156250
-0.15356445312500
0.09283447265625
-0.04290771484375
0.13562011718750
0.04852294921875
0.13897705078125
0.11419677734375
0.11193847656250
0.23858642578125
0.26092529296875
0.16717529296875
0.03625488281250
-0.04290771484375
0.06982421875000
0.00207519531250
-0.24017333984375
0.05230712890625
0.11236572265625
-0.02276611328125
0.01306152343750
-0.06878662109375
0.06329345703125
0.01892089843750
0.08203125000000
-0.23522949218750
-0.20141601562500
-0.20391845703125
-0.14837646484375
0.06646728515625
0.07745361328125
-0.04022216796875
-0.00524902343750
0.11157226562500
0.21948242187500
-0.06958007812500
0.04693603515625
0.06359863281250
0.01684570312500
-0.00128173828125
-0.00463867187500
-0.00903320312500
0.02844238281250
-0.10797119140625
0.10144042968750
-0.01934814453125
-0.08221435546875
-0.05145263671875
0.14788818359375
0.20843505859375
-0.09661865234375
0.10632324218750
-0.06176757812500
-0.13000488281250
0.10699462890625
0.02911376953125
0.09497070312500
0.06311035156250
0.00738525390625
0.15643310546875
-0.02337646484375
-0.05126953125000
0.07330322265625
-0.08581542968750
-0.01501464843750
-0.04431152343750
0.01367187500000
0.02600097656250
0.06756591796875
-0.07092285156250
0.11035156250000
-0.03192138671875
0.14514160156250
-0.04846191406250
0.11627197265625
-0.04443359375000
0.14599609375000
0.02996826171875
0.15869140625000
0.18774414062500
-0.06542968750000
0.08184814453125
0.05633544921875
0.06567382812500
0.14129638671875
-0.04583740234375
-0.19702148437500
-0.04779052734375
-0.12677001953125
0.02551269531250
-0.00604248046875
0.00915527343750
0.01275634765625
-0.06872558593750
0.12365722656250
-0.04534912109375
0.14813232421875
-0.03070068359375
0.10784912109375
0.00103759765625
0.00653076171875
0.18292236328125
0.01049804687500
0.23376464843750
0.01934814453125
0.00744628906250
0.13842773437500
0.16943359375000
-0.04357910156250
0.11846923828125
-0.04681396484375
0.00866699218750
-0.17437744140625
0.21380615234375
-0.02740478515625
0.22387695312500
-0.06884765625000
0.19500732421875
-0.10925292968750
0.08575439453125
0.11840820312500
0.02124023437500
0.15795898437500
-0.00561523437500
0.10565185546875
-0.03143310546875
-0.05340576171875
0.11431884765625
-0.05700683593750
0.10205078125000
-0.04199218750000
-0.12799072265625
-0.01715087890625
-0.01922607421875
-0.01281738281250
-0.04547119140625
0.07525634765625
-0.07055664062500
-0.39685058593750
-0.10083007812500
-0.09484863281250
-0.29205322265625
-0.26141357421875
-0.45574951171875
-0.13763427734375
0.06854248046875
0.03643798828125
-0.11804199218750
-0.06878662109375
0.14923095703125
-0.12994384765625
0.15264892578125
0.19232177734375
-0.29693603515625
-0.01715087890625
-0.41583251953125
0.01232910156250
0.10656738281250
0.15270996093750
-0.03979492187500
0.05560302734375
0.21636962890625
-0.02398681640625
0.00836181640625
-0.00054931640625
-0.08148193359375
-0.01226806640625
-0.05194091796875
-0.11444091796875
-0.09899902343750
0.04058837890625
-0.06329345703125
0.04840087890625
0.17242431640625
0.14068603515625
0.13653564453125
-0.02545166015625
-0.08239746093750
-0.01397705078125
0.14886474609375
0.01281738281250
0.06799316406250
-0.15490722656250
-0.14135742187500
-0.12701416015625
0.12554931640625
-0.06811523437500
0.12689208984375
-0.07910156250000
-0.17675781250000
0.05493164062500
0.01434326171875
-0.08300781250000
-0.10955810546875
-0.07568359375000
-0.12835693359375
-0.15698242187500
0.05084228515625
-0.21374511718750
-0.04089355468750
-0.01165771484375
0.00781250000000
0.09710693359375
0.02142333984375
-0.05688476562500
0.03961181640625
0.11743164062500
-0.14569091796875
-0.11553955078125
-0.00866699218750
-0.18402099609375
0.00006103515625
-0.10424804687500
0.05670166015625
0.06433105468750
0.01116943359375
0.09857177734375
-0.03051757812500
0.00683593750000
0.14050292968750
0.05371093750000
0.08831787109375
0.09533691406250
-0.03021240234375
-0.03839111328125
-0.20733642578125
-0.09283447265625
0.08972167968750
-0.05432128906250
0.15466308593750
-0.12609863281250
0.13165283203125
-0.03106689453125
0.08117675781250
-0.13684082031250
-0.03448486328125
0.10998535156250
0.10095214843750
0.09991455078125
0.05963134765625
0.05871582031250
-0.18261718750000
-0.09472656250000
-0.13049316406250
-0.06341552734375
-0.18383789062500
0.00415039062500
-0.20471191406250
0.12390136718750
-0.19232177734375
-0.09338378906250
-0.18829345703125
0.14678955078125
-0.15045166015625
0.02416992187500
-0.13623046875000
-0.04797363281250
0.01519775390625
-0.04772949218750
0.01837158203125
-0.04119873046875
0.00964355468750
0.02777099609375
-0.06646728515625
0.12060546875000
-0.11322021484375
0.09118652343750
-0.13366699218750
-0.14111328125000
0.05853271484375
0.12994384765625
0.10546875000000
-0.08892822265625
-0.11297607421875
-0.06646728515625
0.04833984375000
-0.06097412109375
-0.18579101562500
0.08789062500000
-0.13372802734375
0.10491943359375
-0.14471435546875
0.12506103515625
-0.01654052734375
-0.06317138671875
0.03350830078125
-0.14013671875000
0.14501953125000
-0.06890869140625
-0.18975830078125
-0.05969238281250
0.02264404296875
-0.04235839843750
-0.14916992187500
-0.02185058593750
0.15484619140625
-0.01403808593750
0.08233642578125
-0.11401367187500
0.11322021484375
-0.17553710937500
0.12170410156250
0.12139892578125
-0.04351806640625
-0.15484619140625
0.04608154296875
-0.00531005859375
0.07769775390625
-0.14086914062500
0.10144042968750
0.06854248046875
-0.01245117187500
-0.16632080078125
-0.04370117187500
0.06353759765625
0.15148925781250
-0.05877685546875
0.15429687500000
0.10192871093750
-0.16381835937500
0.09899902343750
-0.01226806640625
-0.04980468750000
0.09521484375000
-0.11315917968750
0.02252197265625
-0.14855957031250
-0.02313232421875
-0.01116943359375
0.13525390625000
-0.20074462890625
-0.16687011718750
-0.08599853515625
-0.07781982421875
0.03717041015625
0.00775146484375
-0.14813232421875
-0.06219482421875
-0.06219482421875
0.07196044921875
-0.07318115234375
0.15771484375000
-0.12200927734375
0.03900146484375
-0.10925292968750
0.10510253906250
-0.06011962890625
-0.15917968750000
0.12121582031250
-0.09954833984375
0.10443115234375
-0.00964355468750
-0.19439697265625
-0.00964355468750
-0.06121826171875
-0.17895507812500
0.05114746093750
0.04736328125000
-0.02685546875000
-0.13232421875000
-0.07000732421875
-0.02075195312500
0.04827880859375
0.05566406250000
-0.13903808593750
-0.15997314453125
-0.05151367187500
-0.05712890625000
0.04675292968750
-0.03741455078125
0.02752685546875
-0.10876464843750
0.09210205078125
-0.12725830078125
0.06054687500000
0.12500000000000
-0.14611816406250
0.07843017578125
-0.10717773437500
-0.01867675781250
-0.13067626953125
-0.01635742187500
0.03680419921875
0.12164306640625
0.11187744140625
0.01739501953125
-0.13995361328125
0.10656738281250
-0.11083984375000
-0.03887939453125
-0.10632324218750
0.02105712890625
0.08789062500000
0.12286376953125
0.07580566406250
-0.09106445312500
0.00756835937500
0.13024902343750
-0.18078613281250
0.02111816406250
0.14398193359375
-0.04254150390625
0.04003906250000
0.00164794921875
-0.10699462890625
-0.13531494140625
-0.12115478515625
-0.16406250000000
0.14019775390625
-0.18109130859375
0.01452636718750
0.01208496093750
-0.04992675781250
-0.03662109375000
-0.20031738281250
-0.17626953125000
0.06402587890625
0.00073242187500
0.01361083984375
0.04101562500000
-0.14843750000000
0.11645507812500
-0.08605957031250
0.10003662109375
0.06958007812500
-0.09729003906250
-0.01922607421875
-0.06994628906250
0.09204101562500
-0.12756347656250
-0.13452148437500
0.02453613281250
-0.04382324218750
0.01275634765625
0.04052734375000
-0.08850097656250
-0.14453125000000
0.01263427734375
-0.03753662109375
-0.18194580078125
0.10925292968750
-0.12677001953125
0.13922119140625
0.01806640625000
0.02270507812500
0.09460449218750
0.10382080078125
-0.04223632812500
0.00329589843750
0.07501220703125
0.01037597656250
-0.04821777343750
0.14978027343750
-0.14996337890625
-0.17919921875000
-0.16485595703125
0.07861328125000
0.14147949218750
-0.14318847656250
-0.13610839843750
-0.02905273437500
0.00769042968750
-0.14562988281250
-0.08978271484375
0.01458740234375
-0.08056640625000
-0.14465332031250
0.16003417968750
-0.03625488281250
0.02325439453125
-0.01062011718750
-0.17138671875000
-0.14593505859375
-0.09533691406250
0.13891601562500
0.11590576171875
-0.03131103515625
-0.03393554687500
-0.04876708984375
-0.14923095703125
-0.17694091796875
-0.10021972656250
-0.11199951171875
-0.04846191406250
0.08489990234375
0.14337158203125
0.13067626953125
-0.10223388671875
0.11816406250000
0.01452636718750
-0.04626464843750
0.08099365234375
0.02246093750000
-0.02404785156250
0.07434082031250
-0.03857421875000
-0.03210449218750
-0.19018554687500
-0.09051513671875
0.11407470703125
-0.15100097656250
-0.05407714843750
0.13757324218750
-0.06329345703125
-0.17895507812500
-0.08575439453125
-0.06811523437500
-0.17932128906250
-0.02648925781250
-0.13415527343750
0.13562011718750
-0.01879882812500
0.06707763671875
0.14215087890625
0.15588378906250
-0.12609863281250
-0.15405273437500
0.11328125000000
0.12622070312500
-0.02001953125000
-0.06634521484375
-0.06939697265625
0.07586669921875
-0.10797119140625
0.05786132812500
-0.07019042968750
-0.16571044921875
-0.17193603515625
-0.10070800781250
0.03198242187500
0.02490234375000
-0.12310791015625
-0.03985595703125
0.10601806640625
-0.13940429687500
0.09155273437500
0.11120605468750
0.14459228515625
-0.09167480468750
-0.14965820312500
0.08032226562500
-0.16888427734375
-0.07611083984375
-0.06781005859375
-0.18469238281250
-0.08807373046875
-0.03686523437500
-0.05407714843750
-0.14428710937500
-0.12994384765625
-0.13354492187500
-0.07189941406250
-0.07318115234375
0.09289550781250
-0.08648681640625
-0.08233642578125
0.04150390625000
-0.13946533203125
0.03210449218750
-0.07971191406250
0.07653808593750
0.02905273437500
-0.04449462890625
0.14508056640625
-0.19390869140625
-0.06842041015625
0.06475830078125
-0.10931396484375
-0.07867431640625
0.17517089843750
0.12799072265625
0.10162353515625
0.10198974609375
-0.02990722656250
-0.03320312500000
0.06848144531250
-0.01495361328125
0.17083740234375
-0.01373291015625
-0.05340576171875
0.04193115234375
-0.05480957031250
-0.00213623046875
-0.20843505859375
-0.10736083984375
-0.13922119140625
-0.16369628906250
-0.05865478515625
-0.17602539062500
0.06158447265625
0.08752441406250
-0.03662109375000
0.14923095703125
0.06152343750000
0.14941406250000
0.08892822265625
0.17163085937500
0.15631103515625
0.40289306640625
0.12164306640625
0.20336914062500
-0.02905273437500
0.03753662109375
-0.09283447265625
-0.10089111328125
0.03778076171875
0.12854003906250
0.01239013671875
0.02697753906250
0.07849121093750
-0.05480957031250
0.06982421875000
0.04119873046875
0.01013183593750
0.01354980468750
0.00341796875000
0.04010009765625
0.13726806640625
-0.14160156250000
0.07659912109375
-0.11358642578125
0.00653076171875
0.12597656250000
0.21063232421875
0.26593017578125
-0.09069824218750
0.11627197265625
0.01049804687500
0.10278320312500
-0.04687500000000
-0.19396972656250
0.12200927734375
-0.16687011718750
0.14324951171875
-0.07977294921875
0.08404541015625
-0.03564453125000
-0.43444824218750
-0.01367187500000
-0.27929687500000
-0.01135253906250
-0.15411376953125
0.14440917968750
0.06170654296875
0.09075927734375
-0.02539062500000
-0.01458740234375
-0.06890869140625
-0.12005615234375
0.11181640625000
0.29699707031250
0.15130615234375
0.20355224609375
0.27874755859375
0.32366943359375
0.19097900390625
0.26806640625000
0.13409423828125
0.05596923828125
0.30523681640625
0.28936767578125
-0.02276611328125
-0.07202148437500
0.09002685546875
0.09515380859375
0.27899169921875
0.16583251953125
0.20898437500000
0.07513427734375
-0.02746582031250
-0.07501220703125
-0.03497314453125
-0.07330322265625
0.00012207031250
0.08001708984375
-0.12414550781250
0.00183105468750
-0.05230712890625
-0.05578613281250
-0.03009033203125
0.02093505859375
0.13629150390625
0.19439697265625
0.13671875000000
0.04718017578125
-0.14776611328125
0.00646972656250
-0.14361572265625
0.14587402343750
-0.02624511718750
-0.01220703125000
0.09301757812500
0.14685058593750
-0.17114257812500
0.13287353515625
-0.00030517578125
-0.17034912109375
0.15539550781250
0.08386230468750
0.13159179687500
0.23571777343750
0.01147460937500
0.08642578125000
0.04901123046875
0.00054931640625
0.10089111328125
-0.13781738281250
0.00958251953125
-0.09552001953125
-0.01037597656250
0.12646484375000
0.02471923828125
0.05255126953125
0.03137207031250
0.04095458984375
0.13873291015625
-0.11218261718750
0.19586181640625
-0.01892089843750
0.17102050781250
0.10955810546875
0.20428466796875
0.14984130859375
0.12805175781250
0.05926513671875
0.04559326171875
0.05157470703125
0.23992919921875
0.15740966796875
-0.13446044921875
0.00262451171875
-0.08862304687500
0.03082275390625
-0.09991455078125
0.00488281250000
-0.04876708984375
0.00067138671875
0.13116455078125
0.05847167968750
0.16705322265625
0.12896728515625
0.19085693359375
-0.03887939453125
0.03527832031250
0.07623291015625
0.12548828125000
0.21923828125000
0.13916015625000
-0.02221679687500
-0.21350097656250
-0.17547607421875
-0.26159667968750
-0.20861816406250
0.16058349609375
0.06915283203125
0.06115722656250
0.15307617187500
0.04522705078125
-0.03094482421875
-0.08544921875000
0.17333984375000
0.11730957031250
0.17498779296875
0.14056396484375
0.10021972656250
-0.08367919921875
-0.14501953125000
-0.24414062500000
-0.28692626953125
-0.10546875000000
0.12152099609375
-0.02612304687500
0.02044677734375
-0.05194091796875
0.11169433593750
0.06158447265625
0.18157958984375
0.21691894531250
0.32421875000000
0.38171386718750
0.32202148437500
-0.26812744140625
-0.09729003906250
-0.00091552734375
-0.01025390625000
-0.15203857421875
-0.09484863281250
-0.26184082031250
-0.14782714843750
-0.00720214843750
0.12170410156250
-0.07751464843750
-0.08325195312500
-0.13269042968750
0.07690429687500
-0.26922607421875
-0.08441162109375
-0.06317138671875
-0.01824951171875
-0.03875732421875
-0.11706542968750
0.15539550781250
0.06256103515625
-0.11145019531250
0.02124023437500
0.14135742187500
0.29498291015625
-0.09936523437500
-0.23559570312500
-0.01910400390625
-0.09008789062500
0.20001220703125
0.18780517578125
0.13793945312500
-0.04565429687500
0.19409179687500
0.07519531250000
0.19110107421875
0.00549316406250
0.13793945312500
-0.02441406250000
0.12976074218750
0.06854248046875
-0.02697753906250
0.18090820312500
0.09967041015625
0.15435791015625
-0.03845214843750
0.13824462890625
0.05004882812500
0.11590576171875
0.23065185546875
-0.01202392578125
0.11657714843750
0.11468505859375
-0.13739013671875
0.03649902343750
0.12762451171875
0.12432861328125
0.16314697265625
0.13269042968750
0.15191650390625
0.16058349609375
0.15167236328125
-0.00567626953125
0.19512939453125
-0.10620117187500
0.03698730468750
-0.08245849609375
-0.09240722656250
0.13281250000000
-0.04937744140625
-0.01434326171875
-0.23706054687500
-0.05212402343750
-0.10552978515625
0.08154296875000
0.06115722656250
0.15551757812500
0.11364746093750
0.19488525390625
0.12420654296875
0.15106201171875
-0.06799316406250
-0.13769531250000
0.04174804687500
0.18273925781250
0.02520751953125
0.14257812500000
0.09185791015625
-0.04785156250000
0.20367431640625
-0.03924560546875
0.13482666015625
0.04064941406250
0.12072753906250
0.11077880859375
0.32940673828125
0.16564941406250
0.08465576171875
-0.01898193359375
-0.06744384765625
0.21868896484375
0.21746826171875
0.21923828125000
0.21215820312500
0.11944580078125
0.07794189453125
-0.04357910156250
-0.01995849609375
0.08789062500000
-0.12042236328125
0.13165283203125
-0.03240966796875
-0.14587402343750
-0.00939941406250
-0.20178222656250
-0.08361816406250
-0.06964111328125
-0.09277343750000
-0.10180664062500
0.15563964843750
-0.10583496093750
0.15209960937500
-0.01068115234375
-0.33947753906250
-0.45648193359375
-0.16320800781250
-0.31378173828125
-0.14624023437500
-0.06329345703125
-0.25469970703125
-0.12316894531250
0.29882812500000
0.29846191406250
-0.05969238281250
0.03253173828125
0.14678955078125
0.07763671875000
0.10034179687500
0.22753906250000
-0.27435302734375
-0.02380371093750
-0.29162597656250
-0.05688476562500
0.09393310546875
0.02416992187500
0.04321289062500
-0.04144287109375
0.14691162109375
0.02960205078125
0.11877441406250
0.22637939453125
0.01397705078125
-0.11315917968750
0.10034179687500
-0.00445556640625
0.00128173828125
0.10327148437500
0.18273925781250
0.17041015625000
-0.01855468750000
0.09246826171875
0.09442138671875
0.17279052734375
0.06445312500000
-0.02008056640625
0.12500000000000
0.19592285156250
0.05004882812500
-0.09802246093750
0.07708740234375
-0.00677490234375
-0.09851074218750
0.12725830078125
0.07415771484375
0.12060546875000
0.14331054687500
-0.10131835937500
0.12194824218750
0.08856201171875
-0.14221191406250
0.14892578125000
0.02673339843750
0.14477539062500
0.21197509765625
-0.02636718750000
0.14544677734375
0.03619384765625
-0.03460693359375
0.15374755859375
0.09777832031250
0.22070312500000
0.03167724609375
0.19799804687500
0.10028076171875
-0.03387451171875
0.03717041015625
-0.05084228515625
0.03338623046875
0.12585449218750
-0.29534912109375
-0.31628417968750
-0.15734863281250
-0.15167236328125
0.12011718750000
0.02807617187500
0.16467285156250
0.09320068359375
0.25036621093750
-0.01300048828125
0.07928466796875
0.00006103515625
0.16284179687500
0.10565185546875
0.08026123046875
0.06115722656250
-0.02722167968750
0.04351806640625
0.07421875000000
-0.06695556640625
0.09649658203125
0.16571044921875
0.19360351562500
0.11022949218750
0.20324707031250
0.23052978515625
0.10748291015625
0.04229736328125
0.23394775390625
-0.04779052734375
-0.11553955078125
0.19763183593750
-0.00354003906250
0.03576660156250
0.01574707031250
-0.03070068359375
-0.08264160156250
0.17663574218750
0.01062011718750
0.04028320312500
0.01782226562500
-0.08984375000000
0.14453125000000
-0.04400634765625
-0.07958984375000
0.18518066406250
0.18817138671875
0.02862548828125
0.05853271484375
-0.06085205078125
0.19097900390625
0.07696533203125
-0.11889648437500
-0.36608886718750
-0.13177490234375
-0.32183837890625
-0.02252197265625
0.01049804687500
-0.32073974609375
-0.23754882812500
0.21380615234375
0.32031250000000
0.06439208984375
0.09356689453125
-0.09844970703125
-0.05981445312500
0.15301513671875
0.06121826171875
-0.31677246093750
-0.15795898437500
-0.28082275390625
-0.07775878906250
0.21051025390625
0.17144775390625
0.09002685546875
0.11584472656250
0.05181884765625
0.16278076171875
-0.08074951171875
0.02923583984375
-0.18939208984375
-0.33288574218750
0.08734130859375
0.02215576171875
-0.07098388671875
0.12799072265625
-0.09411621093750
0.16540527343750
0.20050048828125
0.12457275390625
0.18560791015625
0.02343750000000
-0.12298583984375
0.17443847656250
-0.07635498046875
0.06304931640625
-0.08532714843750
-0.14819335937500
-0.12066650390625
-0.06823730468750
0.15539550781250
0.15576171875000
0.02490234375000
0.02923583984375
-0.01489257812500
0.15966796875000
0.03271484375000
-0.02172851562500
-0.01733398437500
0.20123291015625
-0.03674316406250
-0.13928222656250
-0.04956054687500
-0.05114746093750
0.18798828125000
-0.02197265625000
0.17156982421875
0.18627929687500
0.11938476562500
-0.01696777343750
0.16442871093750
0.07885742187500
0.04992675781250
0.09429931640625
0.14306640625000
-0.00823974609375
0.05645751953125
0.12652587890625
-0.07629394531250
-0.05114746093750
-0.04199218750000
0.24487304687500
0.08380126953125
-0.01031494140625
-0.08190917968750
0.22167968750000
0.14624023437500
-0.10418701171875
0.10095214843750
-0.12249755859375
0.22222900390625
0.05444335937500
-0.02899169921875
0.20666503906250
0.15649414062500
-0.02874755859375
-0.02215576171875
-0.04614257812500
0.01995849609375
-0.03259277343750
0.13763427734375
0.18499755859375
-0.03381347656250
-0.26214599609375
-0.34265136718750
-0.09295654296875
0.21276855468750
-0.07867431640625
0.15563964843750
0.07287597656250
0.17083740234375
0.02514648437500
-0.00036621093750
0.20080566406250
-0.03472900390625
0.23736572265625
0.20324707031250
0.32623291015625
-0.00744628906250
-0.20416259765625
-0.18603515625000
-0.27136230468750
-0.11724853515625
0.07196044921875
-0.00616455078125
-0.10455322265625
0.19909667968750
0.03802490234375
0.13909912109375
0.06445312500000
-0.05468750000000
0.00903320312500
0.01379394531250
-0.01635742187500
-0.24267578125000
-0.14166259765625
0.05297851562500
-0.12731933593750
-0.05822753906250
0.03558349609375
-0.24993896484375
-0.15447998046875
-0.04254150390625
-0.01013183593750
0.07574462890625
0.12347412109375
-0.07403564453125
-0.01867675781250
-0.00006103515625
0.04492187500000
-0.05395507812500
0.00775146484375
0.14794921875000
-0.08795166015625
-0.08160400390625
0.17138671875000
0.04064941406250
-0.03961181640625
0.19940185546875
-0.05639648437500
-0.08905029296875
-0.11199951171875
0.03381347656250
0.20727539062500
0.07019042968750
-0.06494140625000
-0.06713867187500
0.17864990234375
-0.02777099609375
-0.03460693359375
-0.01757812500000
0.21746826171875
0.00952148437500
0.15167236328125
0.18145751953125
-0.08081054687500
-0.15197753906250
-0.08081054687500
-0.09027099609375
-0.12341308593750
0.10040283203125
-0.10076904296875
-0.06231689453125
-0.15838623046875
-0.09698486328125
-0.14416503906250
0.03076171875000
0.13708496093750
-0.17083740234375
0.00457763671875
-0.16894531250000
-0.17102050781250
0.00848388671875
0.06469726562500
-0.11547851562500
-0.14642333984375
0.04187011718750
0.08294677734375
-0.03686523437500
-0.15509033203125
-0.16925048828125
0.10986328125000
0.12268066406250
-0.15130615234375
-0.11248779296875
-0.04748535156250
-0.00714111328125
-0.08416748046875
-0.11291503906250
-0.18988037109375
0.15106201171875
-0.03302001953125
0.02532958984375
0.03393554687500
0.13879394531250
0.03759765625000
-0.04907226562500
-0.15917968750000
-0.06158447265625
0.09222412109375
-0.02844238281250
-0.09967041015625
0.04370117187500
0.12359619140625
0.08636474609375
0.09045410156250
-0.01519775390625
-0.11499023437500
-0.17620849609375
-0.08868408203125
0.06494140625000
0.07934570312500
-0.04418945312500
-0.02545166015625
-0.07727050781250
-0.13623046875000
-0.00909423828125
0.05761718750000
0.12768554687500
0.07592773437500
-0.06970214843750
-0.13421630859375
0.01214599609375
0.01593017578125
-0.05822753906250
0.00274658203125
0.00781250000000
0.10028076171875
-0.04547119140625
0.02996826171875
0.12951660156250
0.04956054687500
0.08343505859375
-0.09375000000000
-0.03759765625000
0.13604736328125
-0.09838867187500
-0.13476562500000
-0.07727050781250
-0.16833496093750
-0.08709716796875
-0.13281250000000
-0.16131591796875
-0.04718017578125
-0.17431640625000
0.09509277343750
-0.16113281250000
0.04486083984375
-0.07019042968750
-0.09136962890625
-0.07006835937500
0.11633300781250
-0.02398681640625
0.03222656250000
0.15307617187500
0.10327148437500
0.04449462890625
-0.02856445312500
0.01031494140625
-0.04327392578125
0.15002441406250
0.02032470703125
-0.01757812500000
-0.09667968750000
0.01354980468750
-0.02014160156250
0.02929687500000
0.14837646484375
-0.16735839843750
-0.00762939453125
-0.01794433593750
-0.15130615234375
-0.14526367187500
0.09429931640625
-0.05969238281250
0.07604980468750
0.09399414062500
-0.09545898437500
0.12847900390625
0.00616455078125
-0.04705810546875
0.09191894531250
0.01660156250000
0.13433837890625
0.03179931640625
0.06134033203125
0.16052246093750
0.19805908203125
0.08569335937500
0.20989990234375
0.07214355468750
0.02569580078125
0.11248779296875
0.17944335937500
-0.05950927734375
-0.09936523437500
-0.11712646484375
-0.01330566406250
-0.02825927734375
0.18920898437500
-0.01904296875000
-0.13214111328125
-0.00805664062500
0.15417480468750
0.10723876953125
-0.02575683593750
0.16784667968750
0.25341796875000
0.18847656250000
0.17382812500000
0.05578613281250
0.06927490234375
0.12792968750000
-0.00158691406250
-0.04998779296875
-0.12811279296875
0.05914306640625
-0.07281494140625
0.01104736328125
0.02478027343750
0.07196044921875
0.13085937500000
0.22082519531250
0.18988037109375
0.21960449218750
0.11877441406250
0.06457519531250
0.15722656250000
-0.07659912109375
0.16906738281250
0.20367431640625
-0.07299804687500
0.16265869140625
-0.03112792968750
-0.09759521484375
0.13751220703125
0.02734375000000
0.03302001953125
0.09307861328125
-0.10455322265625
0.00158691406250
-0.08685302734375
0.20184326171875
-0.05926513671875
0.09008789062500
0.19940185546875
-0.02233886718750
-0.08404541015625
0.18969726562500
0.06927490234375
0.08740234375000
0.27172851562500
0.01910400390625
0.09863281250000
-0.15875244140625
-0.22619628906250
-0.09149169921875
-0.16546630859375
-0.00701904296875
0.10021972656250
-0.12860107421875
-0.09375000000000
0.13311767578125
0.07427978515625
0.16009521484375
0.04083251953125
0.29846191406250
0.09783935546875
0.34307861328125
0.31262207031250
-0.09326171875000
-0.05688476562500
-0.22198486328125
0.11791992187500
0.10931396484375
0.15716552734375
-0.05407714843750
-0.09539794921875
0.21679687500000
-0.07855224609375
0.13879394531250
0.20861816406250
-0.27307128906250
-0.00744628906250
-0.15527343750000
0.03027343750000
0.11175537109375
0.15679931640625
0.08605957031250
0.03857421875000
0.20861816406250
-0.06652832031250
0.11859130859375
0.21313476562500
-0.12695312500000
-0.10260009765625
-0.07733154296875
-0.20172119140625
0.08630371093750
0.27160644531250
0.18585205078125
-0.02307128906250
0.15673828125000
-0.09472656250000
-0.10833740234375
0.09082031250000
-0.05053710937500
0.00030517578125
0.20263671875000
0.13635253906250
-0.03784179687500
-0.01025390625000
-0.00604248046875
-0.12640380859375
-0.07073974609375
0.11431884765625
-0.08032226562500
-0.14221191406250
-0.04473876953125
-0.04779052734375
-0.13623046875000
-0.07220458984375
0.03063964843750
0.13049316406250
-0.14947509765625
0.11834716796875
-0.00994873046875
-0.13635253906250
-0.04101562500000
-0.14483642578125
-0.12725830078125
-0.17816162109375
0.01776123046875
0.12847900390625
0.12475585937500
-0.01318359375000
-0.15515136718750
0.04144287109375
-0.07714843750000
-0.13403320312500
0.12176513671875
-0.13836669921875
-0.04925537109375
0.08190917968750
-0.12438964843750
0.06005859375000
0.02203369140625
-0.08886718750000
-0.05474853515625
-0.16406250000000
-0.04022216796875
-0.07745361328125
-0.04229736328125
0.08557128906250
-0.04290771484375
0.08081054687500
-0.03692626953125
-0.18121337890625
-0.17010498046875
0.13116455078125
-0.16973876953125
-0.05157470703125
0.06298828125000
0.04449462890625
-0.00439453125000
0.01416015625000
-0.09796142578125
0.15655517578125
0.15673828125000
0.16113281250000
0.09661865234375
-0.08923339843750
-0.09094238281250
0.06939697265625
-0.17584228515625
-0.04705810546875
-0.05609130859375
-0.15472412109375
0.10412597656250
0.06628417968750
-0.12481689453125
-0.00561523437500
0.03656005859375
-0.15570068359375
-0.08184814453125
0.08276367187500
-0.01953125000000
0.08441162109375
-0.07391357421875
-0.02307128906250
0.02709960937500
0.03027343750000
0.13116455078125
-0.11657714843750
0.04028320312500
-0.08935546875000
-0.02069091796875
-0.12573242187500
0.11285400390625
0.09460449218750
0.08197021484375
0.02081298828125
-0.10357666015625
0.11279296875000
-0.07556152343750
0.10681152343750
0.05407714843750
0.10461425781250
-0.05926513671875
0.01867675781250
0.11712646484375
-0.17437744140625
-0.08428955078125
-0.00634765625000
-0.01995849609375
-0.12841796875000
0.05877685546875
0.16406250000000
-0.21582031250000
-0.18255615234375
0.09594726562500
-0.14385986328125
0.08099365234375
0.04193115234375
-0.08764648437500
0.07708740234375
0.05407714843750
0.03741455078125
-0.14703369140625
-0.08996582031250
-0.08416748046875
0.00695800781250
-0.06237792968750
0.13391113281250
-0.15240478515625
0.08178710937500
0.16333007812500
0.08392333984375
0.13024902343750
-0.04199218750000
0.04461669921875
-0.11810302734375
