0.07482910156250
0.16796875000000
-0.03192138671875
0.07318115234375
0.02551269531250
0.11016845703125
0.15557861328125
0.08215332031250
0.12554931640625
0.09613037109375
-0.00848388671875
0.18316650390625
0.12036132812500
-0.06152343750000
-0.05090332031250
0.17181396484375
0.15301513671875
0.07818603515625
-0.08117675781250
0.05950927734375
-0.00653076171875
0.17199707031250
-0.05438232421875
-0.04809570312500
0.06823730468750
0.09295654296875
-0.02026367187500
-0.06585693359375
0.07196044921875
0.08831787109375
0.12530517578125
-0.02758789062500
-0.06884765625000
-0.05584716796875
0.01141357421875
0.13519287109375
-0.05725097656250
-0.03009033203125
0.13232421875000
-0.01409912109375
0.03222656250000
0.03314208984375
-0.00769042968750
0.04028320312500
0.14752197265625
0.04986572265625
-0.03759765625000
0.03997802734375
-0.03601074218750
0.14953613281250
-0.04901123046875
-0.04443359375000
0.06695556640625
0.01049804687500
-0.08245849609375
0.01684570312500
0.03967285156250
0.01593017578125
-0.06304931640625
0.01727294921875
0.03436279296875
-0.05621337890625
0.15649414062500
0.11389160156250
0.02716064453125
-0.04840087890625
0.06243896484375
0.10620117187500
0.08129882812500
-0.04510498046875
0.01214599609375
0.06341552734375
0.16558837890625
0.09631347656250
0.01007080078125
0.05865478515625
0.10150146484375
0.10974121093750
0.04956054687500
-0.00610351562500
0.13574218750000
0.13458251953125
0.06323242187500
-0.06091308593750
-0.00775146484375
0.12817382812500
0.01031494140625
-0.05633544921875
-0.01031494140625
0.06860351562500
0.00970458984375
0.10443115234375
-0.04687500000000
0.05084228515625
0.02337646484375
0.01446533203125
0.06817626953125
0.01776123046875
0.06774902343750
0.18206787109375
-0.20520019531250
-0.25152587890625
-0.12115478515625
-0.17517089843750
0.04858398437500
0.11193847656250
-0.05706787109375
0.11230468750000
0.16619873046875
-0.02734375000000
-0.07043457031250
0.10113525390625
-0.05102539062500
0.16149902343750
0.09454345703125
0.10327148437500
0.06048583984375
0.03485107421875
0.07354736328125
0.17999267578125
-0.04534912109375
0.02374267578125
0.15649414062500
-0.04254150390625
-0.18414306640625
-0.34497070312500
-0.31646728515625
-0.29278564453125
-0.04071044921875
-0.03051757812500
-0.01708984375000
0.05859375000000
-0.02264404296875
0.03222656250000
-0.03753662109375
0.11383056640625
-0.00903320312500
0.06982421875000
0.10357666015625
0.14251708984375
-0.00366210937500
0.12463378906250
0.16204833984375
-0.04461669921875
0.19842529296875
-0.00024414062500
-0.06573486328125
-0.02893066406250
-0.04254150390625
-0.04150390625000
0.12188720703125
0.01550292968750
0.10375976562500
0.14910888671875
0.04412841796875
-0.02197265625000
-0.06085205078125
-0.07757568359375
-0.03607177734375
-0.00659179687500
0.02355957031250
-0.07464599609375
-0.08355712890625
0.02288818359375
0.06665039062500
0.10583496093750
0.13092041015625
-0.03625488281250
0.10620117187500
0.04925537109375
0.14074707031250
-0.00012207031250
-0.12689208984375
-0.15991210937500
-0.10314941406250
-0.24566650390625
0.14965820312500
0.14184570312500
0.11474609375000
0.17346191406250
-0.06140136718750
0.13867187500000
0.01898193359375
0.06414794921875
-0.05651855468750
-0.04467773437500
0.05364990234375
0.11932373046875
-0.07006835937500
0.11840820312500
0.08374023437500
0.02349853515625
0.05468750000000
0.02667236328125
0.03344726562500
0.14483642578125
0.17510986328125
0.09576416015625
0.16003417968750
0.14178466796875
0.07287597656250
-0.00683593750000
0.10729980468750
0.07171630859375
-0.05303955078125
-0.04699707031250
0.10803222656250
0.02233886718750
-0.08740234375000
-0.08062744140625
-0.09771728515625
-0.06854248046875
-0.11138916015625
-0.22210693359375
-0.27416992187500
-0.14251708984375
0.12792968750000
-0.01776123046875
0.04119873046875
0.00482177734375
-0.02154541015625
-0.01324462890625
-0.06268310546875
0.12274169921875
-0.01635742187500
0.10504150390625
-0.08245849609375
0.03637695312500
0.15252685546875
0.13861083984375
-0.06335449218750
0.01477050781250
0.09039306640625
-0.08538818359375
0.08001708984375
0.11968994140625
-0.03845214843750
-0.05120849609375
0.08361816406250
-0.05346679687500
0.26928710937500
0.13690185546875
0.21160888671875
0.12500000000000
0.01629638671875
-0.03485107421875
-0.06262207031250
0.03118896484375
0.00012207031250
0.04876708984375
0.15600585937500
-0.01739501953125
-0.04748535156250
-0.03710937500000
0.15936279296875
0.10351562500000
-0.05706787109375
0.00634765625000
-0.03228759765625
0.08605957031250
0.01092529296875
0.16619873046875
0.06561279296875
0.08001708984375
0.04223632812500
-0.03015136718750
-0.05212402343750
0.10589599609375
0.06689453125000
0.13580322265625
-0.00323486328125
0.02081298828125
0.06506347656250
-0.00402832031250
-0.02008056640625
0.11993408203125
-0.07073974609375
0.04260253906250
-0.05816650390625
0.02935791015625
-0.07952880859375
-0.04974365234375
0.07910156250000
0.05200195312500
-0.08477783203125
-0.04644775390625
0.04272460937500
-0.04791259765625
0.07586669921875
-0.01922607421875
0.14202880859375
-0.05096435546875
0.01116943359375
-0.00689697265625
0.06036376953125
-0.00537109375000
-0.05694580078125
0.11535644531250
-0.07824707031250
0.03796386718750
-0.00250244140625
-0.04901123046875
-0.01544189453125
-0.07104492187500
0.04705810546875
0.08703613281250
-0.00427246093750
0.15173339843750
-0.00036621093750
0.02502441406250
-0.03411865234375
-0.10809326171875
0.10314941406250
-0.01232910156250
0.02056884765625
-0.00024414062500
-0.03692626953125
0.09033203125000
0.12408447265625
0.04180908203125
-0.06152343750000
0.03454589843750
0.10485839843750
-0.07653808593750
-0.03741455078125
0.09704589843750
0.13494873046875
0.09216308593750
0.10003662109375
0.07641601562500
-0.07055664062500
0.05908203125000
0.10723876953125
0.04473876953125
0.11413574218750
0.12127685546875
0.10076904296875
0.02478027343750
0.06127929687500
0.10638427734375
0.07940673828125
0.03503417968750
-0.06433105468750
0.05999755859375
-0.02105712890625
-0.03155517578125
-0.00750732421875
-0.01623535156250
0.04156494140625
-0.03558349609375
-0.03857421875000
-0.03704833984375
-0.04534912109375
-0.00860595703125
-0.10668945312500
0.04876708984375
-0.17016601562500
-0.10272216796875
-0.07263183593750
-0.06445312500000
0.12829589843750
0.06341552734375
0.13629150390625
-0.07562255859375
0.03546142578125
0.14984130859375
-0.00097656250000
0.00018310546875
-0.00262451171875
0.00079345703125
0.13098144531250
0.06024169921875
0.06671142578125
0.02850341796875
0.10382080078125
0.02404785156250
-0.02893066406250
0.13549804687500
-0.02758789062500
-0.01940917968750
-0.06994628906250
-0.16973876953125
-0.16265869140625
-0.16021728515625
-0.01068115234375
-0.05126953125000
-0.04028320312500
0.14141845703125
-0.05932617187500
-0.02984619140625
-0.06884765625000
-0.01721191406250
0.03039550781250
0.00909423828125
-0.07031250000000
0.02148437500000
0.13592529296875
-0.05633544921875
-0.00860595703125
0.01751708984375
-0.11865234375000
0.08776855468750
-0.05993652343750
0.04113769531250
0.09313964843750
0.09283447265625
-0.08520507812500
0.10797119140625
-0.08428955078125
-0.05017089843750
0.01568603515625
0.11285400390625
-0.07006835937500
-0.05419921875000
0.03900146484375
-0.06976318359375
0.03656005859375
0.06488037109375
-0.01116943359375
0.01586914062500
0.04107666015625
-0.00677490234375
0.11523437500000
-0.09594726562500
-0.09197998046875
0.03228759765625
-0.06634521484375
-0.01123046875000
0.09503173828125
-0.16314697265625
0.11035156250000
-0.18988037109375
0.08740234375000
0.03002929687500
0.00531005859375
0.10321044921875
0.02972412109375
0.08618164062500
0.16320800781250
0.06958007812500
-0.02960205078125
-0.07318115234375
-0.05084228515625
-0.00323486328125
0.12896728515625
0.10980224609375
0.11212158203125
0.11657714843750
0.12725830078125
0.08416748046875
0.01336669921875
0.13128662109375
-0.03271484375000
0.06427001953125
0.13165283203125
0.10180664062500
-0.03247070312500
-0.00885009765625
0.04760742187500
0.05834960937500
-0.01611328125000
-0.05004882812500
-0.04608154296875
-0.00018310546875
0.10900878906250
0.03039550781250
0.08245849609375
-0.06591796875000
-0.16235351562500
-0.13842773437500
-0.28771972656250
-0.25842285156250
0.01678466796875
0.10449218750000
0.11663818359375
0.08367919921875
0.07965087890625
0.11065673828125
0.01861572265625
0.12762451171875
-0.00140380859375
0.10247802734375
-0.05676269531250
-0.11492919921875
-0.03210449218750
0.01342773437500
0.09210205078125
0.08691406250000
0.11492919921875
0.01129150390625
0.01898193359375
-0.01696777343750
0.09613037109375
-0.06408691406250
0.15124511718750
0.07751464843750
0.17492675781250
0.15759277343750
0.34484863281250
0.11645507812500
-0.03961181640625
-0.00811767578125
-0.15844726562500
0.02716064453125
0.06439208984375
-0.01947021484375
-0.03405761718750
-0.06866455078125
-0.02294921875000
0.13299560546875
-0.04309082031250
-0.07440185546875
-0.01770019531250
0.08593750000000
0.02362060546875
-0.09667968750000
-0.09967041015625
-0.00854492187500
0.02050781250000
0.09417724609375
-0.08203125000000
0.08160400390625
0.01361083984375
-0.10205078125000
0.00805664062500
-0.01916503906250
-0.02447509765625
0.07342529296875
-0.10864257812500
-0.00061035156250
-0.11737060546875
0.04553222656250
0.08679199218750
-0.03503417968750
0.04040527343750
-0.02075195312500
-0.12963867187500
-0.00714111328125
-0.06811523437500
0.06341552734375
-0.09173583984375
-0.06591796875000
-0.12677001953125
0.07678222656250
-0.00787353515625
-0.13140869140625
0.07324218750000
-0.08306884765625
-0.02789306640625
-0.09851074218750
-0.01403808593750
0.01007080078125
-0.02581787109375
0.01354980468750
0.03790283203125
-0.02331542968750
0.07379150390625
-0.06982421875000
-0.03411865234375
-0.11840820312500
0.07208251953125
-0.12811279296875
0.02911376953125
-0.13891601562500
-0.04357910156250
0.06420898437500
0.10217285156250
0.04486083984375
0.06555175781250
-0.02661132812500
-0.02001953125000
-0.03857421875000
-0.04327392578125
-0.10034179687500
-0.00958251953125
-0.11352539062500
0.02404785156250
-0.05303955078125
0.11047363281250
0.06359863281250
0.04541015625000
-0.07977294921875
-0.09777832031250
-0.00958251953125
-0.02789306640625
-0.02227783203125
-0.13000488281250
0.08587646484375
0.10827636718750
0.01116943359375
-0.10491943359375
0.10266113281250
0.07849121093750
-0.07025146484375
-0.03698730468750
-0.13677978515625
-0.00964355468750
-0.00476074218750
-0.05987548828125
0.07269287109375
-0.09014892578125
0.05810546875000
-0.10681152343750
-0.05725097656250
0.00561523437500
-0.00793457031250
0.03240966796875
0.02099609375000
-0.12207031250000
-0.12036132812500
-0.08007812500000
-0.10882568359375
-0.02020263671875
0.06146240234375
-0.00872802734375
-0.12683105468750
-0.02142333984375
0.06176757812500
0.04498291015625
-0.10498046875000
0.09985351562500
0.04431152343750
0.08569335937500
0.00891113281250
-0.05969238281250
-0.11138916015625
-0.03417968750000
0.01104736328125
0.11584472656250
0.01782226562500
-0.00128173828125
-0.06744384765625
0.10015869140625
-0.02844238281250
-0.08941650390625
-0.12426757812500
0.08374023437500
-0.08984375000000
-0.07971191406250
0.03277587890625
0.05285644531250
0.04040527343750
-0.08013916015625
0.09930419921875
-0.10510253906250
0.01330566406250
-0.09735107421875
-0.00158691406250
0.08062744140625
0.07879638671875
0.06213378906250
-0.08050537109375
-0.10473632812500
-0.13397216796875
0.04522705078125
0.05731201171875
-0.12622070312500
0.04162597656250
0.06250000000000
0.00347900390625
0.03759765625000
0.01782226562500
-0.06115722656250
0.01470947265625
-0.07861328125000
0.05926513671875
0.08142089843750
0.06427001953125
0.11059570312500
-0.02648925781250
0.01928710937500
0.09594726562500
0.05004882812500
0.02673339843750
0.01934814453125
-0.01861572265625
-0.01562500000000
-0.09967041015625
0.03930664062500
0.05059814453125
0.04980468750000
0.08917236328125
0.08648681640625
0.08990478515625
-0.07714843750000
-0.10949707031250
-0.04431152343750
0.01849365234375
-0.11975097656250
0.01959228515625
0.02972412109375
-0.10314941406250
-0.02154541015625
-0.02429199218750
0.10430908203125
0.04907226562500
0.01263427734375
-0.07788085937500
0.02038574218750
-0.13366699218750
-0.09106445312500
0.08154296875000
0.10937500000000
-0.07727050781250
-0.09588623046875
0.02374267578125
-0.07067871093750
-0.01379394531250
0.02185058593750
0.06750488281250
-0.09204101562500
0.02087402343750
-0.04632568359375
0.04962158203125
-0.03424072265625
0.04931640625000
0.04138183593750
0.01007080078125
0.01257324218750
-0.08459472656250
-0.00854492187500
0.07757568359375
0.01220703125000
-0.10864257812500
0.07812500000000
-0.03308105468750
-0.10180664062500
-0.10784912109375
-0.03753662109375
0.01312255859375
-0.07794189453125
-0.04217529296875
-0.11761474609375
-0.06964111328125
-0.09075927734375
-0.13128662109375
0.01593017578125
-0.00067138671875
-0.02642822265625
-0.04718017578125
-0.07409667968750
-0.08636474609375
-0.08660888671875
-0.10736083984375
0.05718994140625
-0.01257324218750
-0.09265136718750
0.11059570312500
-0.06530761718750
-0.09985351562500
-0.01556396484375
-0.00006103515625
-0.06658935546875
0.08288574218750
-0.06561279296875
0.01177978515625
0.05364990234375
0.02984619140625
0.09954833984375
0.00384521484375
-0.12872314453125
-0.07958984375000
-0.04992675781250
-0.00115966796875
0.03692626953125
-0.01568603515625
-0.11712646484375
-0.08953857421875
0.08605957031250
-0.02551269531250
0.00158691406250
0.15161132812500
0.08612060546875
0.01739501953125
0.13629150390625
0.14495849609375
0.07928466796875
0.07006835937500
-0.01452636718750
0.12066650390625
0.07043457031250
0.08190917968750
0.08911132812500
0.15722656250000
0.02075195312500
0.08752441406250
0.06121826171875
0.10418701171875
-0.02563476562500
0.14562988281250
-0.00445556640625
0.00323486328125
0.09606933593750
0.04510498046875
0.06207275390625
0.08343505859375
0.04913330078125
0.15863037109375
0.04943847656250
-0.03509521484375
0.02935791015625
0.05023193359375
0.18176269531250
0.11645507812500
0.06036376953125
0.10369873046875
0.14050292968750
0.19732666015625
0.07812500000000
0.11187744140625
0.12762451171875
0.13470458984375
-0.01257324218750
0.13189697265625
-0.04742431640625
0.08953857421875
0.12695312500000
0.07043457031250
-0.04302978515625
0.02490234375000
0.32940673828125
-0.04748535156250
0.15277099609375
-0.16534423828125
0.15051269531250
0.13781738281250
0.05133056640625
0.06555175781250
0.11718750000000
0.03314208984375
0.10906982421875
0.17010498046875
-0.13842773437500
-0.13189697265625
-0.08489990234375
0.10028076171875
-0.03033447265625
0.09637451171875
0.18469238281250
0.14416503906250
-0.02172851562500
-0.05395507812500
0.08215332031250
0.11395263671875
0.02136230468750
0.08770751953125
-0.01263427734375
0.04736328125000
0.05865478515625
-0.00195312500000
-0.00805664062500
0.02038574218750
0.09387207031250
0.11151123046875
-0.05462646484375
0.07287597656250
0.02587890625000
0.00823974609375
0.16522216796875
-0.03027343750000
0.13549804687500
0.12066650390625
-0.00787353515625
-0.06671142578125
0.11889648437500
0.01660156250000
0.00427246093750
0.10137939453125
-0.14544677734375
-0.20483398437500
0.08148193359375
0.27252197265625
0.14575195312500
0.13482666015625
0.02862548828125
-0.05682373046875
-0.06182861328125
0.13903808593750
0.04583740234375
0.07006835937500
0.06427001953125
0.05920410156250
0.02264404296875
0.00653076171875
0.03503417968750
0.07403564453125
0.03393554687500
0.14935302734375
-0.08892822265625
0.09564208984375
0.11468505859375
0.18072509765625
0.38934326171875
0.32373046875000
0.33093261718750
0.15124511718750
0.17816162109375
0.03509521484375
0.13385009765625
0.01037597656250
-0.19067382812500
-0.04577636718750
-0.14440917968750
0.09100341796875
0.04168701171875
0.13623046875000
0.09722900390625
0.07684326171875
0.03240966796875
-0.04229736328125
0.00238037109375
0.16662597656250
-0.11871337890625
0.09722900390625
-0.04534912109375
0.07098388671875
0.06854248046875
0.05468750000000
0.14587402343750
0.14721679687500
0.09515380859375
0.11712646484375
0.04974365234375
0.14428710937500
0.00378417968750
0.13397216796875
0.19970703125000
0.15698242187500
-0.01519775390625
-0.02301025390625
-0.04071044921875
0.16711425781250
-0.02966308593750
0.04699707031250
0.10156250000000
-0.01489257812500
0.04852294921875
-0.06481933593750
0.03973388671875
0.03906250000000
0.27282714843750
-0.18811035156250
0.41546630859375
-0.11437988281250
-0.01220703125000
0.17700195312500
-0.05432128906250
0.00250244140625
0.06427001953125
0.06707763671875
0.17980957031250
0.11657714843750
0.03570556640625
-0.06842041015625
0.11950683593750
-0.01568603515625
0.12646484375000
0.16619873046875
0.06878662109375
0.15820312500000
0.01214599609375
-0.07928466796875
0.03308105468750
0.08239746093750
0.03948974609375
0.07287597656250
0.04699707031250
0.16247558593750
0.05328369140625
0.01611328125000
0.07324218750000
0.00524902343750
0.14361572265625
0.12762451171875
0.00610351562500
0.02081298828125
0.19720458984375
0.13415527343750
0.14581298828125
0.14672851562500
0.13562011718750
0.35443115234375
-0.21551513671875
-0.06616210937500
-0.04095458984375
0.04675292968750
0.16992187500000
0.13464355468750
0.14953613281250
0.09783935546875
0.05950927734375
-0.05364990234375
-0.01989746093750
0.16070556640625
0.07928466796875
-0.07403564453125
-0.02551269531250
0.02905273437500
0.09906005859375
-0.01489257812500
0.10913085937500
-0.04797363281250
0.01977539062500
0.01928710937500
-0.03930664062500
0.01806640625000
0.24774169921875
0.04638671875000
-0.01824951171875
-0.08154296875000
-0.03839111328125
-0.15087890625000
0.34552001953125
-0.01129150390625
-0.17327880859375
-0.05322265625000
0.03094482421875
0.04364013671875
-0.03790283203125
0.05975341796875
0.00537109375000
0.00762939453125
0.11456298828125
0.01342773437500
0.16870117187500
-0.04907226562500
0.08526611328125
0.01019287109375
-0.02880859375000
0.00164794921875
0.14855957031250
-0.00640869140625
-0.02185058593750
0.01782226562500
-0.05590820312500
-0.03430175781250
0.06793212890625
0.03015136718750
0.15460205078125
0.07086181640625
-0.05572509765625
0.02447509765625
0.14916992187500
0.09399414062500
-0.04510498046875
0.09600830078125
0.11132812500000
-0.02648925781250
0.01745605468750
-0.06060791015625
0.14044189453125
-0.03643798828125
0.05053710937500
0.02301025390625
0.06951904296875
-0.00463867187500
0.15008544921875
0.03344726562500
0.04351806640625
-0.04168701171875
0.13452148437500
-0.02148437500000
0.00244140625000
0.08416748046875
0.02813720703125
0.10516357421875
-0.00476074218750
0.01062011718750
-0.00030517578125
0.05035400390625
0.06341552734375
0.17425537109375
-0.03765869140625
0.13867187500000
0.15277099609375
0.03436279296875
0.33203125000000
0.11279296875000
-0.09796142578125
-0.22717285156250
-0.04919433593750
0.08441162109375
-0.03698730468750
0.08410644531250
0.06158447265625
0.14013671875000
0.16644287109375
-0.01849365234375
-0.22387695312500
-0.04980468750000
-0.05700683593750
0.11413574218750
-0.06072998046875
-0.00335693359375
0.15759277343750
0.03637695312500
0.08831787109375
0.10009765625000
0.08874511718750
0.02056884765625
0.13098144531250
-0.04058837890625
0.06677246093750
-0.01641845703125
0.12145996093750
-0.03918457031250
0.13153076171875
0.11590576171875
0.06854248046875
0.04217529296875
0.07342529296875
0.00921630859375
0.14648437500000
-0.08166503906250
-0.07800292968750
0.08416748046875
0.09387207031250
0.13238525390625
-0.06176757812500
0.04901123046875
0.02740478515625
0.15496826171875
-0.01751708984375
0.07073974609375
-0.12866210937500
-0.15588378906250
0.12481689453125
0.18286132812500
0.11029052734375
0.11608886718750
-0.00909423828125
0.10021972656250
0.07452392578125
0.17749023437500
0.02246093750000
0.10284423828125
-0.00244140625000
0.01373291015625
0.05413818359375
-0.03991699218750
-0.00128173828125
0.00280761718750
0.09765625000000
0.04321289062500
-0.05218505859375
0.06365966796875
-0.02886962890625
0.13928222656250
0.47918701171875
0.26513671875000
0.21411132812500
0.08013916015625
0.02691650390625
-0.08990478515625
0.00103759765625
0.15112304687500
-0.04168701171875
0.04547119140625
-0.11267089843750
0.03198242187500
-0.05175781250000
-0.05810546875000
0.05548095703125
0.09002685546875
-0.02142333984375
0.12854003906250
-0.05145263671875
0.05212402343750
0.02423095703125
0.05139160156250
0.04705810546875
0.03228759765625
-0.06317138671875
0.13732910156250
0.14605712890625
0.15502929687500
0.17749023437500
0.13275146484375
0.09924316406250
0.05102539062500
0.00964355468750
0.07788085937500
0.07098388671875
0.21368408203125
0.06481933593750
0.16998291015625
0.14404296875000
0.00756835937500
-0.00152587890625
-0.01544189453125
0.11761474609375
0.09979248046875
0.07116699218750
0.16369628906250
-0.06921386718750
0.14404296875000
0.13958740234375
-0.14935302734375
0.27593994140625
-0.18060302734375
-0.03076171875000
0.06427001953125
0.06274414062500
0.15039062500000
-0.03216552734375
0.09765625000000
0.09295654296875
0.12561035156250
-0.02502441406250
0.06140136718750
-0.00708007812500
0.11883544921875
0.07153320312500
0.06231689453125
0.10528564453125
0.11553955078125
0.03594970703125
0.13482666015625
0.04101562500000
0.04888916015625
0.11218261718750
0.13452148437500
0.09289550781250
0.12341308593750
-0.02008056640625
0.00744628906250
0.09167480468750
0.10577392578125
0.15490722656250
0.14147949218750
0.08728027343750
0.13323974609375
0.09820556640625
0.02441406250000
-0.02789306640625
0.15063476562500
0.38769531250000
0.35375976562500
-0.29296875000000
-0.07031250000000
0.01574707031250
0.07482910156250
-0.00390625000000
0.16302490234375
0.02032470703125
0.14093017578125
0.07965087890625
-0.03570556640625
0.13995361328125
0.08666992187500
0.16320800781250
0.00445556640625
-0.01428222656250
0.07098388671875
0.17089843750000
-0.00878906250000
-0.03808593750000
-0.04388427734375
0.07501220703125
0.14947509765625
0.16070556640625
-0.03582763671875
0.10119628906250
0.05084228515625
-0.09857177734375
-0.14349365234375
0.02465820312500
-0.18237304687500
0.24267578125000
-0.11877441406250
-0.02313232421875
-0.13128662109375
-0.00457763671875
-0.01678466796875
0.14764404296875
0.16497802734375
0.19891357421875
0.13238525390625
0.02026367187500
0.03039550781250
0.11932373046875
0.09283447265625
0.08972167968750
-0.03259277343750
0.03424072265625
0.07135009765625
0.09478759765625
0.13873291015625
0.14324951171875
0.00085449218750
0.07653808593750
-0.04406738281250
0.05761718750000
0.11529541015625
-0.02270507812500
0.16436767578125
0.05712890625000
0.08215332031250
0.03509521484375
0.07470703125000
-0.05505371093750
-0.13781738281250
0.05218505859375
-0.02209472656250
-0.01214599609375
0.03125000000000
0.14685058593750
0.13189697265625
-0.01910400390625
0.01159667968750
0.09918212890625
0.04199218750000
0.00134277343750
0.08264160156250
-0.02331542968750
-0.03466796875000
0.06408691406250
0.03186035156250
-0.06048583984375
0.14770507812500
0.08648681640625
0.01190185546875
0.13671875000000
0.03326416015625
0.14703369140625
0.01068115234375
0.09362792968750
0.01293945312500
0.05456542968750
0.06738281250000
0.09460449218750
0.00347900390625
0.17926025390625
0.11444091796875
0.20776367187500
-0.01092529296875
0.13720703125000
0.14086914062500
0.11535644531250
0.13171386718750
0.08319091796875
-0.04943847656250
0.12939453125000
0.06695556640625
-0.06793212890625
-0.08489990234375
-0.04486083984375
-0.13171386718750
0.10058593750000
0.08178710937500
-0.06616210937500
0.07977294921875
0.03802490234375
0.15600585937500
0.03747558593750
-0.04278564453125
-0.03027343750000
0.13171386718750
0.14025878906250
-0.01702880859375
-0.05529785156250
-0.02600097656250
0.13720703125000
0.09112548828125
0.15844726562500
0.15625000000000
-0.07147216796875
0.09625244140625
0.16668701171875
0.09112548828125
0.11029052734375
0.13568115234375
0.14013671875000
0.04638671875000
0.04705810546875
0.10894775390625
0.16009521484375
0.05932617187500
0.16986083984375
0.03631591796875
-0.20538330078125
-0.19708251953125
-0.22021484375000
-0.17016601562500
0.06317138671875
0.01654052734375
0.14147949218750
0.09765625000000
0.08551025390625
0.00982666015625
0.01245117187500
0.05664062500000
0.00268554687500
0.07751464843750
0.11041259765625
0.06835937500000
0.01861572265625
-0.01403808593750
0.10748291015625
-0.01318359375000
-0.02239990234375
0.01593017578125
0.15979003906250
0.10803222656250
-0.19372558593750
-0.04254150390625
-0.21923828125000
-0.14562988281250
-0.00994873046875
-0.02301025390625
0.13189697265625
0.07019042968750
0.06085205078125
-0.08386230468750
0.09881591796875
-0.03436279296875
0.10589599609375
0.09057617187500
0.07946777343750
-0.00927734375000
0.10247802734375
0.00524902343750
0.08782958984375
0.01190185546875
-0.18518066406250
0.07910156250000
0.02612304687500
-0.00756835937500
-0.02368164062500
0.09472656250000
0.03356933593750
0.03631591796875
0.04870605468750
0.00286865234375
-0.03210449218750
0.00970458984375
-0.10015869140625
0.01965332031250
0.11560058593750
-0.01977539062500
0.11718750000000
0.05023193359375
0.02233886718750
-0.04278564453125
0.10589599609375
0.02844238281250
0.04882812500000
0.00347900390625
0.00097656250000
0.03924560546875
-0.04870605468750
0.10791015625000
0.03302001953125
-0.00567626953125
0.06292724609375
0.05517578125000
-0.06048583984375
0.04974365234375
0.15924072265625
0.06512451171875
0.08142089843750
0.15966796875000
0.04144287109375
0.12371826171875
0.11431884765625
0.03131103515625
0.14080810546875
-0.08166503906250
-0.05303955078125
0.11956787109375
-0.05731201171875
0.10229492187500
0.04473876953125
0.03302001953125
-0.05584716796875
0.12567138671875
0.09637451171875
-0.02459716796875
-0.03869628906250
-0.08856201171875
0.05145263671875
-0.00036621093750
0.17279052734375
0.16644287109375
0.03985595703125
0.02777099609375
-0.00158691406250
-0.04937744140625
0.15368652343750
0.03247070312500
-0.05395507812500
0.04028320312500
-0.26635742187500
-0.25921630859375
-0.31536865234375
-0.30230712890625
0.01702880859375
0.05041503906250
-0.00354003906250
0.10937500000000
-0.05029296875000
0.08203125000000
0.05609130859375
0.14007568359375
0.04296875000000
0.12261962890625
0.10681152343750
0.15563964843750
0.01202392578125
0.10522460937500
-0.01788330078125
0.00518798828125
0.02886962890625
0.07043457031250
0.13659667968750
0.10687255859375
0.10064697265625
0.05847167968750
0.03405761718750
-0.00616455078125
0.26287841796875
0.15936279296875
0.30718994140625
0.22204589843750
0.38482666015625
0.05505371093750
0.17053222656250
0.04724121093750
0.15393066406250
0.02404785156250
0.17144775390625
0.12927246093750
0.00762939453125
0.05456542968750
-0.00280761718750
-0.03198242187500
0.08618164062500
-0.07196044921875
0.07684326171875
-0.07391357421875
0.17150878906250
0.15124511718750
-0.01031494140625
0.01879882812500
0.03479003906250
0.06793212890625
0.14093017578125
0.01080322265625
0.05755615234375
0.02465820312500
0.08654785156250
0.04333496093750
-0.08795166015625
0.01367187500000
0.09130859375000
0.00878906250000
-0.03698730468750
-0.11242675781250
-0.06396484375000
-0.11468505859375
0.01898193359375
-0.03778076171875
-0.06005859375000
0.11437988281250
0.12011718750000
0.04888916015625
-0.03900146484375
0.05163574218750
-0.03967285156250
0.09289550781250
-0.05157470703125
0.07061767578125
-0.06396484375000
-0.03753662109375
-0.05853271484375
0.02142333984375
-0.03198242187500
-0.01306152343750
-0.00573730468750
0.10687255859375
-0.06048583984375
0.01696777343750
-0.05480957031250
-0.01464843750000
0.10058593750000
0.01464843750000
-0.08026123046875
0.04418945312500
-0.20379638671875
-0.05017089843750
0.02850341796875
-0.03930664062500
-0.00946044921875
0.13891601562500
-0.05529785156250
0.02612304687500
0.03466796875000
0.15039062500000
0.06695556640625
0.00628662109375
-0.04107666015625
-0.09191894531250
0.07086181640625
-0.13623046875000
0.11682128906250
0.03051757812500
0.04010009765625
0.11212158203125
-0.05743408203125
0.05908203125000
0.08123779296875
0.14007568359375
-0.04022216796875
-0.05810546875000
0.07775878906250
-0.07415771484375
0.08337402343750
0.06414794921875
-0.06127929687500
0.11395263671875
0.04724121093750
0.15454101562500
0.10870361328125
0.13549804687500
0.11138916015625
0.02838134765625
0.04901123046875
0.02471923828125
0.02258300781250
0.02313232421875
-0.04333496093750
0.09423828125000
0.01135253906250
0.00604248046875
0.11456298828125
0.06494140625000
-0.15106201171875
-0.11071777343750
-0.16485595703125
-0.10717773437500
0.10107421875000
0.07836914062500
-0.01019287109375
-0.02819824218750
0.01635742187500
0.03430175781250
0.15875244140625
0.03332519531250
0.13250732421875
-0.03814697265625
0.06219482421875
0.00811767578125
0.06909179687500
0.05462646484375
0.11651611328125
0.00146484375000
-0.00628662109375
0.08734130859375
-0.07916259765625
0.01586914062500
-0.27294921875000
-0.29205322265625
-0.32983398437500
-0.27587890625000
0.14617919921875
-0.04748535156250
-0.02972412109375
-0.02264404296875
-0.00799560546875
-0.02313232421875
0.10577392578125
0.04119873046875
-0.05175781250000
0.09942626953125
0.10736083984375
0.02703857421875
0.04241943359375
0.08270263671875
0.09136962890625
0.13690185546875
0.03686523437500
-0.06109619140625
0.06274414062500
-0.05664062500000
-0.04278564453125
0.07617187500000
0.11688232421875
0.01104736328125
-0.07073974609375
-0.05163574218750
-0.04217529296875
0.00317382812500
-0.02075195312500
-0.07226562500000
0.01928710937500
0.07214355468750
-0.00909423828125
-0.04534912109375
0.03509521484375
0.02416992187500
0.14678955078125
-0.00720214843750
0.03717041015625
0.06182861328125
-0.09606933593750
0.12152099609375
0.03479003906250
0.05871582031250
-0.12280273437500
-0.22406005859375
-0.21673583984375
-0.16229248046875
0.01922607421875
0.12231445312500
-0.05859375000000
0.06744384765625
0.07049560546875
-0.00659179687500
-0.02136230468750
-0.01116943359375
-0.00439453125000
0.04113769531250
0.08044433593750
-0.04541015625000
0.08636474609375
-0.00671386718750
-0.01312255859375
0.05456542968750
-0.07263183593750
0.11682128906250
0.01770019531250
0.11096191406250
0.10876464843750
0.07354736328125
-0.02111816406250
-0.01885986328125
0.05853271484375
0.01495361328125
0.05023193359375
-0.02893066406250
0.02990722656250
-0.01385498046875
-0.07409667968750
0.01068115234375
0.07562255859375
0.06463623046875
-0.08923339843750
0.05780029296875
-0.28009033203125
-0.41857910156250
-0.04730224609375
-0.50103759765625
-0.00628662109375
-0.00268554687500
0.11785888671875
0.06396484375000
0.07104492187500
-0.02252197265625
-0.08660888671875
-0.07879638671875
-0.00909423828125
-0.03137207031250
-0.01715087890625
0.06665039062500
0.01629638671875
0.12493896484375
0.07476806640625
0.01501464843750
0.03613281250000
-0.01770019531250
-0.06970214843750
0.13275146484375
-0.09423828125000
0.00567626953125
-0.01428222656250
-0.01403808593750
0.17016601562500
0.26800537109375
0.28625488281250
0.17639160156250
0.04754638671875
0.18444824218750
0.22247314453125
0.22332763671875
0.03851318359375
0.02301025390625
-0.05334472656250
0.06262207031250
0.04046630859375
-0.02178955078125
-0.04956054687500
-0.07275390625000
0.03436279296875
-0.10693359375000
0.05352783203125
0.07971191406250
0.05950927734375
0.06176757812500
-0.01812744140625
-0.13012695312500
0.05126953125000
-0.02893066406250
-0.09173583984375
-0.02252197265625
-0.01123046875000
-0.07263183593750
-0.04913330078125
0.02264404296875
-0.10205078125000
-0.03472900390625
-0.03204345703125
-0.02777099609375
-0.01177978515625
-0.03686523437500
0.07244873046875
0.03460693359375
0.03253173828125
-0.11260986328125
0.01055908203125
-0.06762695312500
0.09283447265625
-0.04241943359375
-0.04180908203125
0.01202392578125
0.06762695312500
-0.09918212890625
-0.06243896484375
0.01788330078125
0.13537597656250
0.06604003906250
0.04437255859375
-0.09979248046875
0.04711914062500
-0.07537841796875
0.03167724609375
-0.10717773437500
0.07427978515625
-0.08935546875000
0.10278320312500
-0.07012939453125
-0.01043701171875
0.09112548828125
0.06945800781250
-0.11224365234375
-0.19403076171875
0.10278320312500
0.02014160156250
-0.10534667968750
0.07196044921875
0.08117675781250
0.09112548828125
0.10144042968750
-0.04986572265625
0.07293701171875
0.10168457031250
-0.11193847656250
0.03607177734375
0.08441162109375
-0.07781982421875
-0.07073974609375
0.02941894531250
-0.11596679687500
-0.12847900390625
0.09088134765625
-0.10089111328125
-0.12536621093750
-0.10540771484375
-0.06671142578125
-0.09954833984375
-0.11865234375000
-0.12841796875000
-0.09997558593750
-0.03363037109375
-0.09759521484375
0.07977294921875
-0.00445556640625
-0.01184082031250
-0.09454345703125
0.01696777343750
-0.07043457031250
-0.19598388671875
-0.09393310546875
-0.03643798828125
0.05462646484375
0.03491210937500
0.04071044921875
-0.12170410156250
0.02062988281250
0.00146484375000
-0.08526611328125
-0.08154296875000
-0.03656005859375
0.28326416015625
-0.03289794921875
0.10412597656250
0.00152587890625
-0.10430908203125
-0.13037109375000
0.03088378906250
0.00231933593750
0.10552978515625
0.09948730468750
-0.09326171875000
0.07781982421875
-0.02355957031250
-0.05847167968750
-0.05419921875000
-0.08099365234375
-0.08538818359375
0.04956054687500
0.11071777343750
0.01818847656250
0.00012207031250
0.09899902343750
-0.08270263671875
-0.01702880859375
-0.33819580078125
0.04852294921875
-0.09814453125000
-0.08532714843750
0.04840087890625
0.04498291015625
0.09094238281250
0.03442382812500
0.12194824218750
-0.10577392578125
0.06512451171875
0.08111572265625
-0.06604003906250
0.06402587890625
-0.05401611328125
0.01007080078125
0.09082031250000
0.02539062500000
-0.07824707031250
-0.02410888671875
-0.17761230468750
-0.07678222656250
0.03265380859375
-0.08178710937500
-0.07653808593750
-0.12377929687500
-0.10937500000000
-0.05426025390625
0.02978515625000
-0.07238769531250
-0.05438232421875
0.04492187500000
0.03277587890625
0.00128173828125
-0.12725830078125
-0.01916503906250
-0.04150390625000
-0.11334228515625
0.10546875000000
0.00537109375000
-0.03515625000000
0.02044677734375
-0.12384033203125
0.08752441406250
0.06097412109375
-0.08728027343750
0.06658935546875
-0.04016113281250
-0.21661376953125
0.08026123046875
-0.09265136718750
0.01757812500000
-0.07983398437500
-0.05139160156250
0.07623291015625
-0.02307128906250
0.10931396484375
-0.11260986328125
-0.04211425781250
0.08538818359375
0.08538818359375
-0.04254150390625
-0.03369140625000
-0.06414794921875
-0.11798095703125
-0.00897216796875
-0.03833007812500
0.05664062500000
0.02410888671875
-0.01000976562500
0.01416015625000
-0.04809570312500
0.14117431640625
-0.04162597656250
0.01489257812500
-0.07232666015625
-0.16113281250000
0.04309082031250
-0.01367187500000
-0.11151123046875
0.02691650390625
0.09790039062500
-0.12915039062500
-0.05371093750000
0.02551269531250
0.04455566406250
-0.07330322265625
0.09960937500000
0.08465576171875
0.07452392578125
-0.12774658203125
-0.05786132812500
-0.04248046875000
-0.11151123046875
-0.10839843750000
-0.10406494140625
-0.04534912109375
0.08258056640625
-0.01831054687500
-0.12371826171875
-0.02947998046875
0.04632568359375
-0.11798095703125
0.02331542968750
-0.01428222656250
-0.06317138671875
0.05621337890625
-0.09082031250000
-0.21325683593750
0.04431152343750
-0.09838867187500
0.03656005859375
0.05932617187500
0.00494384765625
-0.01104736328125
0.00537109375000
-0.00317382812500
0.04406738281250
-0.04754638671875
-0.00677490234375
-0.41241455078125
-0.02490234375000
-0.01147460937500
0.06707763671875
0.05792236328125
0.00268554687500
0.05621337890625
0.06243896484375
-0.20367431640625
-0.07415771484375
0.03002929687500
0.00665283203125
0.13391113281250
0.06994628906250
-0.06414794921875
0.05316162109375
0.06060791015625
-0.00366210937500
-0.07049560546875
-0.02380371093750
0.00469970703125
0.15576171875000
-0.03179931640625
0.06970214843750
0.07806396484375
-0.08758544921875
0.13403320312500
-0.03924560546875
-0.05480957031250
0.10400390625000
-0.01135253906250
0.03192138671875
-0.05548095703125
0.15270996093750
-0.03204345703125
-0.08837890625000
-0.05108642578125
0.05853271484375
0.17797851562500
-0.03533935546875
0.08807373046875
0.05816650390625
0.14135742187500
-0.00177001953125
-0.07617187500000
-0.03833007812500
0.05914306640625
0.03033447265625
0.00646972656250
-0.10504150390625
0.08190917968750
0.07086181640625
0.03979492187500
0.06799316406250
0.10961914062500
0.10046386718750
0.02001953125000
-0.05853271484375
0.13769531250000
-0.05920410156250
0.09478759765625
0.13073730468750
-0.02246093750000
0.08837890625000
-0.04669189453125
-0.10552978515625
-0.29504394531250
-0.41430664062500
0.06591796875000
0.01037597656250
-0.04418945312500
0.11468505859375
0.07031250000000
0.08361816406250
0.07775878906250
0.06121826171875
-0.19439697265625
0.18566894531250
-0.14086914062500
0.23785400390625
0.03106689453125
0.11047363281250
-0.06311035156250
0.05535888671875
-0.02734375000000
-0.00231933593750
-0.05749511718750
-0.04565429687500
0.01861572265625
-0.01947021484375
0.07244873046875
-0.08245849609375
0.11456298828125
-0.08062744140625
-0.03863525390625
0.04882812500000
0.07666015625000
0.04901123046875
-0.00512695312500
-0.02746582031250
0.02563476562500
-0.00653076171875
-0.06463623046875
0.11578369140625
0.06024169921875
0.16796875000000
-0.00958251953125
0.15228271484375
0.00189208984375
0.12103271484375
0.14361572265625
0.00402832031250
0.00292968750000
-0.06024169921875
0.34136962890625
0.45141601562500
-0.08233642578125
0.06536865234375
0.07867431640625
0.10290527343750
0.03564453125000
0.08197021484375
-0.01098632812500
-0.10266113281250
-0.07287597656250
0.02014160156250
0.04180908203125
-0.01843261718750
0.07318115234375
0.15240478515625
0.13330078125000
0.16961669921875
0.11108398437500
0.04132080078125
0.16040039062500
0.07641601562500
0.49163818359375
0.16528320312500
0.39105224609375
0.07775878906250
0.02355957031250
-0.06829833984375
-0.03894042968750
0.02685546875000
-0.08801269531250
0.23577880859375
-0.13555908203125
0.22937011718750
-0.00592041015625
-0.03338623046875
0.12377929687500
0.08453369140625
0.02960205078125
0.21276855468750
-0.10144042968750
0.07611083984375
0.23083496093750
-0.06512451171875
0.06207275390625
-0.06018066406250
-0.07629394531250
0.12451171875000
-0.02203369140625
0.10180664062500
0.01257324218750
-0.05664062500000
0.05664062500000
0.13903808593750
0.10064697265625
0.14105224609375
0.14251708984375
-0.04235839843750
0.02978515625000
0.16064453125000
0.09399414062500
0.16528320312500
0.14685058593750
-0.08422851562500
-0.04156494140625
-0.09924316406250
-0.05389404296875
0.10736083984375
0.08984375000000
0.17120361328125
0.10491943359375
-0.37365722656250
0.16247558593750
-0.39178466796875
-0.08563232421875
-0.05633544921875
-0.03106689453125
-0.05303955078125
-0.02606201171875
0.17510986328125
0.10937500000000
0.07775878906250
0.09289550781250
0.08239746093750
0.18750000000000
-0.03338623046875
0.06109619140625
-0.00158691406250
0.14831542968750
0.02551269531250
0.00646972656250
0.06036376953125
-0.06103515625000
0.03619384765625
0.10955810546875
0.14752197265625
-0.01751708984375
0.14916992187500
-0.03845214843750
0.10821533203125
0.06182861328125
0.05480957031250
0.03552246093750
0.10351562500000
0.00555419921875
0.11944580078125
0.11340332031250
-0.01031494140625
-0.03503417968750
0.10644531250000
0.27111816406250
0.39337158203125
-0.26202392578125
-0.23956298828125
-0.09881591796875
0.06799316406250
0.04534912109375
-0.05725097656250
0.12231445312500
0.09271240234375
0.11273193359375
-0.04101562500000
0.13458251953125
0.04821777343750
0.06469726562500
0.11645507812500
0.13647460937500
0.16516113281250
0.10327148437500
0.03155517578125
0.08496093750000
0.03558349609375
0.13092041015625
0.16992187500000
0.08239746093750
-0.09667968750000
0.25976562500000
0.17889404296875
-0.15533447265625
-0.15692138671875
-0.11669921875000
-0.35198974609375
-0.04193115234375
-0.20629882812500
-0.21228027343750
-0.17315673828125
-0.09094238281250
-0.00469970703125
0.05548095703125
0.14739990234375
0.20153808593750
-0.02362060546875
0.02093505859375
0.03515625000000
0.11932373046875
0.04656982421875
0.10583496093750
0.06964111328125
-0.00982666015625
0.03948974609375
-0.02618408203125
-0.01647949218750
0.15722656250000
-0.06042480468750
0.02636718750000
0.01629638671875
0.11791992187500
0.14727783203125
-0.07067871093750
-0.04266357421875
0.06494140625000
-0.07446289062500
0.08459472656250
-0.05993652343750
0.03887939453125
0.05059814453125
0.01440429687500
0.09112548828125
0.06524658203125
0.10278320312500
0.05816650390625
-0.02185058593750
0.08679199218750
0.16717529296875
-0.05847167968750
-0.03649902343750
0.03076171875000
0.12976074218750
0.02996826171875
0.08471679687500
-0.01843261718750
-0.03594970703125
0.09979248046875
0.03656005859375
0.02777099609375
-0.05883789062500
-0.02954101562500
0.11047363281250
-0.06207275390625
-0.01904296875000
0.10241699218750
-0.08312988281250
0.10076904296875
-0.00982666015625
0.01354980468750
0.15191650390625
0.23547363281250
0.07995605468750
0.25427246093750
0.08294677734375
-0.07110595703125
0.06732177734375
-0.04730224609375
-0.03167724609375
-0.03051757812500
0.18249511718750
-0.02575683593750
-0.01940917968750
-0.08868408203125
-0.23107910156250
-0.13464355468750
-0.16430664062500
0.02239990234375
-0.01251220703125
0.16064453125000
-0.02044677734375
0.03674316406250
0.01086425781250
0.07537841796875
-0.02990722656250
0.05395507812500
0.02758789062500
0.18969726562500
0.06774902343750
-0.06219482421875
0.11334228515625
0.01635742187500
-0.05853271484375
0.13354492187500
-0.03900146484375
0.08422851562500
0.14337158203125
0.09429931640625
0.02490234375000
0.06567382812500
-0.00195312500000
-0.02648925781250
-0.01275634765625
0.16528320312500
0.01300048828125
0.02746582031250
0.00085449218750
0.04833984375000
0.04467773437500
-0.22100830078125
-0.19549560546875
-0.32507324218750
-0.29534912109375
-0.01245117187500
0.05059814453125
0.10705566406250
-0.00366210937500
-0.01104736328125
0.04840087890625
-0.03759765625000
0.12957763671875
0.09558105468750
0.05718994140625
0.12542724609375
0.15924072265625
-0.04907226562500
0.09545898437500
0.11230468750000
0.07183837890625
-0.05566406250000
0.08459472656250
0.04077148437500
0.10693359375000
-0.11651611328125
-0.12207031250000
-0.21319580078125
-0.06469726562500
0.09265136718750
0.03527832031250
-0.01593017578125
-0.02154541015625
0.00097656250000
0.05914306640625
0.04943847656250
-0.11810302734375
-0.02868652343750
-0.04620361328125
0.07989501953125
-0.05712890625000
-0.02813720703125
0.07098388671875
-0.01385498046875
-0.04077148437500
-0.03015136718750
0.09698486328125
-0.07067871093750
0.05828857421875
-0.00140380859375
0.02514648437500
0.13708496093750
0.05737304687500
0.00616455078125
0.08331298828125
0.06756591796875
-0.06292724609375
0.00195312500000
-0.08966064453125
0.03808593750000
0.15563964843750
-0.08679199218750
0.12408447265625
0.11218261718750
0.12707519531250
0.10601806640625
0.14868164062500
-0.01336669921875
0.10400390625000
0.04010009765625
-0.00561523437500
0.01574707031250
-0.04235839843750
-0.14526367187500
-0.03790283203125
0.02655029296875
-0.11737060546875
-0.04235839843750
0.00152587890625
-0.00836181640625
0.04040527343750
-0.02520751953125
-0.02227783203125
0.02801513671875
-0.02569580078125
0.03363037109375
-0.04046630859375
0.00048828125000
-0.04742431640625
0.03601074218750
0.13739013671875
-0.00360107421875
0.08013916015625
0.16094970703125
-0.08935546875000
-0.01367187500000
-0.11077880859375
0.08477783203125
0.15075683593750
-0.06567382812500
0.02899169921875
0.06469726562500
0.04870605468750
-0.06195068359375
0.09710693359375
0.11944580078125
-0.02905273437500
0.06732177734375
0.08489990234375
0.16369628906250
-0.02203369140625
0.04144287109375
-0.07025146484375
0.05877685546875
-0.08447265625000
-0.10864257812500
0.21588134765625
0.12597656250000
0.00653076171875
0.06616210937500
-0.07189941406250
0.01055908203125
0.08129882812500
0.03613281250000
0.11053466796875
0.10473632812500
0.10961914062500
-0.02886962890625
0.03759765625000
-0.09674072265625
0.01892089843750
0.08007812500000
-0.01062011718750
0.10205078125000
0.04742431640625
0.02618408203125
0.15100097656250
-0.01245117187500
-0.12115478515625
0.09576416015625
0.06024169921875
0.05181884765625
0.01519775390625
0.16766357421875
0.16564941406250
0.38293457031250
0.10034179687500
0.14599609375000
-0.11047363281250
-0.10504150390625
-0.08190917968750
0.12432861328125
-0.07916259765625
0.09161376953125
0.00152587890625
-0.00311279296875
0.06854248046875
0.07580566406250
-0.05828857421875
0.00103759765625
0.11846923828125
0.03991699218750
-0.06420898437500
0.04400634765625
0.05389404296875
-0.02673339843750
0.04693603515625
0.12756347656250
0.00421142578125
0.02325439453125
0.01544189453125
-0.00628662109375
0.05914306640625
0.15203857421875
0.11853027343750
0.15533447265625
0.01904296875000
0.00451660156250
0.00305175781250
-0.05932617187500
-0.01055908203125
-0.00170898437500
-0.01074218750000
0.07379150390625
-0.02014160156250
0.01745605468750
-0.03948974609375
-0.00933837890625
0.14019775390625
0.13092041015625
0.07189941406250
0.12969970703125
0.00396728515625
-0.07153320312500
0.11779785156250
-0.07977294921875
0.04907226562500
0.07049560546875
0.14654541015625
0.08746337890625
0.11340332031250
0.04907226562500
0.12097167968750
-0.04425048828125
0.09680175781250
0.10156250000000
0.00561523437500
0.03845214843750
0.01562500000000
0.02392578125000
0.08135986328125
-0.09057617187500
-0.00457763671875
0.07995605468750
0.09289550781250
0.11029052734375
-0.04058837890625
0.10058593750000
0.05255126953125
0.01348876953125
-0.01593017578125
0.00878906250000
-0.01562500000000
-0.12487792968750
0.12664794921875
0.01831054687500
-0.06506347656250
0.14129638671875
0.01879882812500
0.11865234375000
0.05645751953125
0.08349609375000
0.01879882812500
0.07653808593750
-0.08264160156250
0.00183105468750
0.15789794921875
-0.00915527343750
0.08953857421875
0.11376953125000
0.10748291015625
-0.03063964843750
0.00952148437500
0.10839843750000
-0.00177001953125
-0.03723144531250
0.08563232421875
0.04553222656250
-0.02258300781250
0.06835937500000
0.11419677734375
0.02661132812500
0.04290771484375
0.14398193359375
-0.03460693359375
0.08355712890625
-0.03521728515625
-0.21740722656250
-0.22418212890625
-0.11456298828125
-0.13745117187500
-0.01141357421875
-0.04504394531250
0.11071777343750
-0.01348876953125
-0.03717041015625
0.18267822265625
0.04907226562500
0.02264404296875
0.05322265625000
0.01110839843750
0.08618164062500
0.16314697265625
-0.02337646484375
0.10510253906250
0.05444335937500
0.16662597656250
0.14782714843750
0.08807373046875
0.09906005859375
0.01483154296875
-0.14001464843750
-0.18029785156250
-0.08294677734375
-0.20214843750000
-0.03576660156250
-0.05853271484375
-0.00152587890625
0.06219482421875
0.01190185546875
0.18750000000000
-0.04956054687500
0.06976318359375
0.13427734375000
0.12396240234375
-0.04968261718750
0.10144042968750
0.03222656250000
0.13854980468750
0.10845947265625
0.18884277343750
-0.02618408203125
0.04937744140625
-0.01019287109375
0.08752441406250
-0.05926513671875
0.18218994140625
0.06524658203125
0.10333251953125
0.09594726562500
-0.02612304687500
0.10388183593750
0.15112304687500
0.03979492187500
0.11090087890625
-0.02410888671875
0.08410644531250
0.00970458984375
0.15472412109375
0.10650634765625
0.08850097656250
0.09844970703125
0.08618164062500
-0.03320312500000
-0.04339599609375
0.05645751953125
-0.00610351562500
-0.02630615234375
0.16625976562500
-0.09747314453125
-0.20214843750000
-0.08813476562500
-0.26361083984375
-0.01226806640625
0.13922119140625
0.09704589843750
0.04083251953125
0.05181884765625
0.11553955078125
-0.05267333984375
-0.04290771484375
0.03723144531250
0.06689453125000
-0.05737304687500
0.11138916015625
0.12145996093750
-0.01519775390625
-0.02569580078125
0.09423828125000
0.16503906250000
-0.01385498046875
-0.06677246093750
0.04284667968750
-0.02923583984375
0.03857421875000
-0.07037353515625
0.05059814453125
0.14794921875000
0.16082763671875
0.03356933593750
0.00616455078125
0.11993408203125
-0.04907226562500
0.12390136718750
-0.03454589843750
0.00677490234375
0.14978027343750
0.12908935546875
-0.00787353515625
-0.09747314453125
0.07470703125000
-0.18682861328125
-0.02087402343750
-0.06317138671875
-0.00366210937500
0.13525390625000
0.16912841796875
0.15911865234375
0.01080322265625
-0.03668212890625
0.04907226562500
-0.03961181640625
-0.04479980468750
0.08087158203125
0.00683593750000
0.01379394531250
-0.07971191406250
0.14843750000000
-0.01086425781250
0.12542724609375
0.12371826171875
0.09088134765625
-0.02185058593750
-0.10534667968750
-0.01184082031250
-0.02746582031250
0.10864257812500
0.13159179687500
0.05609130859375
0.12292480468750
0.09960937500000
0.02246093750000
0.04516601562500
-0.08233642578125
0.04339599609375
-0.02313232421875
0.11126708984375
0.08294677734375
0.12847900390625
0.01135253906250
0.09393310546875
0.03070068359375
0.16027832031250
-0.09765625000000
-0.11218261718750
-0.09161376953125
-0.03204345703125
-0.12841796875000
0.00750732421875
-0.12683105468750
0.14416503906250
0.05938720703125
-0.10528564453125
-0.09631347656250
-0.06347656250000
0.08459472656250
-0.07153320312500
-0.05712890625000
0.03350830078125
-0.06823730468750
0.10546875000000
0.02337646484375
-0.08758544921875
-0.01782226562500
-0.02691650390625
-0.02539062500000
-0.00109863281250
-0.05456542968750
-0.10888671875000
-0.08905029296875
0.00769042968750
-0.10974121093750
0.05944824218750
-0.00567626953125
-0.10241699218750
0.11077880859375
-0.10784912109375
0.02935791015625
0.01770019531250
0.06781005859375
-0.07250976562500
-0.06976318359375
-0.05377197265625
-0.01245117187500
0.11889648437500
0.07458496093750
-0.03106689453125
-0.14239501953125
0.03973388671875
0.00885009765625
-0.05194091796875
0.11218261718750
-0.06286621093750
0.03350830078125
0.03082275390625
0.20758056640625
-0.07458496093750
-0.01739501953125
-0.08966064453125
0.02648925781250
0.11572265625000
-0.04492187500000
0.00274658203125
-0.05554199218750
-0.06683349609375
-0.09429931640625
-0.10552978515625
-0.12799072265625
0.03155517578125
0.00347900390625
0.06805419921875
-0.08142089843750
0.13012695312500
-0.08850097656250
-0.09307861328125
0.04797363281250
0.13409423828125
0.11962890625000
-0.04034423828125
0.09271240234375
-0.08227539062500
-0.09259033203125
-0.08184814453125
-0.06713867187500
-0.07147216796875
0.08758544921875
0.04229736328125
-0.08691406250000
0.09875488281250
-0.09344482421875
0.10455322265625
-0.09973144531250
0.02429199218750
0.06817626953125
-0.08911132812500
0.06945800781250
0.05993652343750
-0.02746582031250
0.07659912109375
0.06378173828125
0.08966064453125
0.08349609375000
0.07421875000000
-0.16107177734375
0.13812255859375
-0.08496093750000
0.17004394531250
0.01458740234375
0.07330322265625
0.03222656250000
0.12445068359375
0.00311279296875
-0.04663085937500
-0.08770751953125
-0.11096191406250
0.08282470703125
-0.09368896484375
-0.05383300781250
-0.05474853515625
0.03332519531250
0.04376220703125
0.08050537109375
0.11651611328125
-0.10827636718750
-0.04589843750000
-0.10668945312500
0.11395263671875
0.01031494140625
-0.21917724609375
-0.09533691406250
0.01452636718750
0.06451416015625
0.01336669921875
0.10894775390625
-0.00390625000000
-0.19097900390625
0.11358642578125
-0.01000976562500
0.10046386718750
-0.08074951171875
-0.10015869140625
-0.00683593750000
-0.02203369140625
-0.11901855468750
0.06317138671875
-0.03747558593750
0.10028076171875
-0.13354492187500
-0.11724853515625
-0.10943603515625
-0.01092529296875
-0.04864501953125
-0.02496337890625
0.05059814453125
0.06195068359375
0.12200927734375
-0.09790039062500
0.03259277343750
0.03857421875000
0.04608154296875
0.08599853515625
-0.02868652343750
-0.20825195312500
-0.04034423828125
0.08587646484375
0.02856445312500
-0.03387451171875
-0.02471923828125
0.12542724609375
-0.05249023437500
-0.07873535156250
0.08758544921875
0.08959960937500
0.03796386718750
-0.09289550781250
0.16064453125000
-0.17687988281250
-0.06500244140625
-0.06347656250000
0.07220458984375
0.04589843750000
-0.03894042968750
-0.13000488281250
-0.08471679687500
-0.06378173828125
0.12072753906250
0.06353759765625
-0.01226806640625
-0.00561523437500
0.00073242187500
-0.04138183593750
0.10046386718750
-0.08184814453125
-0.08654785156250
0.11187744140625
0.09222412109375
-0.06945800781250
-0.02508544921875
-0.02539062500000
0.05053710937500
-0.10717773437500
-0.07781982421875
-0.00573730468750
-0.07769775390625
0.06091308593750
-0.01055908203125
0.01544189453125
0.12469482421875
-0.09265136718750
0.09246826171875
-0.09820556640625
-0.05401611328125
0.04455566406250
-0.05120849609375
-0.08398437500000
-0.14263916015625
-0.01739501953125
0.03173828125000
-0.14465332031250
-0.09521484375000
-0.03771972656250
0.12243652343750
-0.13128662109375
0.05493164062500
-0.00769042968750
-0.07440185546875
-0.10723876953125
0.09057617187500
0.01733398437500
-0.11047363281250
-0.10644531250000
-0.12933349609375
-0.03662109375000
-0.07489013671875
0.01574707031250
-0.08270263671875
-0.00250244140625
-0.04187011718750
-0.01837158203125
0.00097656250000
-0.11468505859375
0.03979492187500
0.14843750000000
0.18676757812500
0.20397949218750
0.02276611328125
0.20733642578125
0.26782226562500
0.17187500000000
0.16107177734375
0.18939208984375
0.00701904296875
0.03759765625000
-0.04528808593750
-0.08923339843750
-0.10021972656250
-0.07434082031250
-0.02197265625000
0.03100585937500
-0.01806640625000
0.04565429687500
0.10614013671875
0.07312011718750
0.08239746093750
0.07550048828125
0.11651611328125
0.14642333984375
0.05578613281250
0.03521728515625
0.02270507812500
0.04376220703125
0.10125732421875
0.01501464843750
0.17913818359375
-0.03375244140625
0.16650390625000
0.08569335937500
0.07788085937500
0.12188720703125
0.07458496093750
0.14685058593750
-0.03167724609375
0.03717041015625
0.05786132812500
-0.01220703125000
0.14978027343750
0.12512207031250
0.13891601562500
0.10449218750000
-0.00042724609375
-0.05078125000000
0.10748291015625
-0.00524902343750
0.11761474609375
-0.03045654296875
0.10125732421875
0.14068603515625
0.00720214843750
0.06829833984375
-0.07958984375000
0.08776855468750
0.16693115234375
0.17266845703125
-0.04852294921875
0.00170898437500
0.09753417968750
0.10565185546875
0.14587402343750
0.05853271484375
0.07110595703125
-0.06628417968750
0.17669677734375
-0.02923583984375
0.00335693359375
-0.06781005859375
0.07092285156250
0.12847900390625
0.07641601562500
0.12225341796875
0.08673095703125
-0.06976318359375
0.05364990234375
0.14965820312500
-0.11102294921875
0.04278564453125
-0.06707763671875
0.09417724609375
0.01623535156250
0.07141113281250
0.15698242187500
0.00793457031250
-0.02893066406250
0.12878417968750
0.07220458984375
-0.03564453125000
0.04681396484375
-0.08203125000000
0.15905761718750
0.15313720703125
0.17468261718750
0.08703613281250
0.01715087890625
0.08911132812500
0.07238769531250
-0.00836181640625
0.09771728515625
0.03723144531250
0.06579589843750
0.07751464843750
-0.03179931640625
0.13287353515625
0.12402343750000
0.06518554687500
0.03680419921875
0.12145996093750
-0.01629638671875
0.12451171875000
-0.02008056640625
0.11376953125000
-0.18798828125000
-0.15325927734375
-0.00231933593750
0.00848388671875
0.06188964843750
0.11029052734375
-0.05010986328125
0.09301757812500
0.14184570312500
0.10992431640625
0.04638671875000
0.08325195312500
0.02032470703125
0.13116455078125
0.06829833984375
0.08148193359375
0.12689208984375
0.06207275390625
-0.02587890625000
0.09765625000000
0.00384521484375
0.02886962890625
0.06530761718750
0.10900878906250
0.01843261718750
-0.04882812500000
-0.02319335937500
-0.12286376953125
0.12390136718750
-0.03228759765625
0.15960693359375
0.15270996093750
-0.11114501953125
0.10363769531250
0.04882812500000
0.11407470703125
-0.00683593750000
0.00872802734375
0.10980224609375
0.05041503906250
0.01049804687500
0.06597900390625
-0.00012207031250
0.15875244140625
0.11694335937500
-0.00720214843750
-0.08581542968750
-0.06512451171875
0.08605957031250
0.10131835937500
-0.00048828125000
-0.00592041015625
0.04101562500000
0.03771972656250
-0.03894042968750
-0.00939941406250
-0.10449218750000
0.03509521484375
0.09985351562500
0.06048583984375
-0.01379394531250
0.08489990234375
0.07653808593750
0.01306152343750
-0.04241943359375
0.12677001953125
0.15490722656250
0.09429931640625
0.08660888671875
0.11657714843750
0.01300048828125
-0.02398681640625
0.09771728515625
-0.10565185546875
0.09210205078125
-0.20306396484375
0.03625488281250
0.05114746093750
-0.00219726562500
-0.01031494140625
-0.04895019531250
0.15667724609375
-0.03686523437500
0.09875488281250
0.11883544921875
0.02368164062500
0.10827636718750
-0.05841064453125
0.12878417968750
0.09936523437500
0.03363037109375
0.09478759765625
0.12677001953125
0.10375976562500
0.07360839843750
0.07684326171875
-0.00109863281250
0.08880615234375
-0.03637695312500
0.07189941406250
0.06146240234375
0.00891113281250
0.12976074218750
-0.03924560546875
-0.02416992187500
0.08587646484375
0.12835693359375
0.08917236328125
0.13861083984375
-0.07336425781250
0.09545898437500
0.02551269531250
-0.04559326171875
0.04223632812500
-0.34454345703125
-0.13665771484375
-0.07965087890625
-0.09295654296875
-0.01397705078125
-0.04779052734375
0.08111572265625
0.14611816406250
0.01397705078125
0.02416992187500
0.01916503906250
0.14660644531250
0.14794921875000
0.09387207031250
0.07379150390625
-0.09149169921875
0.00518798828125
-0.02789306640625
0.08569335937500
0.11187744140625
0.13336181640625
0.00976562500000
0.11785888671875
-0.06097412109375
0.01550292968750
0.07720947265625
0.13433837890625
0.00189208984375
0.20001220703125
-0.06402587890625
0.13488769531250
-0.06146240234375
0.16058349609375
-0.04779052734375
0.03131103515625
0.05914306640625
0.16326904296875
0.02600097656250
0.14984130859375
0.03485107421875
-0.03955078125000
-0.06750488281250
-0.01123046875000
-0.01544189453125
-0.12200927734375
-0.06750488281250
0.08746337890625
-0.03747558593750
-0.00122070312500
-0.11914062500000
-0.09039306640625
0.03179931640625
-0.11956787109375
-0.04370117187500
0.04400634765625
0.10009765625000
-0.05517578125000
0.01794433593750
-0.04357910156250
-0.10382080078125
-0.09985351562500
-0.05169677734375
0.02484130859375
0.05487060546875
-0.03253173828125
0.06445312500000
-0.03112792968750
0.00628662109375
-0.10626220703125
-0.11981201171875
0.03179931640625
-0.05328369140625
-0.05487060546875
0.09014892578125
-0.08544921875000
-0.10687255859375
0.09704589843750
0.15222167968750
-0.08331298828125
0.00903320312500
-0.09259033203125
-0.04101562500000
0.02154541015625
-0.12298583984375
-0.12402343750000
0.00738525390625
-0.00708007812500
-0.08245849609375
0.05700683593750
0.09356689453125
-0.12420654296875
0.02148437500000
0.03808593750000
0.13757324218750
-0.13873291015625
-0.02856445312500
-0.01464843750000
0.12091064453125
-0.02758789062500
-0.01733398437500
-0.10491943359375
0.11749267578125
-0.06933593750000
0.08410644531250
0.07885742187500
0.04248046875000
0.16583251953125
0.10925292968750
-0.04943847656250
-0.00549316406250
0.11572265625000
-0.12811279296875
-0.00146484375000
-0.00854492187500
0.01953125000000
-0.01879882812500
-0.05090332031250
0.10046386718750
-0.08441162109375
0.05651855468750
-0.05108642578125
0.06530761718750
-0.06958007812500
-0.01300048828125
0.09722900390625
-0.09484863281250
0.04779052734375
-0.10418701171875
0.08258056640625
0.13311767578125
-0.08715820312500
-0.03607177734375
0.01348876953125
-0.11627197265625
-0.09991455078125
0.02618408203125
-0.00396728515625
0.00976562500000
0.12500000000000
0.05767822265625
-0.08850097656250
-0.01629638671875
-0.02050781250000
-0.08972167968750
0.01947021484375
-0.14263916015625
-0.09100341796875
-0.01788330078125
0.08233642578125
0.00317382812500
-0.02026367187500
-0.10296630859375
0.06488037109375
0.13812255859375
0.06597900390625
-0.13500976562500
0.03417968750000
-0.10266113281250
0.14831542968750
-0.02703857421875
-0.01330566406250
-0.05957031250000
-0.04138183593750
0.04730224609375
-0.02844238281250
0.12609863281250
-0.06896972656250
0.08599853515625
-0.05102539062500
0.16314697265625
-0.15588378906250
0.06976318359375
0.08270263671875
0.14367675781250
0.07647705078125
-0.11157226562500
0.10919189453125
-0.20452880859375
-0.06286621093750
-0.08483886718750
-0.01232910156250
-0.02868652343750
0.14276123046875
0.10375976562500
-0.05895996093750
0.05548095703125
-0.01123046875000
-0.03131103515625
0.03424072265625
0.04278564453125
0.00219726562500
0.08209228515625
0.10778808593750
0.19604492187500
0.10125732421875
0.01287841796875
0.03741455078125
-0.11517333984375
0.04284667968750
-0.05273437500000
0.08813476562500
0.40777587890625
0.00225830078125
-0.04260253906250
-0.08007812500000
0.01843261718750
-0.04748535156250
0.05853271484375
-0.02838134765625
0.10919189453125
-0.06347656250000
0.06323242187500
0.04321289062500
-0.14404296875000
0.03454589843750
0.03723144531250
-0.07318115234375
-0.07977294921875
0.03570556640625
0.06079101562500
0.04821777343750
0.04626464843750
-0.06433105468750
-0.10180664062500
0.01708984375000
-0.02691650390625
0.03912353515625
-0.11132812500000
-0.09472656250000
-0.00439453125000
0.05151367187500
-0.10729980468750
-0.10253906250000
0.09576416015625
0.01745605468750
0.07373046875000
-0.02874755859375
-0.13293457031250
0.01672363281250
-0.11206054687500
-0.06842041015625
-0.04962158203125
0.05615234375000
0.02911376953125
0.08441162109375
0.00872802734375
0.05731201171875
0.07147216796875
-0.11865234375000
0.05389404296875
-0.08306884765625
0.06323242187500
-0.13476562500000
-0.03253173828125
-0.03912353515625
0.03637695312500
-0.10302734375000
0.32714843750000
0.02172851562500
-0.00775146484375
0.03521728515625
-0.06481933593750
-0.05590820312500
-0.06262207031250
0.07312011718750
0.06842041015625
-0.00878906250000
-0.05487060546875
-0.07690429687500
0.12707519531250
-0.04016113281250
-0.09606933593750
0.04614257812500
-0.09521484375000
-0.03912353515625
-0.02227783203125
0.00524902343750
-0.00128173828125
0.00592041015625
0.07330322265625
-0.12286376953125
-0.20935058593750
0.02294921875000
-0.12164306640625
0.02783203125000
0.18487548828125
-0.27294921875000
-0.06622314453125
-0.01550292968750
-0.16894531250000
0.08337402343750
-0.09161376953125
-0.09075927734375
0.09661865234375
-0.04766845703125
0.05023193359375
-0.00170898437500
0.09771728515625
-0.06176757812500
0.07147216796875
0.10076904296875
0.12854003906250
0.09991455078125
-0.02313232421875
0.05181884765625
0.13537597656250
0.12347412109375
-0.01110839843750
0.01995849609375
0.04608154296875
0.05334472656250
0.01049804687500
0.17022705078125
-0.01257324218750
0.11083984375000
0.05328369140625
0.04956054687500
-0.03564453125000
-0.04492187500000
0.02014160156250
0.02343750000000
-0.08734130859375
-0.02178955078125
0.03198242187500
0.17529296875000
0.06054687500000
0.01763916015625
0.09765625000000
0.12396240234375
0.13708496093750
0.06823730468750
0.13061523437500
0.12469482421875
0.00933837890625
0.04327392578125
0.08508300781250
0.04669189453125
0.02856445312500
0.02032470703125
-0.04675292968750
-0.05529785156250
0.01867675781250
0.14099121093750
0.11633300781250
-0.06384277343750
0.08343505859375
0.09686279296875
0.09497070312500
0.12695312500000
0.16107177734375
0.12799072265625
0.03088378906250
-0.08337402343750
-0.14135742187500
-0.03662109375000
0.14062500000000
0.07293701171875
0.14385986328125
0.12561035156250
0.13800048828125
-0.01916503906250
0.14147949218750
-0.02203369140625
0.02984619140625
0.08807373046875
0.01422119140625
0.05548095703125
-0.02929687500000
-0.04547119140625
0.09997558593750
0.15802001953125
-0.01654052734375
0.08001708984375
0.01916503906250
0.07037353515625
-0.06256103515625
0.04675292968750
-0.04498291015625
0.06188964843750
0.00585937500000
0.09448242187500
0.12866210937500
0.05163574218750
0.12847900390625
0.09637451171875
0.16253662109375
-0.01837158203125
0.08410644531250
0.06951904296875
0.07299804687500
0.06237792968750
0.05041503906250
0.15997314453125
0.03607177734375
0.04119873046875
0.05633544921875
0.16571044921875
0.03271484375000
-0.15484619140625
-0.19061279296875
-0.01538085937500
0.04821777343750
-0.04339599609375
0.09680175781250
0.05743408203125
0.12988281250000
-0.07574462890625
0.05694580078125
0.12878417968750
-0.07214355468750
0.03448486328125
0.07806396484375
-0.02514648437500
0.01531982421875
0.00311279296875
-0.00213623046875
0.01599121093750
0.08874511718750
0.16351318359375
-0.02935791015625
0.12677001953125
-0.01324462890625
0.04260253906250
0.00842285156250
-0.01550292968750
-0.14813232421875
0.04211425781250
0.12292480468750
0.01824951171875
0.09637451171875
-0.09356689453125
0.12384033203125
-0.06854248046875
0.11407470703125
0.08184814453125
0.05010986328125
0.02966308593750
0.05749511718750
0.04742431640625
0.04125976562500
0.05639648437500
0.16400146484375
0.06097412109375
0.00756835937500
-0.05725097656250
-0.02111816406250
0.02667236328125
0.09814453125000
0.00878906250000
0.04248046875000
0.08764648437500
0.14978027343750
0.08087158203125
0.12738037109375
-0.07586669921875
0.09582519531250
0.06945800781250
-0.09381103515625
0.09722900390625
-0.00128173828125
-0.04418945312500
0.05224609375000
0.14978027343750
0.12756347656250
0.09851074218750
0.01116943359375
0.14630126953125
0.11517333984375
-0.01220703125000
0.08374023437500
-0.09478759765625
-0.27099609375000
0.08489990234375
-0.19519042968750
0.07214355468750
-0.06390380859375
0.07989501953125
-0.00714111328125
0.06268310546875
0.14489746093750
0.13922119140625
0.11083984375000
0.00463867187500
0.01184082031250
0.17169189453125
0.05676269531250
0.11413574218750
0.09020996093750
-0.01776123046875
0.08636474609375
0.09759521484375
0.05603027343750
0.06195068359375
0.05828857421875
0.05084228515625
0.05010986328125
0.13287353515625
0.06811523437500
-0.03173828125000
0.12127685546875
0.02380371093750
-0.04382324218750
0.09503173828125
0.14404296875000
-0.01464843750000
0.02502441406250
0.10968017578125
0.07482910156250
0.13964843750000
0.11297607421875
0.01605224609375
0.11596679687500
-0.38391113281250
-0.25323486328125
0.14880371093750
0.00299072265625
0.10064697265625
0.13128662109375
0.09259033203125
0.02185058593750
0.14227294921875
0.07427978515625
0.02984619140625
0.16021728515625
0.09234619140625
-0.05633544921875
0.03100585937500
0.03790283203125
0.14263916015625
0.14703369140625
-0.01403808593750
-0.08569335937500
-0.03271484375000
-0.00268554687500
0.00000000000000
0.01513671875000
0.09185791015625
0.12420654296875
0.04888916015625
0.01171875000000
0.11090087890625
-0.01129150390625
0.19470214843750
0.01965332031250
-0.02331542968750
0.08050537109375
-0.06048583984375
-0.01116943359375
-0.01336669921875
0.08782958984375
0.04254150390625
0.01965332031250
0.07464599609375
0.05603027343750
0.02722167968750
0.12432861328125
0.13153076171875
0.13592529296875
0.00189208984375
0.04046630859375
0.05377197265625
0.00714111328125
-0.04162597656250
0.03442382812500
0.15887451171875
0.08282470703125
0.16235351562500
0.15777587890625
-0.04827880859375
0.13659667968750
0.11541748046875
0.04223632812500
0.12194824218750
0.16351318359375
-0.02764892578125
-0.03540039062500
0.08093261718750
0.06262207031250
0.06335449218750
0.04376220703125
-0.00695800781250
0.16680908203125
-0.06347656250000
-0.03094482421875
-0.03942871093750
0.15728759765625
-0.03656005859375
0.12530517578125
0.00427246093750
0.06420898437500
0.14630126953125
0.04473876953125
0.15258789062500
-0.03210449218750
-0.05871582031250
-0.05529785156250
0.03515625000000
-0.01348876953125
0.13818359375000
0.07745361328125
-0.02087402343750
-0.01452636718750
0.08282470703125
0.02850341796875
0.05090332031250
-0.04901123046875
0.20965576171875
-0.04650878906250
0.18823242187500
-0.10015869140625
-0.02362060546875
-0.06060791015625
0.06768798828125
0.06250000000000
0.06335449218750
0.13629150390625
0.11297607421875
0.11163330078125
-0.14605712890625
0.02832031250000
-0.02996826171875
0.03485107421875
0.09613037109375
0.02111816406250
-0.00543212890625
0.06170654296875
-0.04486083984375
0.04577636718750
-0.01739501953125
-0.01855468750000
0.14770507812500
0.02832031250000
-0.01214599609375
0.08428955078125
0.15802001953125
0.12371826171875
0.03369140625000
-0.04034423828125
-0.01232910156250
0.13739013671875
-0.03094482421875
0.17242431640625
0.04382324218750
0.04748535156250
-0.05102539062500
0.06304931640625
-0.00549316406250
0.11083984375000
-0.01257324218750
-0.06066894531250
-0.05981445312500
0.12670898437500
0.06378173828125
0.10467529296875
-0.20233154296875
-0.21356201171875
-0.08886718750000
0.11004638671875
0.12518310546875
0.10101318359375
0.16754150390625
0.11065673828125
0.04248046875000
-0.04882812500000
-0.01171875000000
0.06738281250000
0.12792968750000
-0.03271484375000
-0.03149414062500
0.07434082031250
0.13452148437500
-0.05584716796875
0.14038085937500
0.06378173828125
0.02490234375000
0.08142089843750
0.03466796875000
0.03344726562500
0.18115234375000
0.20855712890625
0.12164306640625
0.08673095703125
0.03454589843750
0.02087402343750
0.15826416015625
-0.01721191406250
-0.18096923828125
0.03637695312500
-0.06066894531250
0.01501464843750
0.15686035156250
0.02874755859375
-0.03796386718750
0.15319824218750
0.02264404296875
0.08978271484375
-0.07623291015625
0.15832519531250
0.08587646484375
0.08032226562500
0.02661132812500
0.06958007812500
-0.03228759765625
0.04058837890625
0.00769042968750
-0.00061035156250
0.06799316406250
0.06597900390625
0.02813720703125
0.17785644531250
0.06103515625000
-0.01257324218750
0.14813232421875
-0.00146484375000
0.07397460937500
-0.00738525390625
-0.03662109375000
0.14923095703125
0.11236572265625
0.17468261718750
-0.01110839843750
-0.02740478515625
-0.06109619140625
0.02075195312500
-0.02166748046875
0.15112304687500
0.15106201171875
-0.06524658203125
0.24505615234375
0.00122070312500
-0.06842041015625
0.14556884765625
0.06439208984375
0.17877197265625
0.01641845703125
0.03137207031250
0.12292480468750
0.09155273437500
0.03857421875000
-0.06610107421875
0.18780517578125
-0.06048583984375
0.10449218750000
0.08911132812500
0.06793212890625
0.00299072265625
-0.06219482421875
0.10046386718750
0.08380126953125
0.00415039062500
0.03594970703125
-0.06219482421875
0.07666015625000
-0.01934814453125
0.08111572265625
0.05389404296875
0.13830566406250
0.02709960937500
0.09393310546875
0.15612792968750
0.17559814453125
-0.04119873046875
0.11175537109375
-0.01605224609375
0.05126953125000
0.04766845703125
0.05761718750000
0.23742675781250
-0.13140869140625
-0.13177490234375
0.03314208984375
-0.03601074218750
0.02923583984375
0.17120361328125
0.01989746093750
0.11083984375000
0.12231445312500
-0.05255126953125
-0.02917480468750
-0.07153320312500
0.15197753906250
0.06097412109375
0.02050781250000
0.12384033203125
0.15936279296875
-0.01287841796875
0.10876464843750
-0.01562500000000
0.05456542968750
0.00561523437500
-0.04382324218750
-0.08508300781250
0.06756591796875
-0.04333496093750
-0.11236572265625
-0.11547851562500
0.01373291015625
-0.09722900390625
0.31250000000000
-0.09539794921875
-0.08502197265625
-0.07476806640625
-0.01477050781250
0.06024169921875
0.03143310546875
0.06298828125000
0.14691162109375
-0.00842285156250
0.04309082031250
0.06127929687500
0.06823730468750
-0.00158691406250
-0.02117919921875
0.00903320312500
0.03326416015625
0.05505371093750
0.05169677734375
0.13439941406250
0.08856201171875
0.18945312500000
0.12866210937500
0.13647460937500
-0.02343750000000
0.16168212890625
0.05004882812500
0.04394531250000
0.01422119140625
0.06878662109375
0.10852050781250
0.04846191406250
0.02862548828125
0.09185791015625
-0.08349609375000
0.00347900390625
-0.00433349609375
-0.04956054687500
0.09832763671875
-0.06018066406250
0.05908203125000
0.14489746093750
0.02667236328125
-0.03576660156250
0.10565185546875
-0.01635742187500
0.11010742187500
0.08666992187500
0.01531982421875
0.02630615234375
0.13891601562500
-0.04998779296875
0.16223144531250
0.05999755859375
0.03381347656250
0.10711669921875
0.00000000000000
0.03997802734375
-0.00085449218750
0.06225585937500
0.12512207031250
-0.01721191406250
-0.01000976562500
0.00927734375000
-0.22314453125000
-0.09307861328125
-0.10168457031250
-0.05664062500000
0.06469726562500
0.01452636718750
0.05596923828125
-0.04730224609375
0.08599853515625
0.06066894531250
0.00299072265625
0.10211181640625
-0.00012207031250
0.22808837890625
-0.01708984375000
0.26617431640625
0.14123535156250
0.14532470703125
0.06414794921875
-0.04565429687500
0.13757324218750
0.04180908203125
-0.00427246093750
-0.01385498046875
0.11633300781250
-0.07818603515625
0.07763671875000
0.10913085937500
0.07720947265625
-0.04736328125000
-0.02514648437500
0.06347656250000
0.11199951171875
0.17327880859375
0.08996582031250
-0.07379150390625
0.06048583984375
0.03253173828125
-0.00494384765625
0.08984375000000
0.01837158203125
0.13720703125000
-0.04595947265625
-0.00952148437500
0.03619384765625
0.11743164062500
0.07977294921875
0.18292236328125
-0.12902832031250
-0.24273681640625
-0.13769531250000
-0.15740966796875
0.12280273437500
-0.01983642578125
0.07586669921875
0.15075683593750
0.01593017578125
0.09008789062500
0.04229736328125
0.03833007812500
0.14855957031250
0.08978271484375
0.03350830078125
0.03442382812500
0.04644775390625
0.07250976562500
-0.05065917968750
0.03021240234375
0.08032226562500
-0.03399658203125
-0.00097656250000
-0.05920410156250
-0.21490478515625
-0.44012451171875
-0.14935302734375
-0.27947998046875
-0.03015136718750
-0.01812744140625
-0.00061035156250
0.05389404296875
-0.07049560546875
0.29888916015625
-0.04223632812500
0.25823974609375
0.02069091796875
-0.01287841796875
0.07702636718750
0.15142822265625
0.04528808593750
0.16131591796875
0.14416503906250
0.09051513671875
0.10778808593750
-0.07794189453125
0.25152587890625
-0.01867675781250
0.17724609375000
0.14953613281250
-0.05993652343750
0.01593017578125
-0.01239013671875
0.14672851562500
0.13519287109375
-0.03729248046875
0.01257324218750
-0.07226562500000
0.04998779296875
-0.08300781250000
0.03887939453125
0.16363525390625
-0.05261230468750
0.07916259765625
0.18237304687500
-0.02740478515625
0.15740966796875
0.10797119140625
0.09014892578125
-0.03857421875000
0.16455078125000
-0.00836181640625
-0.27886962890625
-0.31121826171875
-0.28668212890625
-0.30706787109375
0.03186035156250
0.13073730468750
-0.00183105468750
-0.01605224609375
0.05297851562500
0.16796875000000
0.12890625000000
0.04925537109375
0.02569580078125
-0.02264404296875
0.01434326171875
-0.02966308593750
0.00079345703125
0.01513671875000
0.01525878906250
0.13397216796875
0.09759521484375
0.08148193359375
0.10052490234375
0.06994628906250
-0.04296875000000
-0.02752685546875
0.05291748046875
-0.00738525390625
0.11993408203125
-0.03253173828125
0.08837890625000
0.11889648437500
0.06579589843750
0.10034179687500
0.06896972656250
0.10620117187500
-0.08691406250000
0.07354736328125
-0.06994628906250
0.11096191406250
-0.18286132812500
-0.18011474609375
-0.20867919921875
-0.09814453125000
0.15252685546875
0.18103027343750
0.03851318359375
-0.07135009765625
-0.07348632812500
0.12725830078125
0.11785888671875
0.12396240234375
0.09680175781250
0.13006591796875
0.08856201171875
0.14129638671875
-0.03302001953125
-0.00402832031250
0.12390136718750
-0.02197265625000
-0.01080322265625
-0.07257080078125
0.05206298828125
0.11047363281250
-0.11132812500000
0.00018310546875
-0.00628662109375
0.06597900390625
0.11346435546875
0.27880859375000
0.00347900390625
0.13696289062500
-0.27545166015625
0.05755615234375
-0.05981445312500
0.37225341796875
0.09124755859375
0.16436767578125
0.09259033203125
0.07373046875000
-0.04614257812500
-0.06494140625000
0.07452392578125
0.12145996093750
0.07092285156250
-0.12469482421875
0.02099609375000
-0.06030273437500
0.04040527343750
-0.10668945312500
0.06854248046875
-0.02410888671875
0.05944824218750
-0.20629882812500
-0.13037109375000
-0.08599853515625
-0.01550292968750
0.04742431640625
-0.00823974609375
0.07263183593750
-0.05810546875000
0.01818847656250
-0.08837890625000
-0.00585937500000
0.08587646484375
0.05035400390625
0.00268554687500
-0.06903076171875
-0.04949951171875
-0.06744384765625
0.07153320312500
0.07751464843750
0.06665039062500
0.00610351562500
-0.14526367187500
0.02789306640625
-0.09643554687500
-0.06060791015625
0.04010009765625
-0.06921386718750
-0.04809570312500
0.12719726562500
-0.02307128906250
0.01239013671875
-0.04602050781250
0.03790283203125
-0.01263427734375
-0.07427978515625
-0.10137939453125
-0.01586914062500
-0.13293457031250
0.01458740234375
-0.00823974609375
0.01544189453125
0.07263183593750
0.06054687500000
-0.09777832031250
0.13488769531250
-0.01342773437500
0.09368896484375
0.06689453125000
0.01110839843750
0.00750732421875
-0.07617187500000
0.00451660156250
-0.00354003906250
-0.03558349609375
-0.12445068359375
-0.07049560546875
-0.17590332031250
-0.05029296875000
0.00280761718750
-0.04071044921875
0.00335693359375
0.02716064453125
-0.12084960937500
-0.05151367187500
0.04565429687500
-0.09802246093750
-0.06762695312500
0.02838134765625
-0.19897460937500
-0.07861328125000
0.00860595703125
0.04058837890625
0.13598632812500
0.04095458984375
0.04730224609375
-0.11584472656250
-0.01593017578125
-0.04840087890625
0.04150390625000
-0.05462646484375
0.04656982421875
-0.02587890625000
-0.05004882812500
0.07269287109375
0.07220458984375
-0.12274169921875
-0.12438964843750
-0.05810546875000
-0.09832763671875
-0.13037109375000
0.01947021484375
0.00292968750000
0.05810546875000
-0.04583740234375
0.07531738281250
0.07708740234375
-0.00054931640625
-0.03857421875000
0.01837158203125
-0.12518310546875
-0.08557128906250
0.05511474609375
0.01104736328125
0.01849365234375
-0.09741210937500
0.09301757812500
-0.04504394531250
-0.02795410156250
-0.02947998046875
-0.07391357421875
-0.03662109375000
-0.12249755859375
-0.02172851562500
0.01910400390625
-0.07550048828125
-0.10595703125000
0.26708984375000
0.04370117187500
-0.08062744140625
-0.10260009765625
-0.08624267578125
0.01452636718750
0.04479980468750
-0.00128173828125
0.02679443359375
0.03326416015625
-0.07983398437500
-0.11993408203125
-0.05059814453125
0.09161376953125
-0.04235839843750
0.10241699218750
-0.08258056640625
-0.03961181640625
0.08569335937500
-0.05737304687500
0.21228027343750
-0.05883789062500
0.07977294921875
0.00720214843750
-0.04809570312500
0.02593994140625
0.03503417968750
-0.07751464843750
-0.07324218750000
0.03283691406250
0.06011962890625
-0.07434082031250
0.04705810546875
-0.13287353515625
0.09033203125000
-0.13043212890625
-0.09515380859375
0.01733398437500
0.07202148437500
0.00213623046875
0.08410644531250
-0.09527587890625
0.06884765625000
0.00024414062500
0.00347900390625
0.06634521484375
0.04034423828125
-0.09533691406250
0.09051513671875
-0.02398681640625
-0.06823730468750
0.07049560546875
-0.09283447265625
-0.01837158203125
-0.08129882812500
-0.02722167968750
0.01849365234375
-0.01470947265625
-0.05792236328125
-0.02606201171875
-0.08673095703125
0.06933593750000
-0.03906250000000
-0.10632324218750
0.11871337890625
-0.03833007812500
-0.03021240234375
0.03765869140625
-0.14434814453125
-0.05847167968750
0.05407714843750
-0.12414550781250
-0.01031494140625
0.08471679687500
-0.09515380859375
0.05444335937500
-0.06945800781250
-0.08990478515625
-0.04211425781250
0.10174560546875
0.07342529296875
-0.01855468750000
-0.03564453125000
0.03771972656250
0.11846923828125
-0.03894042968750
0.00555419921875
-0.07153320312500
0.39794921875000
-0.07470703125000
-0.07244873046875
0.06909179687500
-0.08013916015625
0.06500244140625
0.00891113281250
-0.14086914062500
-0.02880859375000
-0.06634521484375
-0.04302978515625
0.04864501953125
0.04370117187500
-0.10760498046875
0.11138916015625
-0.08636474609375
0.06597900390625
0.07629394531250
-0.05883789062500
0.09655761718750
-0.15563964843750
-0.07037353515625
-0.04431152343750
-0.00970458984375
-0.16223144531250
0.04180908203125
-0.06994628906250
0.04278564453125
-0.25531005859375
0.07495117187500
-0.04675292968750
0.07849121093750
-0.06860351562500
-0.12792968750000
-0.04290771484375
0.02520751953125
-0.13287353515625
-0.02752685546875
-0.09655761718750
-0.05145263671875
0.00024414062500
0.08178710937500
0.05493164062500
0.05657958984375
0.09155273437500
-0.02496337890625
-0.03997802734375
-0.08923339843750
-0.03924560546875
-0.12402343750000
-0.05950927734375
-0.06060791015625
0.07983398437500
0.07788085937500
-0.06549072265625
0.03149414062500
-0.02398681640625
0.08221435546875
-0.14105224609375
0.07049560546875
0.01733398437500
-0.11712646484375
0.03863525390625
0.04840087890625
-0.13677978515625
0.01708984375000
0.06512451171875
-0.13189697265625
-0.00097656250000
-0.12115478515625
0.02343750000000
-0.13757324218750
-0.01824951171875
0.09814453125000
0.04101562500000
-0.13043212890625
0.06677246093750
-0.01507568359375
-0.03991699218750
-0.10107421875000
-0.03320312500000
-0.06506347656250
0.04064941406250
-0.05200195312500
-0.03936767578125
-0.06555175781250
-0.05541992187500
0.09088134765625
-0.13171386718750
-0.08428955078125
-0.10589599609375
-0.05560302734375
-0.05053710937500
0.08001708984375
-0.05828857421875
-0.05596923828125
-0.04650878906250
-0.07922363281250
0.04187011718750
0.00500488281250
0.06616210937500
-0.02630615234375
-0.13000488281250
-0.01068115234375
-0.05615234375000
-0.09545898437500
0.07275390625000
-0.10015869140625
0.07037353515625
0.10217285156250
-0.07318115234375
-0.04840087890625
-0.04425048828125
0.05841064453125
-0.04437255859375
0.05541992187500
-0.11944580078125
-0.08911132812500
-0.08746337890625
0.04846191406250
-0.04046630859375
0.04077148437500
0.04272460937500
0.08306884765625
-0.10443115234375
0.04431152343750
-0.03491210937500
-0.13031005859375
0.08276367187500
-0.00030517578125
0.07330322265625
-0.10473632812500
0.01916503906250
0.04101562500000
0.01184082031250
0.06390380859375
-0.03381347656250
-0.13110351562500
0.07110595703125
-0.08105468750000
-0.01080322265625
-0.04943847656250
0.01684570312500
-0.10443115234375
-0.13977050781250
-0.12518310546875
-0.01953125000000
-0.06347656250000
-0.13568115234375
-0.05633544921875
-0.11682128906250
-0.03570556640625
-0.07080078125000
-0.01275634765625
-0.07336425781250
0.06774902343750
0.07153320312500
-0.00946044921875
-0.06152343750000
-0.03753662109375
-0.07098388671875
-0.08282470703125
0.08471679687500
-0.00006103515625
-0.02459716796875
-0.12835693359375
-0.13281250000000
-0.00677490234375
0.02117919921875
-0.08288574218750
-0.00897216796875
-0.12890625000000
-0.07647705078125
-0.07446289062500
-0.07159423828125
0.02667236328125
-0.12390136718750
0.05725097656250
0.04040527343750
0.02484130859375
0.02416992187500
-0.01727294921875
-0.08367919921875
-0.10333251953125
0.03265380859375
-0.06958007812500
0.00921630859375
-0.03063964843750
0.09057617187500
0.01300048828125
0.02746582031250
0.09204101562500
-0.01934814453125
-0.02319335937500
0.04937744140625
-0.04974365234375
0.00476074218750
0.05676269531250
-0.08001708984375
-0.12097167968750
-0.02026367187500
-0.08959960937500
0.04748535156250
0.08715820312500
-0.06848144531250
0.04669189453125
0.02203369140625
0.06158447265625
-0.04150390625000
-0.03350830078125
0.06140136718750
0.03350830078125
-0.06500244140625
-0.11901855468750
-0.02624511718750
-0.03259277343750
0.00238037109375
0.03637695312500
-0.11297607421875
0.03863525390625
0.05786132812500
-0.07324218750000
-0.11029052734375
-0.12078857421875
-0.05224609375000
-0.10144042968750
-0.10284423828125
0.04888916015625
0.02899169921875
-0.05413818359375
-0.01940917968750
-0.11828613281250
-0.05328369140625
-0.00048828125000
-0.01782226562500
-0.12170410156250
0.00732421875000
0.08697509765625
-0.02862548828125
-0.02880859375000
-0.06652832031250
-0.10076904296875
0.07672119140625
0.05480957031250
-0.07690429687500
-0.12512207031250
-0.01300048828125
-0.00170898437500
0.01446533203125
-0.02520751953125
0.03863525390625
0.04760742187500
0.00793457031250
0.08386230468750
0.07800292968750
0.05810546875000
-0.03491210937500
0.01416015625000
0.07873535156250
-0.00598144531250
0.06134033203125
-0.07635498046875
0.02667236328125
-0.12768554687500
0.01654052734375
0.05676269531250
-0.01159667968750
-0.05792236328125
-0.03540039062500
0.11273193359375
0.04833984375000
0.02178955078125
-0.00372314453125
-0.11273193359375
0.03387451171875
0.05584716796875
-0.02484130859375
0.07543945312500
0.04992675781250
0.10546875000000
0.03491210937500
-0.12084960937500
-0.03210449218750
0.06341552734375
-0.09997558593750
0.05609130859375
0.05010986328125
-0.10284423828125
0.03778076171875
0.04669189453125
-0.09039306640625
0.09613037109375
-0.09606933593750
-0.00848388671875
0.00848388671875
-0.03460693359375
-0.11804199218750
-0.01654052734375
-0.00286865234375
-0.00378417968750
0.09002685546875
0.00421142578125
0.07623291015625
0.13775634765625
0.04620361328125
0.02648925781250
0.12603759765625
0.04193115234375
-0.02526855468750
-0.02673339843750
0.02160644531250
0.13922119140625
0.15771484375000
-0.03399658203125
0.04962158203125
0.07269287109375
0.02221679687500
0.03424072265625
0.07183837890625
0.01214599609375
-0.09710693359375
0.00665283203125
-0.00817871093750
0.14685058593750
0.06365966796875
0.07855224609375
0.16149902343750
-0.07421875000000
0.11395263671875
0.14068603515625
0.15325927734375
-0.02758789062500
0.01843261718750
0.01611328125000
0.17846679687500
-0.07800292968750
-0.01879882812500
0.16558837890625
0.11560058593750
0.06427001953125
0.08892822265625
0.02929687500000
0.07318115234375
0.00061035156250
-0.02679443359375
-0.06964111328125
0.06311035156250
-0.03137207031250
-0.02899169921875
0.03979492187500
0.08831787109375
0.11590576171875
0.12567138671875
0.12292480468750
-0.02026367187500
0.06982421875000
0.07592773437500
0.06903076171875
0.14074707031250
-0.03607177734375
-0.06213378906250
0.17675781250000
0.09729003906250
-0.03552246093750
-0.14794921875000
0.13421630859375
0.05401611328125
0.13562011718750
0.13684082031250
0.03527832031250
-0.02593994140625
0.13537597656250
0.11663818359375
0.10949707031250
0.06097412109375
0.15533447265625
0.14776611328125
-0.01300048828125
-0.02465820312500
0.13116455078125
0.12158203125000
-0.04907226562500
0.04193115234375
-0.02813720703125
0.11175537109375
0.08618164062500
-0.05987548828125
0.12664794921875
0.15118408203125
0.14147949218750
0.09344482421875
0.13531494140625
0.11132812500000
-0.00274658203125
0.02813720703125
0.04125976562500
0.01013183593750
-0.08001708984375
0.04687500000000
-0.22924804687500
-0.06793212890625
-0.17724609375000
0.15911865234375
-0.02642822265625
-0.05242919921875
0.06225585937500
0.04400634765625
0.05676269531250
0.00946044921875
-0.05603027343750
-0.10510253906250
0.14971923828125
0.03216552734375
-0.04766845703125
0.00323486328125
0.12329101562500
-0.07006835937500
-0.04058837890625
-0.01971435546875
0.07006835937500
0.02264404296875
-0.00506591796875
0.00329589843750
-0.07165527343750
-0.03289794921875
-0.20428466796875
-0.27410888671875
0.06524658203125
0.04010009765625
0.03070068359375
-0.04028320312500
-0.21990966796875
-0.22143554687500
0.13342285156250
-0.07617187500000
0.12249755859375
0.04357910156250
0.18981933593750
0.00708007812500
0.03979492187500
-0.08715820312500
0.06115722656250
0.13012695312500
-0.04016113281250
0.09362792968750
-0.19848632812500
0.16204833984375
0.05975341796875
0.07629394531250
-0.01550292968750
0.08978271484375
-0.01965332031250
0.06066894531250
0.06781005859375
0.04400634765625
-0.04296875000000
0.06915283203125
0.00506591796875
0.09790039062500
0.10461425781250
0.07464599609375
0.14434814453125
-0.06524658203125
0.02087402343750
0.06317138671875
-0.00817871093750
-0.05480957031250
0.00665283203125
-0.08618164062500
0.13610839843750
0.07446289062500
0.19714355468750
-0.03326416015625
0.24670410156250
-0.10266113281250
0.03631591796875
0.03961181640625
0.13702392578125
0.12420654296875
0.07684326171875
-0.03594970703125
0.11767578125000
0.08618164062500
-0.02185058593750
0.04486083984375
0.12554931640625
0.11614990234375
0.07989501953125
0.07196044921875
0.10253906250000
-0.06256103515625
-0.06860351562500
0.11938476562500
-0.02423095703125
-0.04443359375000
-0.07366943359375
0.11724853515625
0.00714111328125
0.09399414062500
-0.04345703125000
0.11602783203125
0.14654541015625
0.05004882812500
0.14819335937500
0.04290771484375
-0.06994628906250
0.17944335937500
-0.01599121093750
0.10504150390625
0.13073730468750
0.03143310546875
-0.33221435546875
-0.18865966796875
-0.40112304687500
-0.46081542968750
0.12036132812500
-0.10052490234375
0.10888671875000
0.05944824218750
0.06066894531250
-0.01562500000000
0.03106689453125
0.04107666015625
0.08850097656250
0.03979492187500
0.00341796875000
0.04864501953125
0.07977294921875
0.05065917968750
-0.03302001953125
0.10937500000000
0.16009521484375
-0.03747558593750
0.04864501953125
0.09960937500000
0.08905029296875
0.04937744140625
0.12066650390625
-0.02905273437500
0.20202636718750
0.03918457031250
0.43066406250000
0.07318115234375
0.26831054687500
0.11206054687500
0.15692138671875
0.08618164062500
0.03533935546875
0.11383056640625
0.05957031250000
0.06011962890625
0.12780761718750
0.13122558593750
-0.08874511718750
-0.06701660156250
-0.06152343750000
0.04852294921875
-0.10272216796875
0.10162353515625
0.09490966796875
0.18664550781250
-0.01617431640625
0.08276367187500
0.07641601562500
0.12597656250000
0.09545898437500
0.27233886718750
-0.07708740234375
0.08679199218750
-0.02746582031250
0.05035400390625
-0.00433349609375
0.00079345703125
0.04058837890625
0.06805419921875
-0.05346679687500
-0.18322753906250
-0.03411865234375
0.06335449218750
0.05102539062500
0.04760742187500
0.00976562500000
-0.00256347656250
-0.04028320312500
-0.10083007812500
-0.06335449218750
0.08282470703125
0.05114746093750
0.11889648437500
0.04528808593750
0.14733886718750
-0.01013183593750
0.01306152343750
-0.13122558593750
0.01489257812500
0.08984375000000
0.04443359375000
0.13134765625000
-0.01458740234375
0.03063964843750
-0.06939697265625
-0.04266357421875
0.08294677734375
-0.14971923828125
-0.03631591796875
0.02551269531250
-0.06695556640625
0.06787109375000
0.09057617187500
0.07830810546875
0.15289306640625
0.00842285156250
0.10113525390625
0.05755615234375
0.06695556640625
0.04718017578125
-0.02978515625000
-0.04461669921875
0.13323974609375
0.01580810546875
0.03942871093750
-0.10253906250000
-0.19750976562500
-0.01806640625000
-0.00653076171875
-0.00866699218750
0.00866699218750
0.08764648437500
0.03460693359375
0.13787841796875
0.20989990234375
0.12280273437500
0.20227050781250
0.18719482421875
0.15570068359375
0.04016113281250
0.04309082031250
-0.03741455078125
0.13104248046875
0.12152099609375
0.06591796875000
0.00427246093750
0.13073730468750
0.06066894531250
0.22503662109375
0.10571289062500
0.19067382812500
-0.14630126953125
-0.04211425781250
-0.10333251953125
-0.06518554687500
0.18542480468750
0.09478759765625
0.17236328125000
0.14990234375000
-0.16650390625000
-0.22094726562500
-0.07830810546875
-0.38311767578125
0.00970458984375
-0.01019287109375
-0.03680419921875
-0.05810546875000
-0.13739013671875
-0.24737548828125
-0.07513427734375
-0.07647705078125
0.03509521484375
-0.02166748046875
0.02838134765625
0.10937500000000
0.06036376953125
-0.08874511718750
-0.05505371093750
-0.06176757812500
0.00891113281250
-0.09265136718750
-0.08215332031250
-0.05340576171875
-0.22625732421875
-0.16656494140625
-0.24023437500000
-0.34826660156250
0.09619140625000
0.16400146484375
0.14971923828125
0.03063964843750
0.08935546875000
-0.27465820312500
0.03491210937500
-0.09667968750000
0.09350585937500
-0.02954101562500
0.04547119140625
0.00500488281250
0.05572509765625
0.02209472656250
0.13031005859375
0.12933349609375
-0.18249511718750
-0.06500244140625
-0.05804443359375
0.06341552734375
0.06439208984375
-0.12536621093750
-0.05273437500000
-0.08959960937500
0.00537109375000
-0.08862304687500
-0.06359863281250
-0.02301025390625
-0.09600830078125
-0.18609619140625
-0.10980224609375
-0.30126953125000
-0.04705810546875
-0.04113769531250
0.11907958984375
-0.12341308593750
0.07373046875000
0.13092041015625
0.17132568359375
0.29315185546875
0.00207519531250
-0.08892822265625
-0.00354003906250
-0.10614013671875
-0.08813476562500
0.08514404296875
-0.12628173828125
0.15216064453125
-0.00323486328125
-0.00744628906250
0.02233886718750
0.01019287109375
0.20605468750000
0.04351806640625
0.20989990234375
-0.05554199218750
0.00042724609375
0.01361083984375
-0.00128173828125
-0.05871582031250
-0.15570068359375
-0.06628417968750
-0.09716796875000
-0.14404296875000
0.13958740234375
0.15893554687500
0.13098144531250
0.06420898437500
-0.02050781250000
-0.04034423828125
-0.12341308593750
-0.13739013671875
0.05145263671875
0.12475585937500
0.11804199218750
0.18200683593750
-0.06042480468750
0.05822753906250
-0.13909912109375
-0.06066894531250
-0.16784667968750
-0.17889404296875
0.02404785156250
-0.08410644531250
-0.27752685546875
-0.21343994140625
-0.33917236328125
-0.34588623046875
0.01837158203125
-0.00073242187500
0.11907958984375
0.03625488281250
0.04364013671875
0.05529785156250
0.11114501953125
0.08618164062500
0.07165527343750
-0.07611083984375
-0.04034423828125
0.05548095703125
0.13854980468750
0.10406494140625
0.11553955078125
-0.03027343750000
0.04254150390625
0.22283935546875
0.09490966796875
0.06536865234375
0.04077148437500
0.00671386718750
-0.02410888671875
-0.21417236328125
0.24285888671875
0.21881103515625
0.33227539062500
0.27435302734375
0.21063232421875
0.22839355468750
0.28887939453125
0.11175537109375
0.00689697265625
0.06774902343750
0.01940917968750
0.10693359375000
-0.14019775390625
-0.12042236328125
0.02490234375000
0.01666259765625
0.04083251953125
-0.03619384765625
0.08917236328125
-0.02239990234375
0.05462646484375
0.10089111328125
0.04150390625000
-0.01385498046875
0.00878906250000
0.10766601562500
-0.07202148437500
0.12084960937500
0.08270263671875
-0.09539794921875
-0.16345214843750
-0.09436035156250
-0.01953125000000
-0.01867675781250
0.00531005859375
-0.04492187500000
-0.06890869140625
0.01953125000000
0.09820556640625
-0.10717773437500
-0.10546875000000
0.00421142578125
-0.19110107421875
-0.03997802734375
0.03985595703125
0.03436279296875
-0.01263427734375
0.02001953125000
-0.10864257812500
-0.05310058593750
0.01440429687500
-0.10589599609375
-0.04766845703125
-0.04718017578125
-0.02038574218750
-0.04888916015625
0.05206298828125
0.12951660156250
-0.00408935546875
0.00262451171875
0.05706787109375
0.10485839843750
-0.07464599609375
0.10180664062500
-0.12683105468750
-0.09521484375000
0.00634765625000
0.02154541015625
0.02069091796875
-0.24566650390625
0.21429443359375
0.03857421875000
