0.41009521484375
0.55187988281250
0.41156005859375
0.34539794921875
-0.28314208984375
-0.08843994140625
-0.21203613281250
0.25311279296875
-0.10620117187500
-0.01617431640625
0.19500732421875
0.29760742187500
0.05328369140625
0.11718750000000
-0.24920654296875
0.03472900390625
0.11376953125000
-0.24401855468750
-0.22039794921875
0.11712646484375
0.12707519531250
0.01861572265625
0.17663574218750
0.04058837890625
0.18206787109375
-0.23089599609375
-0.15783691406250
0.25250244140625
-0.18212890625000
0.01892089843750
0.26464843750000
-0.06854248046875
0.18719482421875
-0.23345947265625
0.21569824218750
0.11804199218750
-0.18621826171875
0.21893310546875
0.13769531250000
-0.13262939453125
-0.34002685546875
-0.33380126953125
-0.09149169921875
-0.19012451171875
-0.36932373046875
-0.13574218750000
-0.02410888671875
-0.30212402343750
0.12280273437500
-0.22698974609375
-0.20428466796875
-0.04400634765625
-0.16143798828125
0.10070800781250
0.12585449218750
-0.12353515625000
0.02624511718750
-0.02258300781250
-0.19610595703125
-0.16607666015625
0.01733398437500
0.12817382812500
-0.04333496093750
-0.08898925781250
-0.09759521484375
-0.04437255859375
0.13134765625000
-0.28918457031250
-0.18145751953125
0.07012939453125
0.02233886718750
0.10168457031250
-0.08416748046875
-0.01995849609375
-0.16247558593750
-0.22741699218750
-0.32031250000000
-0.20690917968750
-0.26031494140625
0.05389404296875
-0.13659667968750
0.07525634765625
-0.26220703125000
-0.22186279296875
-0.15490722656250
0.16699218750000
0.05249023437500
-0.17877197265625
-0.03710937500000
0.22656250000000
0.07836914062500
0.16894531250000
0.11236572265625
-0.17480468750000
-0.13995361328125
0.26043701171875
-0.01867675781250
-0.16485595703125
-0.18878173828125
0.10833740234375
0.04064941406250
-0.07403564453125
-0.22656250000000
-0.10394287109375
-0.09545898437500
-0.26995849609375
0.02630615234375
-0.28460693359375
-0.04119873046875
-0.03985595703125
-0.14898681640625
0.05218505859375
-0.03887939453125
0.11962890625000
-0.23175048828125
-0.20410156250000
0.02081298828125
-0.09613037109375
-0.09698486328125
0.04595947265625
-0.17132568359375
-0.21917724609375
0.15441894531250
0.01220703125000
0.23071289062500
0.17413330078125
-0.00067138671875
0.13549804687500
-0.03442382812500
-0.09161376953125
0.01385498046875
-0.19525146484375
-0.11938476562500
0.04241943359375
0.05102539062500
0.01281738281250
-0.19006347656250
-0.28247070312500
-0.30541992187500
-0.07385253906250
-0.08203125000000
0.01452636718750
-0.12689208984375
-0.02886962890625
0.04577636718750
-0.19268798828125
0.05279541015625
-0.04138183593750
-0.07336425781250
-0.17749023437500
0.14337158203125
0.23840332031250
0.09289550781250
0.05529785156250
-0.01879882812500
0.17980957031250
0.07073974609375
0.09259033203125
-0.05938720703125
0.14373779296875
-0.23956298828125
-0.31726074218750
-0.10699462890625
-0.10278320312500
-0.15863037109375
-0.21850585937500
-0.22674560546875
-0.13171386718750
0.05401611328125
-0.06726074218750
-0.19824218750000
0.14013671875000
-0.18457031250000
-0.11218261718750
0.19488525390625
-0.15325927734375
-0.10137939453125
-0.14801025390625
0.03417968750000
-0.17968750000000
-0.20037841796875
0.12774658203125
0.10339355468750
-0.14788818359375
-0.24853515625000
0.00421142578125
-0.32849121093750
-0.34027099609375
0.02716064453125
0.24316406250000
-0.07495117187500
-0.25085449218750
