0.25701904296875
0.20678710937500
0.14263916015625
0.13922119140625
0.20385742187500
0.00830078125000
0.16021728515625
0.26190185546875
0.21319580078125
0.32165527343750
0.14385986328125
0.21881103515625
0.19775390625000
0.21765136718750
0.22454833984375
0.27911376953125
0.16302490234375
0.17462158203125
0.12493896484375
0.19262695312500
0.31103515625000
0.27514648437500
0.22784423828125
0.24865722656250
0.22851562500000
0.17431640625000
0.26879882812500
0.24536132812500
0.24871826171875
0.18591308593750
0.23181152343750
0.23278808593750
0.12652587890625
0.22888183593750
0.18737792968750
0.15826416015625
0.18646240234375
0.23223876953125
0.21118164062500
0.27978515625000
0.22277832031250
0.21716308593750
0.21881103515625
0.24652099609375
0.16949462890625
0.28216552734375
0.21966552734375
0.23211669921875
0.21887207031250
0.19293212890625
0.18560791015625
0.19372558593750
0.25408935546875
0.36218261718750
0.22418212890625
0.12579345703125
0.27056884765625
0.18664550781250
0.18695068359375
0.12487792968750
0.26892089843750
0.12469482421875
0.18194580078125
0.21075439453125
0.26043701171875
0.21630859375000
0.20385742187500
0.18170166015625
0.23907470703125
0.34246826171875
0.18872070312500
0.21087646484375
0.19232177734375
0.17791748046875
0.24230957031250
0.21191406250000
0.22186279296875
0.21276855468750
0.20892333984375
0.28692626953125
0.17706298828125
0.21343994140625
0.25097656250000
0.26422119140625
0.27679443359375
0.23162841796875
0.22277832031250
0.22424316406250
0.21722412109375
0.23449707031250
0.26647949218750
0.14801025390625
0.28826904296875
0.16369628906250
0.27606201171875
0.25842285156250
0.30151367187500
0.22924804687500
0.17169189453125
0.13696289062500
0.18664550781250
0.22088623046875
0.22851562500000
0.25933837890625
0.21307373046875
0.19378662109375
0.19720458984375
0.26403808593750
0.27996826171875
0.18524169921875
0.22955322265625
0.22729492187500
0.16015625000000
0.17742919921875
0.18310546875000
0.21154785156250
0.22961425781250
0.21740722656250
0.20831298828125
0.16900634765625
0.30926513671875
0.20428466796875
0.21936035156250
0.38922119140625
0.23364257812500
0.16735839843750
0.24847412109375
0.21868896484375
0.17047119140625
0.24975585937500
0.19970703125000
-0.03637695312500
0.24938964843750
-0.06689453125000
0.10894775390625
0.04815673828125
-0.01538085937500
-0.06878662109375
0.24603271484375
-0.00903320312500
0.05639648437500
0.36236572265625
-0.07824707031250
0.05853271484375
0.44683837890625
0.32464599609375
0.44213867187500
-0.01306152343750
0.48803710937500
0.39459228515625
0.40722656250000
-0.09674072265625
0.31243896484375
0.29333496093750
-0.05511474609375
0.24688720703125
-0.08905029296875
0.18255615234375
0.39538574218750
-0.04150390625000
0.32330322265625
-0.07293701171875
0.07568359375000
0.26074218750000
0.24475097656250
-0.09295654296875
-0.00164794921875
-0.08673095703125
-0.08905029296875
0.36383056640625
-0.09112548828125
-0.07403564453125
0.09460449218750
0.19372558593750
0.07891845703125
-0.02124023437500
-0.07739257812500
0.30157470703125
0.27673339843750
0.22320556640625
0.19500732421875
-0.06109619140625
0.11102294921875
0.07043457031250
0.13726806640625
-0.08856201171875
0.08129882812500
0.26947021484375
-0.08679199218750
0.31573486328125
0.06530761718750
0.36511230468750
0.38793945312500
-0.01757812500000
0.23229980468750
0.30834960937500
0.20037841796875
0.45935058593750
0.41406250000000
0.30303955078125
-0.07781982421875
0.20996093750000
0.04443359375000
0.54864501953125
-0.07073974609375
0.15960693359375
0.11395263671875
0.38415527343750
0.30651855468750
0.06848144531250
-0.05743408203125
-0.08270263671875
-0.08306884765625
0.24041748046875
0.40264892578125
0.07080078125000
0.17956542968750
-0.00189208984375
-0.13031005859375
0.31085205078125
0.30895996093750
0.30902099609375
-0.06298828125000
-0.07080078125000
0.16168212890625
-0.02398681640625
0.30242919921875
0.30078125000000
0.27886962890625
0.10919189453125
0.31671142578125
0.08349609375000
0.10968017578125
0.18670654296875
-0.00115966796875
-0.11578369140625
-0.07684326171875
0.14074707031250
-0.07495117187500
-0.03741455078125
0.23840332031250
0.06201171875000
0.20117187500000
0.33258056640625
0.04772949218750
-0.11737060546875
0.18762207031250
0.16839599609375
0.39910888671875
0.22851562500000
0.25286865234375
0.52178955078125
0.36260986328125
0.26306152343750
0.24182128906250
0.42956542968750
-0.10168457031250
0.27172851562500
0.15826416015625
0.33862304687500
0.16284179687500
0.35626220703125
0.19244384765625
0.21765136718750
0.14678955078125
-0.13299560546875
0.13171386718750
-0.08752441406250
0.03967285156250
0.05322265625000
-0.07012939453125
0.52026367187500
0.25347900390625
0.23498535156250
0.12982177734375
0.37945556640625
0.05230712890625
0.29797363281250
-0.06262207031250
-0.03588867187500
0.33392333984375
0.05291748046875
0.06475830078125
0.01446533203125
-0.09564208984375
0.29553222656250
0.29095458984375
0.25823974609375
0.11785888671875
0.26995849609375
0.21734619140625
0.10089111328125
-0.04486083984375
-0.09417724609375
0.34088134765625
-0.06347656250000
0.07080078125000
0.33215332031250
0.11358642578125
0.30767822265625
0.22570800781250
0.26165771484375
0.22790527343750
0.11871337890625
0.24316406250000
0.10974121093750
0.25073242187500
0.21948242187500
0.54467773437500
0.45556640625000
-0.07781982421875
0.02838134765625
0.29364013671875
-0.08148193359375
-0.01666259765625
0.43432617187500
-0.06561279296875
0.07537841796875
-0.04492187500000
0.27178955078125
0.07635498046875
0.13543701171875
0.07739257812500
0.23986816406250
-0.06524658203125
0.50817871093750
-0.09460449218750
-0.04614257812500
0.37438964843750
0.23095703125000
0.28845214843750
-0.08361816406250
0.29144287109375
0.14868164062500
-0.09936523437500
0.55493164062500
0.11541748046875
0.34759521484375
0.21636962890625
-0.12396240234375
-0.10040283203125
0.13555908203125
0.28332519531250
0.22808837890625
0.01007080078125
-0.06976318359375
-0.09936523437500
0.13897705078125
-0.06964111328125
0.27655029296875
0.16223144531250
-0.03863525390625
0.17303466796875
0.18762207031250
0.35589599609375
-0.05828857421875
0.23522949218750
-0.05883789062500
0.37658691406250
-0.07342529296875
0.19573974609375
0.22222900390625
-0.09106445312500
-0.10778808593750
0.03759765625000
-0.01043701171875
-0.07659912109375
0.26214599609375
-0.00775146484375
0.03472900390625
0.44830322265625
0.37512207031250
-0.08105468750000
0.22656250000000
0.07293701171875
0.23535156250000
0.32952880859375
-0.11010742187500
0.02606201171875
0.49353027343750
-0.07574462890625
0.39227294921875
0.32989501953125
0.26873779296875
0.27825927734375
0.20269775390625
0.14257812500000
0.14019775390625
0.22467041015625
0.03167724609375
0.16815185546875
0.25506591796875
0.18774414062500
0.34167480468750
0.15069580078125
0.21417236328125
0.20465087890625
0.22326660156250
0.21356201171875
0.25549316406250
0.18347167968750
0.17962646484375
0.16381835937500
0.16882324218750
0.34631347656250
0.26873779296875
0.25042724609375
0.23315429687500
0.21472167968750
0.19256591796875
0.27276611328125
0.24237060546875
0.23077392578125
0.19537353515625
0.23339843750000
0.22930908203125
0.13635253906250
0.20446777343750
0.16931152343750
0.16906738281250
0.17755126953125
0.23919677734375
0.18542480468750
0.26116943359375
0.22039794921875
0.21649169921875
0.20959472656250
0.24011230468750
0.16491699218750
0.22497558593750
0.21173095703125
0.22009277343750
0.21209716796875
0.20629882812500
0.22283935546875
0.18896484375000
0.27624511718750
0.32775878906250
0.27716064453125
0.12738037109375
0.24212646484375
0.18402099609375
0.20654296875000
0.11950683593750
0.26812744140625
0.13110351562500
0.17968750000000
0.21447753906250
0.24194335937500
0.19335937500000
0.24157714843750
0.17626953125000
0.27203369140625
0.37841796875000
0.20275878906250
0.19439697265625
0.18115234375000
0.16351318359375
0.26483154296875
0.24743652343750
0.19958496093750
0.19732666015625
0.19769287109375
0.29687500000000
0.18292236328125
0.21411132812500
0.22033691406250
0.26129150390625
0.27783203125000
0.22613525390625
0.21618652343750
0.23657226562500
0.19915771484375
0.23883056640625
0.24188232421875
0.14959716796875
0.32092285156250
0.15399169921875
0.25701904296875
0.25903320312500
0.26062011718750
0.21728515625000
0.19464111328125
0.14685058593750
0.19024658203125
0.24291992187500
0.23101806640625
0.25543212890625
0.19714355468750
0.18402099609375
0.20727539062500
0.28924560546875
0.29766845703125
0.19036865234375
0.24224853515625
0.22314453125000
0.18316650390625
0.16583251953125
0.20977783203125
0.20819091796875
0.23516845703125
0.22802734375000
0.21398925781250
0.16229248046875
0.29357910156250
0.21594238281250
0.20886230468750
0.35852050781250
0.24597167968750
0.17340087890625
0.23028564453125
0.23828125000000
0.21844482421875
0.11279296875000
0.31530761718750
0.07049560546875
0.40740966796875
0.49841308593750
0.36199951171875
0.31024169921875
0.14941406250000
-0.07183837890625
0.09930419921875
0.22271728515625
0.07958984375000
0.23583984375000
0.14776611328125
0.01342773437500
-0.06268310546875
0.29382324218750
0.19451904296875
-0.06933593750000
0.47381591796875
0.28753662109375
0.23120117187500
0.19799804687500
-0.06152343750000
0.39666748046875
0.29577636718750
0.12707519531250
0.10028076171875
0.11413574218750
0.17572021484375
-0.06427001953125
0.14007568359375
0.06597900390625
0.12072753906250
0.22741699218750
0.09197998046875
0.40130615234375
0.18243408203125
0.30920410156250
0.17065429687500
0.21533203125000
0.12457275390625
-0.00115966796875
0.07690429687500
0.05480957031250
0.18499755859375
0.24548339843750
-0.02154541015625
-0.07604980468750
0.32287597656250
0.24609375000000
0.25378417968750
-0.08599853515625
0.21881103515625
0.27105712890625
-0.03552246093750
0.12591552734375
0.23120117187500
0.12915039062500
0.30072021484375
0.32757568359375
0.25860595703125
0.20324707031250
0.07629394531250
0.00427246093750
0.43090820312500
0.24713134765625
-0.01263427734375
0.47772216796875
0.29187011718750
0.27313232421875
0.07476806640625
0.03112792968750
0.42059326171875
0.51751708984375
-0.06915283203125
0.14001464843750
0.13684082031250
-0.05712890625000
0.48059082031250
-0.10070800781250
0.26635742187500
0.35003662109375
0.30596923828125
0.33599853515625
0.18542480468750
-0.08587646484375
0.23352050781250
0.30236816406250
-0.07312011718750
0.22930908203125
0.31188964843750
0.05206298828125
-0.08746337890625
0.14404296875000
0.18164062500000
0.08917236328125
0.22918701171875
0.11840820312500
0.21691894531250
0.28552246093750
0.22247314453125
0.18218994140625
0.08447265625000
0.32763671875000
0.28527832031250
0.25543212890625
-0.04870605468750
0.20037841796875
0.10382080078125
-0.01824951171875
0.17248535156250
0.21972656250000
0.59918212890625
0.16564941406250
0.29876708984375
-0.06671142578125
0.18017578125000
0.19061279296875
0.19232177734375
0.31250000000000
-0.05590820312500
-0.07452392578125
0.38879394531250
0.05004882812500
-0.09027099609375
0.15740966796875
-0.06665039062500
-0.07440185546875
-0.09417724609375
-0.07922363281250
-0.10632324218750
-0.10101318359375
-0.08081054687500
-0.12994384765625
-0.07635498046875
-0.17932128906250
0.03771972656250
-0.07843017578125
-0.08642578125000
-0.08117675781250
-0.08300781250000
-0.06958007812500
-0.05780029296875
-0.08862304687500
-0.06311035156250
-0.06195068359375
-0.08966064453125
-0.07641601562500
-0.01892089843750
-0.06469726562500
-0.06506347656250
-0.05749511718750
-0.08068847656250
0.36096191406250
-0.07104492187500
-0.09759521484375
-0.11566162109375
-0.06677246093750
-0.07092285156250
-0.06274414062500
-0.08154296875000
-0.06481933593750
0.23437500000000
-0.07812500000000
-0.11822509765625
0.11157226562500
-0.01928710937500
-0.10949707031250
-0.06707763671875
-0.06665039062500
-0.09545898437500
-0.06304931640625
-0.08325195312500
-0.08221435546875
-0.05572509765625
-0.06433105468750
-0.07586669921875
-0.08398437500000
-0.12756347656250
-0.05334472656250
-0.06311035156250
-0.03320312500000
-0.11236572265625
-0.06866455078125
-0.06335449218750
-0.11389160156250
-0.08270263671875
-0.07647705078125
-0.08044433593750
-0.11437988281250
-0.09643554687500
-0.07458496093750
-0.10791015625000
-0.06671142578125
-0.09729003906250
-0.15472412109375
-0.09088134765625
-0.08160400390625
-0.07330322265625
-0.07653808593750
0.43231201171875
-0.09381103515625
-0.05316162109375
-0.06573486328125
-0.06298828125000
-0.06933593750000
-0.05957031250000
-0.06335449218750
-0.09399414062500
-0.06451416015625
-0.00665283203125
-0.13934326171875
-0.06188964843750
-0.07995605468750
-0.06060791015625
-0.09057617187500
-0.12976074218750
0.08544921875000
0.34155273437500
-0.07690429687500
-0.05651855468750
-0.08880615234375
-0.10314941406250
-0.07403564453125
-0.08166503906250
0.13244628906250
-0.07043457031250
-0.08422851562500
-0.07995605468750
-0.08148193359375
-0.10833740234375
-0.09558105468750
-0.04931640625000
-0.10913085937500
-0.07519531250000
0.00854492187500
-0.10327148437500
-0.06567382812500
-0.07275390625000
-0.06359863281250
-0.07336425781250
-0.04949951171875
-0.06457519531250
-0.06988525390625
-0.09417724609375
-0.02545166015625
-0.07287597656250
-0.09503173828125
-0.07452392578125
-0.13397216796875
-0.10241699218750
-0.08789062500000
-0.06024169921875
0.19561767578125
-0.05877685546875
0.02941894531250
-0.07836914062500
0.10858154296875
-0.04980468750000
-0.06677246093750
-0.10949707031250
-0.07434082031250
0.10510253906250
-0.10565185546875
-0.06860351562500
-0.05871582031250
-0.02209472656250
-0.06982421875000
0.17620849609375
-0.08502197265625
-0.09356689453125
-0.04010009765625
-0.13824462890625
0.42614746093750
-0.10906982421875
-0.11553955078125
-0.07769775390625
-0.08361816406250
-0.09191894531250
-0.10888671875000
-0.10607910156250
-0.05987548828125
-0.09570312500000
-0.09735107421875
-0.11749267578125
0.05572509765625
-0.07464599609375
-0.01043701171875
-0.06762695312500
-0.10247802734375
-0.05419921875000
-0.13305664062500
-0.11798095703125
-0.07708740234375
-0.07324218750000
-0.09466552734375
-0.00103759765625
-0.08178710937500
0.09356689453125
-0.07080078125000
-0.06896972656250
-0.10717773437500
0.31164550781250
0.19726562500000
-0.06219482421875
-0.09710693359375
-0.07061767578125
-0.12219238281250
-0.07244873046875
-0.07202148437500
-0.09228515625000
-0.04614257812500
-0.07086181640625
-0.11846923828125
-0.08258056640625
-0.09094238281250
-0.07922363281250
0.30804443359375
-0.09509277343750
-0.09582519531250
-0.06353759765625
-0.11199951171875
-0.08624267578125
-0.07086181640625
-0.07525634765625
-0.06610107421875
-0.06597900390625
0.11956787109375
-0.10211181640625
-0.10321044921875
-0.07592773437500
-0.07696533203125
-0.09436035156250
-0.12377929687500
-0.08557128906250
0.36590576171875
-0.09527587890625
-0.06292724609375
-0.05950927734375
-0.12628173828125
-0.10693359375000
0.13940429687500
-0.10119628906250
-0.08905029296875
-0.15032958984375
-0.06518554687500
-0.06933593750000
-0.06402587890625
-0.10034179687500
-0.07275390625000
-0.06048583984375
0.32208251953125
-0.07690429687500
-0.06091308593750
-0.08441162109375
-0.06683349609375
-0.11962890625000
-0.06689453125000
-0.10693359375000
-0.07965087890625
-0.05920410156250
-0.15338134765625
0.07012939453125
-0.07318115234375
-0.07519531250000
-0.08404541015625
0.18316650390625
-0.07611083984375
-0.07165527343750
-0.07318115234375
-0.08593750000000
-0.09655761718750
-0.05139160156250
-0.06018066406250
-0.09625244140625
-0.06506347656250
0.00201416015625
-0.07525634765625
-0.10601806640625
-0.09191894531250
-0.06414794921875
-0.09851074218750
-0.07757568359375
0.36621093750000
0.12561035156250
0.24182128906250
0.36114501953125
0.22808837890625
0.18450927734375
0.43200683593750
0.24401855468750
0.19464111328125
0.08728027343750
0.24194335937500
0.17187500000000
0.00622558593750
0.23229980468750
0.21417236328125
-0.05810546875000
0.15826416015625
0.22277832031250
0.24853515625000
0.17193603515625
0.09020996093750
0.02441406250000
0.24255371093750
0.10394287109375
-0.07537841796875
0.51098632812500
-0.02404785156250
0.11590576171875
0.19586181640625
0.06500244140625
0.21398925781250
0.20294189453125
0.35729980468750
0.22045898437500
0.13519287109375
0.02331542968750
0.53979492187500
0.40814208984375
-0.05718994140625
0.10211181640625
0.15863037109375
0.34259033203125
0.12170410156250
0.20941162109375
0.36395263671875
0.15551757812500
0.18737792968750
0.27581787109375
0.00842285156250
0.03497314453125
0.18536376953125
0.25372314453125
0.30352783203125
-0.05316162109375
0.24621582031250
0.15295410156250
0.24444580078125
0.18768310546875
0.30578613281250
0.36920166015625
0.26519775390625
0.11022949218750
0.22259521484375
0.13861083984375
0.09313964843750
-0.02514648437500
0.29803466796875
-0.05847167968750
-0.09020996093750
-0.03436279296875
0.06677246093750
0.19604492187500
0.12286376953125
-0.09899902343750
0.27874755859375
0.53710937500000
-0.04699707031250
0.14569091796875
0.37207031250000
0.26654052734375
0.03900146484375
0.29510498046875
0.16656494140625
0.09527587890625
0.31811523437500
0.34930419921875
0.15087890625000
0.11553955078125
-0.01452636718750
0.36547851562500
0.11944580078125
0.11700439453125
0.25738525390625
0.43023681640625
0.30804443359375
0.23974609375000
0.27783203125000
0.25219726562500
0.02722167968750
0.03344726562500
0.14129638671875
0.29467773437500
0.06091308593750
0.27886962890625
0.37255859375000
0.16918945312500
-0.10467529296875
0.14556884765625
0.05133056640625
0.00238037109375
0.31713867187500
0.06304931640625
0.24102783203125
0.15063476562500
0.39984130859375
-0.05029296875000
0.35791015625000
0.25091552734375
0.09313964843750
0.29052734375000
-0.07000732421875
0.06909179687500
0.30853271484375
-0.08496093750000
0.01306152343750
0.23272705078125
0.35717773437500
0.20642089843750
-0.02557373046875
0.23602294921875
0.05224609375000
0.01586914062500
0.40667724609375
0.33007812500000
0.40423583984375
-0.00549316406250
0.23297119140625
0.17114257812500
0.15472412109375
0.11779785156250
0.03509521484375
-0.00677490234375
0.42291259765625
0.02947998046875
0.05145263671875
0.46484375000000
-0.08123779296875
0.28680419921875
0.06347656250000
0.13159179687500
0.17657470703125
-0.08978271484375
0.36236572265625
0.14611816406250
0.20800781250000
0.20477294921875
0.24462890625000
0.03039550781250
0.05230712890625
0.23852539062500
0.18365478515625
0.31909179687500
0.25903320312500
0.14306640625000
0.26690673828125
0.29101562500000
0.09417724609375
0.25091552734375
-0.01263427734375
0.13934326171875
0.30596923828125
0.09155273437500
0.18835449218750
0.25854492187500
0.26367187500000
0.03924560546875
-0.05621337890625
0.28125000000000
0.09063720703125
0.53344726562500
0.35284423828125
0.05682373046875
0.21594238281250
-0.03204345703125
0.15252685546875
0.07989501953125
0.21331787109375
0.28930664062500
0.18505859375000
0.19213867187500
-0.05773925781250
0.27459716796875
0.18841552734375
0.36181640625000
0.19476318359375
0.15905761718750
0.34051513671875
0.32910156250000
0.15899658203125
0.32800292968750
0.00219726562500
0.34954833984375
-0.06805419921875
0.43554687500000
0.24798583984375
0.10882568359375
-0.07434082031250
0.06628417968750
-0.08831787109375
0.33984375000000
0.25573730468750
0.37805175781250
0.23504638671875
0.11181640625000
-0.02917480468750
0.12750244140625
0.36187744140625
0.18853759765625
0.14666748046875
0.24859619140625
0.20306396484375
0.08685302734375
0.17797851562500
0.36242675781250
-0.07440185546875
0.22894287109375
0.34411621093750
0.07849121093750
0.30480957031250
0.15228271484375
0.26617431640625
0.11187744140625
0.19274902343750
0.29766845703125
0.35540771484375
0.08282470703125
0.24981689453125
0.29754638671875
0.06689453125000
-0.07891845703125
0.27264404296875
0.27441406250000
0.18035888671875
0.25982666015625
0.37524414062500
0.07788085937500
0.19940185546875
-0.04339599609375
0.14538574218750
-0.06134033203125
0.24554443359375
0.16571044921875
0.17498779296875
0.00811767578125
0.10205078125000
0.23651123046875
-0.06311035156250
-0.05340576171875
-0.07257080078125
-0.06445312500000
0.00695800781250
-0.00183105468750
-0.07299804687500
-0.03839111328125
0.16705322265625
0.05187988281250
0.02691650390625
0.09185791015625
-0.04431152343750
0.00445556640625
-0.11102294921875
0.16180419921875
-0.06182861328125
0.05096435546875
-0.06903076171875
-0.12316894531250
-0.10638427734375
0.14312744140625
0.07513427734375
-0.11639404296875
0.14648437500000
-0.10070800781250
0.10003662109375
0.13653564453125
-0.06097412109375
-0.09887695312500
-0.03778076171875
0.03820800781250
-0.08917236328125
0.05035400390625
0.02294921875000
0.12084960937500
-0.11138916015625
-0.05902099609375
0.11364746093750
0.14617919921875
-0.08276367187500
-0.05157470703125
0.15539550781250
-0.04235839843750
-0.09271240234375
-0.02374267578125
0.09167480468750
-0.07244873046875
-0.03894042968750
0.06597900390625
-0.03527832031250
-0.11541748046875
-0.08801269531250
0.08557128906250
0.04656982421875
-0.08880615234375
0.09802246093750
0.05987548828125
-0.10736083984375
-0.08532714843750
-0.05285644531250
0.06701660156250
-0.05517578125000
0.01928710937500
0.18029785156250
-0.02880859375000
-0.07604980468750
0.23712158203125
-0.07025146484375
0.05993652343750
0.09655761718750
0.07208251953125
-0.07879638671875
0.10809326171875
-0.07519531250000
-0.01666259765625
0.10858154296875
0.11169433593750
-0.15869140625000
-0.08959960937500
-0.07916259765625
0.02709960937500
0.18841552734375
0.16711425781250
-0.07501220703125
-0.08581542968750
-0.01837158203125
-0.06988525390625
0.21734619140625
0.24884033203125
0.02117919921875
-0.04913330078125
-0.03271484375000
0.11730957031250
0.16839599609375
-0.08886718750000
-0.07543945312500
-0.08966064453125
0.18176269531250
-0.02215576171875
0.13452148437500
-0.07299804687500
0.17199707031250
-0.09197998046875
-0.10113525390625
0.17431640625000
0.33422851562500
-0.01049804687500
0.10662841796875
0.25018310546875
-0.09075927734375
-0.05419921875000
0.08489990234375
-0.11297607421875
-0.06097412109375
0.18035888671875
0.02563476562500
-0.06640625000000
0.03820800781250
-0.06042480468750
0.14141845703125
0.07281494140625
-0.17138671875000
0.02087402343750
0.09094238281250
-0.06945800781250
-0.06420898437500
0.08703613281250
-0.07000732421875
-0.08728027343750
0.04785156250000
-0.06542968750000
-0.06848144531250
-0.10882568359375
-0.09082031250000
0.08264160156250
0.36785888671875
-0.04577636718750
0.05841064453125
0.12408447265625
-0.08624267578125
0.12152099609375
-0.09967041015625
0.07757568359375
-0.05920410156250
-0.07269287109375
0.10809326171875
-0.07336425781250
-0.06408691406250
-0.08673095703125
0.06872558593750
-0.09576416015625
-0.10998535156250
-0.00701904296875
-0.08630371093750
0.27575683593750
-0.07324218750000
-0.07666015625000
0.14086914062500
-0.07910156250000
-0.01855468750000
-0.01239013671875
-0.09246826171875
0.02203369140625
-0.11547851562500
-0.09356689453125
0.17858886718750
0.12176513671875
-0.08001708984375
0.03991699218750
0.12933349609375
0.00567626953125
-0.10705566406250
-0.07397460937500
-0.05078125000000
0.14630126953125
0.08856201171875
-0.06304931640625
-0.10083007812500
-0.06420898437500
0.07916259765625
0.17852783203125
0.01739501953125
-0.08203125000000
0.22662353515625
0.09887695312500
-0.10345458984375
-0.04351806640625
-0.06744384765625
0.03045654296875
-0.07281494140625
-0.09289550781250
0.17620849609375
-0.08337402343750
-0.11340332031250
0.17706298828125
-0.07031250000000
-0.08142089843750
-0.08825683593750
0.07092285156250
0.00299072265625
-0.08471679687500
-0.07482910156250
0.11767578125000
0.08453369140625
0.08251953125000
-0.11560058593750
-0.06567382812500
0.08587646484375
-0.00433349609375
0.08148193359375
-0.03356933593750
-0.06970214843750
-0.08648681640625
0.17242431640625
-0.09234619140625
0.08374023437500
0.29260253906250
-0.08813476562500
-0.06976318359375
-0.11224365234375
0.24279785156250
0.18371582031250
-0.06829833984375
0.04138183593750
-0.08422851562500
-0.04406738281250
0.00305175781250
0.00915527343750
-0.12512207031250
0.05755615234375
0.01916503906250
-0.06793212890625
-0.00256347656250
0.25701904296875
0.13244628906250
0.04113769531250
0.19213867187500
0.16113281250000
0.09735107421875
0.02380371093750
-0.07324218750000
-0.11254882812500
0.07226562500000
0.18273925781250
-0.08343505859375
-0.03173828125000
-0.05944824218750
-0.10272216796875
0.18951416015625
-0.07110595703125
-0.09161376953125
0.00262451171875
0.02191162109375
-0.05834960937500
-0.01098632812500
0.05474853515625
0.18634033203125
0.15399169921875
0.09350585937500
0.05529785156250
0.11480712890625
0.29089355468750
0.13586425781250
0.35620117187500
0.06903076171875
0.23162841796875
0.22180175781250
0.08941650390625
0.18835449218750
0.24530029296875
0.22406005859375
0.15686035156250
0.35815429687500
0.19061279296875
0.35906982421875
0.14978027343750
0.08184814453125
0.17297363281250
0.27960205078125
0.13751220703125
0.07086181640625
-0.07214355468750
0.34741210937500
0.24810791015625
0.18603515625000
0.21539306640625
0.28253173828125
0.42388916015625
0.22796630859375
0.31982421875000
-0.04101562500000
0.33654785156250
0.26916503906250
0.01049804687500
-0.03051757812500
0.15106201171875
0.27862548828125
0.12194824218750
0.19885253906250
0.25305175781250
0.09478759765625
0.20855712890625
0.17974853515625
0.35205078125000
0.04254150390625
-0.03637695312500
-0.05865478515625
0.39813232421875
0.33251953125000
0.14758300781250
0.22692871093750
0.28027343750000
0.00201416015625
0.11413574218750
0.44891357421875
0.33660888671875
0.09936523437500
0.22137451171875
0.12695312500000
0.16571044921875
0.10040283203125
0.37463378906250
0.13208007812500
0.01916503906250
0.31152343750000
0.26385498046875
0.19488525390625
0.22619628906250
-0.11224365234375
0.56774902343750
0.47790527343750
0.11706542968750
0.34667968750000
0.20971679687500
0.32653808593750
0.19421386718750
0.13623046875000
0.28625488281250
0.15032958984375
0.48858642578125
0.37518310546875
0.17309570312500
0.35803222656250
0.35003662109375
0.34356689453125
-0.01556396484375
-0.09008789062500
0.13830566406250
0.17071533203125
0.07220458984375
0.20660400390625
0.15661621093750
-0.06072998046875
0.15734863281250
0.19982910156250
0.22045898437500
0.12701416015625
0.13262939453125
0.15179443359375
0.10101318359375
0.16357421875000
0.24951171875000
0.23645019531250
0.07354736328125
0.28710937500000
0.19732666015625
0.31701660156250
0.38183593750000
0.16558837890625
-0.07012939453125
0.33673095703125
0.36651611328125
0.21588134765625
0.03363037109375
-0.08123779296875
-0.06573486328125
0.17260742187500
-0.03021240234375
0.11047363281250
0.02447509765625
0.25317382812500
-0.07958984375000
0.25756835937500
0.23059082031250
0.12762451171875
0.16271972656250
0.26367187500000
0.05120849609375
0.14459228515625
0.27850341796875
0.20947265625000
0.29699707031250
0.13403320312500
0.22314453125000
0.20129394531250
0.19201660156250
0.23577880859375
0.25329589843750
0.15545654296875
0.20269775390625
0.12329101562500
0.21691894531250
0.33154296875000
0.27734375000000
0.21087646484375
0.22674560546875
0.25128173828125
0.16583251953125
0.24908447265625
0.22741699218750
0.22094726562500
0.18249511718750
0.22857666015625
0.23852539062500
0.12774658203125
0.25494384765625
0.18652343750000
0.18438720703125
0.14086914062500
0.20349121093750
0.20886230468750
0.24407958984375
0.20153808593750
0.24365234375000
0.23138427734375
0.23016357421875
0.19085693359375
0.25250244140625
0.19921875000000
0.20721435546875
0.23205566406250
0.19702148437500
0.19134521484375
0.18493652343750
0.27020263671875
0.36395263671875
0.22247314453125
0.10943603515625
0.25616455078125
0.19659423828125
0.20147705078125
0.13922119140625
0.29602050781250
0.14776611328125
0.16076660156250
0.24877929687500
0.23272705078125
0.20080566406250
0.20507812500000
0.20159912109375
0.23913574218750
0.32617187500000
0.19146728515625
0.19677734375000
0.16040039062500
0.18054199218750
0.21929931640625
0.26934814453125
0.23547363281250
0.18481445312500
0.21618652343750
0.34106445312500
0.21246337890625
0.23468017578125
0.25897216796875
0.24652099609375
0.25531005859375
0.24725341796875
0.23388671875000
0.25256347656250
0.20275878906250
0.22448730468750
0.27801513671875
0.13775634765625
0.24615478515625
0.15490722656250
0.29803466796875
0.25659179687500
0.23168945312500
0.24450683593750
0.16320800781250
0.12097167968750
0.19641113281250
0.23583984375000
0.23815917968750
0.25823974609375
0.20697021484375
0.20208740234375
0.20336914062500
0.22155761718750
0.27856445312500
0.17755126953125
0.21484375000000
0.22247314453125
0.18078613281250
0.17828369140625
0.19641113281250
0.25701904296875
0.23162841796875
0.24267578125000
0.20269775390625
0.15191650390625
0.32250976562500
0.15496826171875
0.22753906250000
0.42871093750000
0.22875976562500
0.15344238281250
0.23669433593750
0.25244140625000
0.37048339843750
0.09112548828125
0.17498779296875
0.13586425781250
-0.03546142578125
0.23583984375000
0.31628417968750
0.18548583984375
0.15393066406250
0.64300537109375
0.23339843750000
0.11193847656250
0.12866210937500
0.13342285156250
0.13244628906250
0.31707763671875
0.41729736328125
0.09899902343750
0.35778808593750
0.03533935546875
-0.07678222656250
0.28332519531250
0.30236816406250
0.23645019531250
0.22021484375000
0.20733642578125
0.29785156250000
0.37420654296875
0.12829589843750
0.03015136718750
0.31518554687500
0.11749267578125
0.28100585937500
0.08447265625000
0.13153076171875
0.13610839843750
0.26782226562500
0.12512207031250
0.18005371093750
0.17608642578125
0.29101562500000
0.14166259765625
0.09307861328125
0.16864013671875
0.11645507812500
0.29803466796875
0.13995361328125
0.18200683593750
0.07385253906250
0.12176513671875
0.22290039062500
0.23803710937500
0.40551757812500
0.24743652343750
0.15820312500000
0.11846923828125
0.25885009765625
0.14276123046875
0.29492187500000
0.38256835937500
0.03485107421875
0.17022705078125
0.30639648437500
0.02105712890625
0.34484863281250
0.22570800781250
0.13793945312500
0.20489501953125
0.27313232421875
0.11138916015625
0.15417480468750
0.31146240234375
0.24005126953125
0.08831787109375
0.32165527343750
-0.10998535156250
0.42657470703125
0.15423583984375
0.30908203125000
0.35882568359375
0.06170654296875
0.02581787109375
0.21209716796875
0.21112060546875
0.17858886718750
0.10296630859375
0.23248291015625
0.17919921875000
0.12744140625000
0.18829345703125
0.53656005859375
0.20233154296875
0.10992431640625
0.34283447265625
0.37683105468750
0.33380126953125
0.22894287109375
0.03771972656250
0.21038818359375
0.20806884765625
0.15649414062500
0.22833251953125
0.14599609375000
0.20770263671875
0.29467773437500
0.20251464843750
0.18109130859375
0.46911621093750
0.06982421875000
0.18823242187500
0.17974853515625
0.27807617187500
0.17364501953125
0.26129150390625
0.03668212890625
-0.00726318359375
0.13470458984375
0.23675537109375
0.11834716796875
0.22070312500000
0.22412109375000
0.36987304687500
0.17840576171875
0.13110351562500
0.26287841796875
0.25177001953125
0.23504638671875
0.03247070312500
0.34820556640625
0.00097656250000
0.24487304687500
0.17456054687500
0.05645751953125
0.35632324218750
0.29150390625000
-0.05664062500000
0.17889404296875
0.54248046875000
0.12207031250000
0.10125732421875
0.14562988281250
0.15319824218750
0.08874511718750
0.27972412109375
0.46209716796875
0.14111328125000
0.27270507812500
0.12255859375000
0.18908691406250
0.32116699218750
0.11450195312500
0.38208007812500
0.44818115234375
0.18798828125000
0.23205566406250
0.04766845703125
0.23779296875000
0.11718750000000
0.35803222656250
0.24786376953125
0.12255859375000
0.17480468750000
0.02239990234375
0.19708251953125
0.10296630859375
0.09625244140625
0.06634521484375
0.20446777343750
0.29016113281250
0.26721191406250
0.21862792968750
0.11138916015625
0.14263916015625
0.14202880859375
0.12280273437500
0.24133300781250
0.12725830078125
0.14947509765625
0.20330810546875
0.26953125000000
0.09393310546875
0.25555419921875
0.40222167968750
0.10217285156250
0.29193115234375
0.22521972656250
0.24340820312500
0.24523925781250
0.14025878906250
0.25323486328125
0.38470458984375
0.15039062500000
0.08392333984375
0.29974365234375
0.23718261718750
0.20941162109375
0.30908203125000
0.27813720703125
0.12945556640625
0.26867675781250
0.31451416015625
0.18872070312500
0.12219238281250
0.28314208984375
0.17517089843750
0.20996093750000
0.42437744140625
0.30468750000000
0.26049804687500
0.26177978515625
0.14459228515625
0.29766845703125
0.09667968750000
0.14764404296875
0.26672363281250
0.28332519531250
0.25073242187500
0.23101806640625
0.28894042968750
0.10546875000000
-0.05841064453125
0.16778564453125
0.38037109375000
0.22802734375000
-0.05053710937500
0.07434082031250
0.20635986328125
0.02819824218750
0.23266601562500
0.14013671875000
0.16943359375000
0.19531250000000
0.33599853515625
0.11163330078125
0.14282226562500
0.55804443359375
0.08599853515625
0.18524169921875
0.20184326171875
0.31347656250000
0.28112792968750
0.19909667968750
0.29498291015625
-0.05493164062500
0.34295654296875
0.11236572265625
0.13775634765625
0.23919677734375
0.03747558593750
0.45996093750000
0.20520019531250
-0.06396484375000
0.25152587890625
0.27642822265625
0.26422119140625
-0.06994628906250
0.28814697265625
0.19891357421875
0.12194824218750
0.18426513671875
0.28167724609375
0.09533691406250
0.14837646484375
0.24212646484375
0.13049316406250
0.37408447265625
0.14752197265625
0.21801757812500
0.19042968750000
0.21820068359375
0.22741699218750
0.21490478515625
0.18823242187500
0.20062255859375
0.17254638671875
0.17687988281250
0.34814453125000
0.25958251953125
0.26623535156250
0.22241210937500
0.21905517578125
0.22821044921875
0.24493408203125
0.21893310546875
0.18444824218750
0.21252441406250
0.20251464843750
0.23504638671875
0.13677978515625
0.18402099609375
0.17254638671875
0.15740966796875
0.16674804687500
0.22613525390625
0.17755126953125
0.22863769531250
0.19573974609375
0.21618652343750
0.17913818359375
0.24243164062500
0.16296386718750
0.17852783203125
0.22503662109375
0.18804931640625
0.21795654296875
0.21026611328125
0.23657226562500
0.19836425781250
0.37603759765625
0.31909179687500
0.21923828125000
0.14465332031250
0.17773437500000
0.20697021484375
0.18548583984375
0.18707275390625
0.29949951171875
0.12524414062500
0.17095947265625
0.22033691406250
0.21844482421875
0.15539550781250
0.25952148437500
0.16351318359375
0.23419189453125
0.42944335937500
0.21295166015625
0.16894531250000
0.15521240234375
0.16564941406250
0.32409667968750
0.28344726562500
0.25097656250000
0.19665527343750
0.16918945312500
0.35449218750000
0.19464111328125
0.22729492187500
0.22955322265625
0.22229003906250
0.26226806640625
0.20568847656250
0.21380615234375
0.24987792968750
0.15594482421875
0.22717285156250
0.26049804687500
0.14367675781250
0.34326171875000
0.17205810546875
0.25830078125000
0.26574707031250
0.19244384765625
0.19134521484375
0.20233154296875
0.16699218750000
0.17498779296875
0.30761718750000
0.22821044921875
0.23779296875000
0.19384765625000
0.20184326171875
0.20031738281250
0.29382324218750
0.26477050781250
0.16851806640625
0.23974609375000
0.19403076171875
0.20239257812500
0.17004394531250
0.25012207031250
0.28802490234375
0.22442626953125
0.23931884765625
0.18127441406250
0.16473388671875
0.35162353515625
0.18695068359375
0.20092773437500
0.42962646484375
0.24566650390625
0.19549560546875
0.24121093750000
0.27569580078125
