0.16699218750000
-0.00592041015625
0.09381103515625
0.07086181640625
0.10235595703125
-0.13476562500000
0.07177734375000
0.00891113281250
-0.14971923828125
-0.06744384765625
-0.09759521484375
0.00531005859375
0.03900146484375
0.03930664062500
-0.00933837890625
-0.16320800781250
0.07049560546875
0.12011718750000
-0.14349365234375
0.02105712890625
0.09405517578125
0.16448974609375
0.00482177734375
0.15637207031250
0.06652832031250
0.11224365234375
-0.01220703125000
-0.10217285156250
0.03924560546875
0.01184082031250
-0.08978271484375
-0.01043701171875
0.13580322265625
0.10650634765625
-0.12548828125000
-0.16339111328125
-0.15148925781250
-0.11798095703125
-0.13946533203125
-0.06054687500000
-0.08563232421875
0.14483642578125
0.00207519531250
0.10748291015625
0.05609130859375
0.16021728515625
-0.16455078125000
-0.09674072265625
-0.11120605468750
-0.09143066406250
0.07690429687500
0.09014892578125
0.15704345703125
0.02880859375000
0.10626220703125
0.07904052734375
0.01275634765625
0.16821289062500
0.03240966796875
-0.06848144531250
0.08642578125000
-0.09185791015625
-0.13275146484375
-0.04455566406250
0.02832031250000
0.05505371093750
0.01556396484375
-0.07427978515625
0.11224365234375
-0.09039306640625
0.16754150390625
0.03625488281250
-0.13940429687500
-0.02124023437500
0.07891845703125
0.15887451171875
0.14697265625000
-0.11425781250000
-0.00329589843750
-0.17028808593750
0.06768798828125
-0.01562500000000
0.12200927734375
0.13305664062500
0.11083984375000
-0.06378173828125
-0.09558105468750
0.07061767578125
0.00549316406250
-0.10723876953125
-0.13073730468750
0.12237548828125
-0.14886474609375
0.13262939453125
-0.02984619140625
-0.15673828125000
0.05755615234375
-0.06304931640625
0.05389404296875
0.02923583984375
0.05853271484375
-0.07958984375000
0.03723144531250
-0.02343750000000
0.17700195312500
-0.07244873046875
-0.16210937500000
-0.07897949218750
-0.01330566406250
-0.14739990234375
-0.19891357421875
-0.06860351562500
-0.03558349609375
0.16162109375000
-0.18127441406250
0.10778808593750
-0.09326171875000
0.07330322265625
-0.06353759765625
-0.10235595703125
0.08654785156250
-0.14862060546875
-0.02996826171875
-0.08752441406250
0.17834472656250
-0.16357421875000
0.01269531250000
-0.00292968750000
-0.11413574218750
-0.06713867187500
-0.04455566406250
-0.00897216796875
-0.06408691406250
0.09149169921875
0.02050781250000
-0.01916503906250
-0.10449218750000
-0.12432861328125
-0.12780761718750
-0.03607177734375
0.02416992187500
0.13732910156250
-0.08282470703125
-0.02569580078125
-0.12597656250000
-0.06317138671875
-0.08483886718750
-0.17071533203125
0.07128906250000
0.11395263671875
0.06231689453125
-0.14874267578125
-0.00030517578125
0.11053466796875
0.12341308593750
-0.11584472656250
0.12738037109375
-0.05694580078125
0.10742187500000
0.01300048828125
-0.17041015625000
-0.07403564453125
-0.03997802734375
0.03704833984375
0.13659667968750
0.12329101562500
-0.09503173828125
0.11022949218750
0.11541748046875
0.10742187500000
0.04046630859375
0.04821777343750
0.11846923828125
-0.16253662109375
0.05615234375000
-0.00030517578125
-0.03851318359375
0.15661621093750
0.07025146484375
-0.09393310546875
-0.00213623046875
-0.08715820312500
0.08007812500000
0.03393554687500
0.04089355468750
-0.05157470703125
-0.07183837890625
0.14276123046875
-0.09454345703125
0.11352539062500
-0.09857177734375
0.08807373046875
-0.13482666015625
0.06134033203125
-0.10571289062500
0.12500000000000
0.08593750000000
0.04437255859375
-0.16046142578125
0.11602783203125
0.02984619140625
-0.00921630859375
0.01837158203125
0.01495361328125
0.03253173828125
-0.08947753906250
-0.08123779296875
-0.15063476562500
-0.00048828125000
-0.03533935546875
-0.15368652343750
-0.08905029296875
0.04223632812500
0.15661621093750
-0.12683105468750
-0.18768310546875
-0.17382812500000
-0.10742187500000
0.01324462890625
-0.17218017578125
0.05493164062500
-0.03698730468750
0.02038574218750
0.03588867187500
-0.17071533203125
-0.10955810546875
-0.12017822265625
0.00244140625000
-0.11633300781250
0.05090332031250
-0.04370117187500
0.03161621093750
0.07263183593750
0.08947753906250
-0.08190917968750
0.08929443359375
-0.01855468750000
0.04504394531250
-0.04351806640625
-0.14044189453125
0.11389160156250
0.00152587890625
-0.00213623046875
0.16558837890625
-0.17358398437500
-0.02496337890625
0.08496093750000
-0.14770507812500
-0.14044189453125
-0.14337158203125
-0.06640625000000
-0.01013183593750
0.15612792968750
-0.12683105468750
0.12768554687500
0.02203369140625
0.16741943359375
-0.12860107421875
0.01232910156250
-0.04608154296875
-0.15716552734375
0.07946777343750
-0.06475830078125
0.10528564453125
-0.06103515625000
0.14233398437500
-0.09777832031250
-0.08099365234375
0.13916015625000
-0.04589843750000
-0.06896972656250
0.11975097656250
-0.16528320312500
0.01788330078125
0.15960693359375
0.16015625000000
-0.07775878906250
0.06347656250000
-0.07714843750000
0.00018310546875
0.00659179687500
-0.13464355468750
-0.02484130859375
0.02484130859375
0.13549804687500
0.16192626953125
-0.03546142578125
-0.10314941406250
0.03326416015625
-0.07086181640625
-0.11901855468750
0.05487060546875
0.08691406250000
-0.17492675781250
-0.01348876953125
-0.17370605468750
-0.05352783203125
-0.16772460937500
0.09106445312500
-0.06048583984375
0.16876220703125
-0.04797363281250
0.16864013671875
0.04290771484375
-0.06024169921875
-0.00317382812500
-0.03155517578125
-0.00177001953125
0.02886962890625
-0.02612304687500
-0.14776611328125
0.16564941406250
-0.01342773437500
0.05285644531250
-0.03137207031250
0.17620849609375
-0.10589599609375
-0.02368164062500
0.11950683593750
-0.04418945312500
-0.04156494140625
-0.07806396484375
-0.05944824218750
-0.14605712890625
0.06787109375000
0.11804199218750
-0.16503906250000
-0.07891845703125
0.00952148437500
0.07983398437500
0.15490722656250
0.12377929687500
0.05590820312500
-0.05706787109375
0.04345703125000
-0.01525878906250
0.03057861328125
0.00744628906250
-0.05877685546875
-0.05401611328125
-0.00677490234375
-0.10742187500000
-0.08868408203125
-0.08367919921875
0.14324951171875
0.14532470703125
-0.01226806640625
-0.01696777343750
-0.09454345703125
-0.11340332031250
0.09667968750000
-0.01037597656250
-0.09118652343750
-0.02435302734375
-0.12133789062500
-0.05853271484375
0.09906005859375
0.12591552734375
-0.06628417968750
0.06365966796875
-0.04388427734375
0.11871337890625
0.09649658203125
0.02423095703125
0.13818359375000
-0.05389404296875
0.02203369140625
-0.01831054687500
0.17480468750000
0.11993408203125
0.01715087890625
0.17529296875000
-0.06579589843750
0.01867675781250
0.06555175781250
-0.15881347656250
-0.16516113281250
0.06195068359375
0.07940673828125
0.00573730468750
-0.04321289062500
0.14483642578125
0.13543701171875
-0.00994873046875
0.05401611328125
0.09753417968750
-0.10595703125000
0.10528564453125
0.14361572265625
-0.06488037109375
-0.14929199218750
0.07421875000000
-0.01190185546875
0.12579345703125
0.03002929687500
-0.05523681640625
-0.13098144531250
0.05981445312500
0.07189941406250
-0.08398437500000
0.00085449218750
-0.16241455078125
0.12731933593750
-0.16754150390625
0.14520263671875
-0.09643554687500
0.13494873046875
0.11492919921875
-0.04547119140625
-0.02130126953125
-0.10449218750000
-0.14898681640625
-0.15753173828125
-0.10882568359375
-0.07275390625000
0.14813232421875
-0.01934814453125
-0.13378906250000
-0.11755371093750
0.03515625000000
0.16436767578125
0.02435302734375
0.15014648437500
-0.06933593750000
0.17120361328125
0.14984130859375
-0.05255126953125
0.07849121093750
0.00384521484375
0.04620361328125
0.16827392578125
-0.01544189453125
-0.03198242187500
-0.10888671875000
0.00604248046875
-0.02777099609375
0.00061035156250
0.11950683593750
0.03472900390625
-0.08447265625000
0.02996826171875
-0.16461181640625
-0.14221191406250
-0.05541992187500
-0.12481689453125
0.11712646484375
0.15612792968750
-0.13946533203125
0.00476074218750
-0.07092285156250
-0.09619140625000
0.05773925781250
-0.03979492187500
-0.02557373046875
-0.03405761718750
-0.04956054687500
-0.02691650390625
-0.14886474609375
-0.01434326171875
-0.05377197265625
0.00836181640625
-0.08239746093750
-0.16473388671875
-0.07135009765625
0.07116699218750
0.15472412109375
-0.15191650390625
0.06622314453125
-0.16143798828125
0.13287353515625
0.15417480468750
-0.00744628906250
0.10198974609375
0.12969970703125
-0.09356689453125
-0.13604736328125
0.14862060546875
-0.08825683593750
0.10766601562500
-0.00146484375000
-0.02770996093750
-0.03924560546875
-0.17315673828125
0.05792236328125
0.09252929687500
-0.09155273437500
0.07781982421875
0.07427978515625
0.03784179687500
-0.07196044921875
-0.16632080078125
-0.14306640625000
-0.07873535156250
0.05578613281250
0.13043212890625
-0.13983154296875
0.13372802734375
-0.11602783203125
0.07861328125000
-0.09436035156250
-0.04058837890625
-0.12664794921875
-0.04541015625000
-0.02215576171875
0.12725830078125
0.05169677734375
0.04370117187500
0.00128173828125
-0.01300048828125
0.08581542968750
-0.08337402343750
-0.06683349609375
-0.13568115234375
-0.04089355468750
-0.16436767578125
0.05108642578125
0.17016601562500
0.13745117187500
-0.05169677734375
-0.15661621093750
0.15161132812500
-0.05523681640625
-0.16967773437500
-0.05493164062500
0.01629638671875
-0.16162109375000
-0.01470947265625
-0.16705322265625
-0.01397705078125
0.07281494140625
-0.17474365234375
-0.01684570312500
0.08599853515625
-0.06701660156250
-0.01739501953125
0.08715820312500
-0.16027832031250
-0.11157226562500
0.03601074218750
-0.16748046875000
0.03472900390625
-0.14227294921875
-0.08538818359375
-0.13403320312500
0.14569091796875
-0.13940429687500
-0.09375000000000
-0.13385009765625
0.09356689453125
-0.04937744140625
0.11694335937500
0.05297851562500
0.11883544921875
-0.17193603515625
-0.04833984375000
-0.17028808593750
-0.03094482421875
-0.16741943359375
-0.13616943359375
0.02020263671875
0.13946533203125
0.03845214843750
0.08972167968750
-0.13299560546875
-0.06652832031250
0.13671875000000
-0.18902587890625
-0.01885986328125
-0.15435791015625
0.08612060546875
0.01428222656250
-0.03735351562500
0.08215332031250
-0.12536621093750
-0.13763427734375
-0.15472412109375
0.15472412109375
0.13494873046875
-0.00488281250000
-0.05651855468750
-0.14019775390625
-0.13470458984375
0.17346191406250
-0.15844726562500
-0.13311767578125
0.07019042968750
-0.06530761718750
0.14166259765625
0.09289550781250
0.09619140625000
0.04309082031250
-0.05010986328125
0.10321044921875
-0.00714111328125
-0.03442382812500
-0.03216552734375
0.07366943359375
-0.14691162109375
-0.02154541015625
0.09020996093750
0.02124023437500
0.17559814453125
-0.00939941406250
-0.17156982421875
0.08312988281250
0.05676269531250
0.11706542968750
0.09484863281250
-0.02026367187500
0.02819824218750
-0.08972167968750
0.04174804687500
-0.02600097656250
0.09368896484375
-0.01605224609375
0.17285156250000
-0.09344482421875
-0.02380371093750
0.02801513671875
0.13226318359375
0.13818359375000
-0.10687255859375
-0.15649414062500
0.11840820312500
-0.19415283203125
-0.06072998046875
0.14782714843750
0.14862060546875
0.00494384765625
0.02368164062500
-0.19763183593750
0.07830810546875
0.06323242187500
0.02600097656250
-0.16308593750000
-0.10333251953125
-0.00640869140625
0.01727294921875
-0.14306640625000
0.02362060546875
-0.08642578125000
-0.17529296875000
-0.15405273437500
-0.18255615234375
0.13507080078125
-0.16430664062500
-0.11968994140625
-0.13165283203125
0.04449462890625
0.11932373046875
-0.10809326171875
0.17437744140625
-0.04437255859375
-0.15496826171875
-0.08563232421875
-0.02331542968750
0.09112548828125
0.11975097656250
0.09149169921875
-0.05822753906250
0.11151123046875
-0.03521728515625
-0.15826416015625
0.11688232421875
-0.15393066406250
0.06109619140625
-0.03143310546875
-0.15289306640625
0.09985351562500
0.01824951171875
-0.04791259765625
0.03814697265625
0.03057861328125
-0.14337158203125
-0.00317382812500
0.12817382812500
0.12902832031250
0.01885986328125
0.04003906250000
-0.13439941406250
-0.02972412109375
-0.14251708984375
-0.16473388671875
-0.11383056640625
-0.01867675781250
0.16760253906250
0.12005615234375
0.15765380859375
0.10510253906250
-0.05462646484375
-0.07324218750000
-0.02038574218750
-0.12469482421875
0.05627441406250
0.08618164062500
-0.17785644531250
-0.15521240234375
0.10333251953125
-0.11535644531250
0.00201416015625
0.02655029296875
-0.01129150390625
0.02801513671875
0.06774902343750
-0.12322998046875
-0.08056640625000
-0.03643798828125
0.12597656250000
-0.06738281250000
-0.03863525390625
-0.00897216796875
0.01055908203125
-0.06597900390625
-0.05804443359375
0.04943847656250
0.08197021484375
-0.09716796875000
-0.08300781250000
0.17504882812500
-0.18542480468750
-0.06414794921875
0.14483642578125
0.11834716796875
-0.10559082031250
-0.12750244140625
-0.12811279296875
0.05767822265625
0.02191162109375
-0.12445068359375
-0.00891113281250
-0.04931640625000
-0.15472412109375
-0.12170410156250
-0.06878662109375
-0.01037597656250
0.00262451171875
-0.00494384765625
-0.03497314453125
0.13348388671875
-0.03607177734375
-0.00689697265625
-0.05761718750000
-0.00848388671875
-0.12744140625000
-0.08563232421875
0.10614013671875
-0.15228271484375
-0.12628173828125
0.15429687500000
0.15521240234375
0.06860351562500
-0.10070800781250
0.12506103515625
0.16699218750000
-0.16802978515625
-0.03192138671875
0.07452392578125
0.15710449218750
-0.09643554687500
0.04449462890625
0.17254638671875
0.12725830078125
-0.13714599609375
-0.17114257812500
-0.18768310546875
0.07208251953125
-0.02862548828125
-0.15814208984375
0.00390625000000
-0.09851074218750
0.06805419921875
-0.11779785156250
0.10137939453125
-0.11114501953125
0.12188720703125
0.11572265625000
0.06262207031250
0.10174560546875
0.10363769531250
0.00280761718750
-0.11486816406250
-0.14593505859375
-0.02294921875000
-0.00970458984375
-0.13763427734375
-0.11004638671875
0.03820800781250
0.15905761718750
-0.15362548828125
-0.16760253906250
0.18432617187500
0.12188720703125
0.06475830078125
-0.05358886718750
-0.05096435546875
-0.08575439453125
-0.03979492187500
0.08557128906250
-0.12573242187500
-0.09545898437500
0.10186767578125
-0.07550048828125
-0.11431884765625
0.03997802734375
0.13549804687500
0.16827392578125
-0.07391357421875
-0.07733154296875
-0.06567382812500
-0.14361572265625
0.16986083984375
-0.11627197265625
0.17553710937500
0.02923583984375
0.12182617187500
0.10247802734375
-0.17260742187500
0.08898925781250
0.05609130859375
0.01141357421875
-0.17138671875000
0.02099609375000
-0.11859130859375
0.14355468750000
-0.01873779296875
-0.06463623046875
-0.12683105468750
0.00219726562500
-0.14160156250000
-0.11889648437500
0.11126708984375
-0.06616210937500
-0.12481689453125
-0.02160644531250
-0.16754150390625
0.15039062500000
0.17028808593750
-0.12396240234375
-0.16217041015625
0.10162353515625
-0.10327148437500
-0.10809326171875
-0.16589355468750
-0.15380859375000
-0.15582275390625
0.01281738281250
0.11651611328125
-0.06683349609375
0.15625000000000
0.06274414062500
-0.04064941406250
-0.08685302734375
0.07635498046875
-0.12286376953125
0.13916015625000
0.17163085937500
0.10559082031250
0.12268066406250
0.03283691406250
-0.02850341796875
0.17010498046875
0.06463623046875
-0.12255859375000
-0.11553955078125
-0.11700439453125
-0.16918945312500
-0.17230224609375
-0.14678955078125
0.08013916015625
-0.11041259765625
-0.02264404296875
-0.08789062500000
0.04376220703125
0.13549804687500
0.00427246093750
0.08813476562500
-0.00244140625000
0.04327392578125
0.00268554687500
-0.00946044921875
0.03509521484375
-0.07073974609375
-0.07153320312500
0.07995605468750
-0.06945800781250
0.09454345703125
0.16021728515625
0.06835937500000
-0.15875244140625
-0.12664794921875
0.11260986328125
-0.15270996093750
-0.13861083984375
-0.04486083984375
0.03466796875000
0.03875732421875
-0.13977050781250
-0.13983154296875
-0.01446533203125
-0.11303710937500
-0.03790283203125
-0.09436035156250
-0.05157470703125
-0.13726806640625
-0.08135986328125
-0.12573242187500
-0.02661132812500
0.09796142578125
-0.04595947265625
-0.17602539062500
0.09240722656250
0.04309082031250
0.11791992187500
-0.16027832031250
-0.02716064453125
-0.04547119140625
0.12243652343750
0.12115478515625
0.11444091796875
0.01586914062500
-0.10369873046875
0.01873779296875
-0.09161376953125
0.15863037109375
0.00756835937500
0.10412597656250
0.04260253906250
-0.11114501953125
-0.07354736328125
0.02856445312500
0.15643310546875
0.14007568359375
0.01910400390625
0.05847167968750
0.02844238281250
-0.17028808593750
-0.17120361328125
0.16137695312500
0.01910400390625
0.00390625000000
0.10766601562500
0.13305664062500
0.05120849609375
0.15393066406250
-0.16345214843750
-0.08599853515625
-0.04742431640625
0.03442382812500
0.09881591796875
-0.04064941406250
0.05511474609375
0.17358398437500
-0.07305908203125
0.15545654296875
0.01910400390625
-0.00323486328125
0.15399169921875
0.02093505859375
0.17321777343750
-0.16546630859375
0.03137207031250
-0.17626953125000
0.12139892578125
0.01892089843750
0.13983154296875
0.06060791015625
0.11633300781250
-0.14898681640625
-0.07556152343750
-0.09167480468750
-0.00457763671875
-0.12817382812500
0.12384033203125
0.05352783203125
0.12811279296875
-0.01293945312500
0.08355712890625
0.09063720703125
0.13830566406250
-0.06201171875000
-0.12469482421875
-0.00994873046875
0.12438964843750
-0.00854492187500
-0.03259277343750
0.02825927734375
0.03186035156250
0.00549316406250
-0.17608642578125
-0.01727294921875
0.10168457031250
0.13256835937500
0.04583740234375
-0.10632324218750
-0.12768554687500
0.02124023437500
-0.02087402343750
-0.15692138671875
0.05609130859375
0.03680419921875
0.14233398437500
0.13391113281250
-0.10675048828125
-0.13464355468750
0.13940429687500
0.02044677734375
-0.16577148437500
-0.02142333984375
0.09118652343750
0.03271484375000
0.04296875000000
-0.10913085937500
-0.15142822265625
0.12329101562500
0.11505126953125
-0.05786132812500
0.09094238281250
0.03131103515625
0.06317138671875
0.02368164062500
-0.06524658203125
-0.13909912109375
-0.16375732421875
0.12677001953125
-0.08093261718750
0.04785156250000
-0.09576416015625
0.12646484375000
0.07751464843750
0.08825683593750
0.14080810546875
-0.13476562500000
0.16241455078125
-0.03125000000000
-0.05419921875000
0.14086914062500
0.03991699218750
0.09509277343750
-0.05963134765625
-0.08477783203125
-0.10418701171875
-0.02343750000000
0.04486083984375
-0.03356933593750
-0.01159667968750
-0.04052734375000
0.01293945312500
-0.06970214843750
0.10351562500000
0.00927734375000
0.02343750000000
0.05072021484375
-0.14007568359375
-0.14611816406250
0.11053466796875
0.01312255859375
0.11669921875000
-0.08837890625000
-0.10815429687500
0.05871582031250
-0.08782958984375
0.07733154296875
-0.14617919921875
0.05212402343750
-0.11743164062500
0.10668945312500
-0.07824707031250
-0.14642333984375
0.16497802734375
-0.11120605468750
0.10162353515625
-0.08123779296875
0.05090332031250
-0.10742187500000
-0.13562011718750
0.05987548828125
0.10070800781250
-0.14538574218750
0.04870605468750
-0.00415039062500
-0.13903808593750
-0.01672363281250
-0.12823486328125
-0.12933349609375
0.11816406250000
0.14721679687500
-0.07202148437500
-0.01898193359375
-0.02313232421875
0.00463867187500
0.00769042968750
0.17242431640625
0.15625000000000
-0.10070800781250
0.16766357421875
0.13287353515625
-0.16345214843750
0.16351318359375
-0.16363525390625
-0.13067626953125
-0.13610839843750
-0.16668701171875
-0.11120605468750
-0.06207275390625
-0.13488769531250
0.07299804687500
-0.10467529296875
0.14373779296875
0.07135009765625
-0.02178955078125
0.04168701171875
-0.02343750000000
0.13342285156250
0.14337158203125
0.11749267578125
0.15258789062500
-0.13043212890625
-0.12585449218750
-0.05957031250000
0.01409912109375
-0.15655517578125
0.09088134765625
-0.08972167968750
0.03167724609375
-0.04602050781250
-0.01806640625000
0.06915283203125
-0.06207275390625
0.14666748046875
-0.00494384765625
0.02502441406250
0.13635253906250
-0.06451416015625
0.06378173828125
-0.04815673828125
0.14074707031250
-0.04943847656250
-0.12213134765625
-0.15795898437500
-0.13970947265625
-0.05908203125000
0.17065429687500
0.01171875000000
-0.12896728515625
-0.15539550781250
-0.21215820312500
0.13421630859375
0.10058593750000
0.05578613281250
0.15454101562500
0.04736328125000
-0.23352050781250
-0.11853027343750
-0.02435302734375
0.05554199218750
-0.16021728515625
0.14794921875000
0.17462158203125
-0.00250244140625
-0.16015625000000
-0.15246582031250
-0.00341796875000
-0.09527587890625
0.01776123046875
0.05035400390625
-0.17224121093750
0.14685058593750
0.06707763671875
0.07452392578125
0.14135742187500
-0.03198242187500
0.03350830078125
-0.15802001953125
-0.06066894531250
0.00292968750000
0.04846191406250
-0.12463378906250
0.09210205078125
-0.17443847656250
-0.04577636718750
0.15930175781250
0.09246826171875
-0.10595703125000
0.06579589843750
-0.07659912109375
-0.08178710937500
0.11834716796875
-0.05999755859375
-0.12988281250000
0.11712646484375
0.14959716796875
0.16265869140625
0.03613281250000
0.03601074218750
-0.09295654296875
0.08880615234375
0.01708984375000
-0.10418701171875
-0.00097656250000
0.05206298828125
-0.05090332031250
-0.07867431640625
0.09008789062500
0.04302978515625
0.10107421875000
0.00085449218750
-0.00939941406250
-0.11090087890625
0.00463867187500
0.10333251953125
-0.09191894531250
0.13568115234375
-0.07543945312500
-0.16943359375000
-0.00451660156250
-0.00390625000000
-0.14916992187500
-0.07373046875000
0.06311035156250
-0.10137939453125
-0.04132080078125
0.04241943359375
-0.00201416015625
-0.15130615234375
0.11437988281250
-0.18280029296875
-0.00891113281250
0.17565917968750
-0.06842041015625
-0.13647460937500
0.17639160156250
0.15130615234375
0.02032470703125
-0.03833007812500
-0.11822509765625
0.02618408203125
0.01080322265625
0.06604003906250
-0.11096191406250
-0.15393066406250
0.13043212890625
0.04266357421875
-0.11523437500000
0.00360107421875
0.11865234375000
-0.14636230468750
-0.12719726562500
-0.11315917968750
-0.03656005859375
-0.08544921875000
-0.09655761718750
-0.00982666015625
0.05798339843750
0.02319335937500
-0.05621337890625
0.09527587890625
-0.10870361328125
0.05303955078125
-0.11883544921875
-0.12530517578125
0.04681396484375
-0.10107421875000
-0.04907226562500
-0.09710693359375
-0.15454101562500
0.17193603515625
0.14648437500000
-0.12750244140625
-0.15936279296875
0.04534912109375
-0.19909667968750
-0.11236572265625
-0.03308105468750
0.01397705078125
-0.14398193359375
-0.14593505859375
0.13183593750000
0.04248046875000
0.09857177734375
-0.10430908203125
-0.15216064453125
-0.13824462890625
-0.14355468750000
0.01550292968750
0.11865234375000
-0.15936279296875
0.05664062500000
0.13183593750000
-0.06250000000000
-0.13354492187500
0.08526611328125
0.15771484375000
-0.04522705078125
-0.13403320312500
0.18060302734375
0.10211181640625
0.00170898437500
-0.11041259765625
-0.00299072265625
0.09655761718750
0.12524414062500
-0.08123779296875
0.12689208984375
-0.16473388671875
0.13232421875000
-0.14349365234375
0.12994384765625
-0.08728027343750
-0.15173339843750
-0.01562500000000
-0.00140380859375
0.13403320312500
-0.13732910156250
0.17199707031250
-0.08142089843750
0.11322021484375
-0.17077636718750
-0.15667724609375
0.14971923828125
-0.17651367187500
0.04370117187500
0.09796142578125
-0.05688476562500
0.01281738281250
0.01818847656250
0.16656494140625
0.10351562500000
-0.01672363281250
-0.11981201171875
-0.14233398437500
-0.12707519531250
0.10327148437500
0.01513671875000
0.12738037109375
-0.16064453125000
0.14239501953125
0.10144042968750
0.02050781250000
0.03222656250000
0.03875732421875
-0.12677001953125
-0.17010498046875
-0.10089111328125
0.16870117187500
0.03875732421875
-0.15716552734375
-0.07287597656250
-0.16522216796875
0.03625488281250
0.11999511718750
-0.17626953125000
-0.13787841796875
-0.07122802734375
0.15802001953125
-0.17535400390625
0.05383300781250
0.05438232421875
-0.06237792968750
0.06921386718750
0.15289306640625
-0.03942871093750
-0.04931640625000
-0.10559082031250
-0.01165771484375
-0.09741210937500
-0.10119628906250
0.02239990234375
0.12762451171875
0.01733398437500
-0.08447265625000
0.04821777343750
-0.02996826171875
-0.15814208984375
-0.06115722656250
-0.10510253906250
0.13470458984375
0.09588623046875
-0.14849853515625
0.02172851562500
-0.04803466796875
-0.00402832031250
-0.04467773437500
0.01049804687500
-0.08685302734375
0.02941894531250
-0.12792968750000
0.12585449218750
0.00952148437500
0.12103271484375
-0.16088867187500
0.00360107421875
-0.08050537109375
-0.03369140625000
0.17254638671875
0.04992675781250
0.13610839843750
-0.12353515625000
0.10913085937500
0.12274169921875
-0.08221435546875
0.16448974609375
0.14404296875000
-0.03747558593750
-0.07373046875000
0.07867431640625
-0.04785156250000
-0.08331298828125
0.06481933593750
0.15521240234375
-0.04632568359375
0.12677001953125
-0.12707519531250
-0.11096191406250
-0.07086181640625
-0.02160644531250
-0.16320800781250
-0.07745361328125
0.14739990234375
-0.10559082031250
0.00671386718750
0.12841796875000
0.05706787109375
0.00097656250000
-0.06597900390625
-0.09429931640625
-0.04638671875000
0.11413574218750
0.12274169921875
-0.05914306640625
-0.11822509765625
0.07360839843750
-0.07470703125000
0.07110595703125
0.06500244140625
-0.00469970703125
0.01733398437500
-0.10351562500000
0.03161621093750
-0.13769531250000
0.01666259765625
-0.16864013671875
0.02587890625000
-0.01647949218750
0.00860595703125
-0.03442382812500
0.06707763671875
0.06085205078125
0.00671386718750
-0.08746337890625
-0.07031250000000
0.16082763671875
0.02838134765625
0.01019287109375
-0.08459472656250
0.13287353515625
-0.01171875000000
0.16943359375000
0.04907226562500
0.13702392578125
0.16802978515625
-0.03198242187500
-0.10858154296875
-0.06683349609375
0.07556152343750
-0.06451416015625
0.12768554687500
-0.03631591796875
0.14318847656250
0.13317871093750
0.09283447265625
0.10327148437500
0.05700683593750
-0.03228759765625
0.02795410156250
-0.13647460937500
0.03057861328125
-0.07153320312500
-0.13800048828125
0.14514160156250
-0.09649658203125
0.10565185546875
0.01794433593750
-0.11437988281250
0.16101074218750
0.12414550781250
0.03289794921875
-0.15808105468750
0.04351806640625
0.04345703125000
0.08575439453125
-0.14978027343750
0.04992675781250
-0.14434814453125
-0.17407226562500
-0.01153564453125
-0.10931396484375
-0.07232666015625
-0.10882568359375
-0.13067626953125
0.08428955078125
-0.10675048828125
-0.04467773437500
-0.01422119140625
-0.02239990234375
-0.06292724609375
-0.04895019531250
-0.03686523437500
-0.04663085937500
0.15411376953125
-0.13781738281250
0.10754394531250
0.05859375000000
0.01818847656250
-0.07940673828125
0.06555175781250
0.13153076171875
-0.17919921875000
0.12194824218750
0.08312988281250
0.08795166015625
0.06048583984375
0.12493896484375
-0.11846923828125
-0.09588623046875
-0.14337158203125
-0.12384033203125
0.14422607421875
0.15966796875000
-0.03247070312500
0.07580566406250
-0.13421630859375
0.11016845703125
-0.00061035156250
-0.09869384765625
-0.15112304687500
0.12414550781250
-0.09747314453125
-0.07867431640625
-0.03625488281250
-0.15155029296875
0.15643310546875
-0.08728027343750
0.17163085937500
0.06353759765625
0.12872314453125
0.11407470703125
0.06610107421875
0.02630615234375
-0.16461181640625
0.14416503906250
-0.11614990234375
0.13458251953125
0.02130126953125
-0.01782226562500
0.00671386718750
0.14953613281250
0.14978027343750
0.12805175781250
-0.01214599609375
-0.06762695312500
-0.01269531250000
-0.00726318359375
0.11462402343750
-0.01336669921875
0.14807128906250
-0.02337646484375
0.09411621093750
-0.04656982421875
0.06121826171875
0.05688476562500
0.16473388671875
0.14996337890625
-0.13861083984375
0.06298828125000
-0.12817382812500
-0.09930419921875
-0.02258300781250
-0.14898681640625
0.16027832031250
-0.01452636718750
0.12689208984375
0.04217529296875
0.06408691406250
0.03497314453125
0.10467529296875
0.09088134765625
-0.17492675781250
-0.05133056640625
-0.01361083984375
0.13739013671875
-0.07159423828125
0.00933837890625
0.01062011718750
-0.08453369140625
0.02215576171875
-0.10784912109375
-0.04418945312500
0.11712646484375
-0.06213378906250
0.06927490234375
0.00531005859375
-0.04614257812500
0.16265869140625
0.13275146484375
0.02282714843750
-0.06402587890625
0.12127685546875
0.06433105468750
-0.03009033203125
-0.04278564453125
-0.06573486328125
-0.17071533203125
0.03228759765625
-0.02844238281250
0.04553222656250
-0.00488281250000
-0.13037109375000
0.00958251953125
-0.02062988281250
0.14910888671875
0.04357910156250
-0.03057861328125
-0.15802001953125
-0.12353515625000
-0.07257080078125
-0.11645507812500
-0.15808105468750
0.12414550781250
0.04449462890625
0.16687011718750
0.09887695312500
0.09967041015625
0.05438232421875
-0.08673095703125
-0.00408935546875
-0.18609619140625
-0.03088378906250
0.16857910156250
0.06439208984375
-0.17443847656250
-0.05584716796875
-0.17132568359375
-0.01446533203125
-0.04547119140625
-0.05303955078125
-0.10113525390625
-0.19372558593750
-0.06750488281250
0.13232421875000
0.09210205078125
0.07122802734375
-0.15411376953125
-0.00671386718750
0.00750732421875
-0.12390136718750
-0.00030517578125
-0.00280761718750
-0.11047363281250
0.06311035156250
0.08581542968750
-0.14343261718750
-0.03002929687500
-0.05670166015625
0.07110595703125
-0.05712890625000
-0.08685302734375
-0.05938720703125
0.16735839843750
0.14379882812500
0.18066406250000
0.11065673828125
0.13494873046875
-0.02416992187500
0.00732421875000
0.04339599609375
0.06146240234375
0.08068847656250
-0.13476562500000
0.15606689453125
-0.03137207031250
-0.05950927734375
-0.14282226562500
-0.14691162109375
0.05334472656250
0.06304931640625
-0.08911132812500
0.12921142578125
0.06781005859375
0.13427734375000
0.07434082031250
-0.17138671875000
-0.11157226562500
-0.07287597656250
-0.04089355468750
0.03509521484375
0.11444091796875
0.13146972656250
-0.11340332031250
0.00793457031250
-0.11895751953125
-0.16076660156250
0.15551757812500
-0.15515136718750
0.12994384765625
-0.03973388671875
0.02581787109375
0.15991210937500
0.06854248046875
-0.14587402343750
0.16619873046875
-0.06982421875000
0.03289794921875
-0.09399414062500
0.03674316406250
0.07415771484375
-0.02734375000000
0.10931396484375
0.05993652343750
-0.10345458984375
-0.09735107421875
-0.09051513671875
0.03149414062500
-0.06799316406250
0.08880615234375
-0.03533935546875
0.09863281250000
-0.00073242187500
0.10961914062500
-0.04833984375000
0.03613281250000
-0.12860107421875
-0.10131835937500
0.09246826171875
-0.16387939453125
-0.05560302734375
-0.05957031250000
0.06561279296875
0.13934326171875
-0.08972167968750
-0.20379638671875
0.12640380859375
0.02624511718750
-0.16577148437500
-0.04766845703125
0.03973388671875
0.03857421875000
-0.01782226562500
-0.02429199218750
0.14721679687500
-0.12310791015625
0.04211425781250
0.02374267578125
-0.01812744140625
-0.04656982421875
-0.04833984375000
0.06097412109375
-0.01226806640625
0.02984619140625
0.15686035156250
0.10308837890625
-0.00573730468750
0.13061523437500
-0.16320800781250
-0.07391357421875
-0.03674316406250
0.04370117187500
0.14361572265625
-0.10632324218750
-0.12811279296875
0.13854980468750
0.16845703125000
0.05505371093750
0.11791992187500
-0.08483886718750
0.04858398437500
0.03900146484375
0.16650390625000
-0.15179443359375
-0.15185546875000
0.03771972656250
-0.08325195312500
0.01324462890625
-0.16925048828125
0.02886962890625
0.11834716796875
-0.05688476562500
-0.07025146484375
0.12512207031250
-0.17578125000000
-0.00762939453125
0.13757324218750
-0.04418945312500
-0.13549804687500
-0.06384277343750
-0.03320312500000
-0.09936523437500
-0.07800292968750
0.14263916015625
0.13977050781250
-0.05023193359375
0.13531494140625
-0.16876220703125
0.01391601562500
-0.09411621093750
0.16552734375000
0.04309082031250
0.16723632812500
-0.07159423828125
0.15747070312500
0.17211914062500
-0.01391601562500
-0.01013183593750
-0.05651855468750
0.15527343750000
0.12750244140625
0.07409667968750
0.05755615234375
0.02471923828125
-0.04699707031250
0.09649658203125
0.13543701171875
-0.08435058593750
0.08477783203125
-0.19323730468750
0.07733154296875
-0.05761718750000
0.01373291015625
0.01898193359375
-0.08178710937500
0.00616455078125
0.09661865234375
0.10797119140625
0.07232666015625
-0.14569091796875
0.05401611328125
-0.01477050781250
0.17126464843750
-0.02087402343750
-0.05993652343750
-0.07379150390625
-0.05920410156250
-0.01770019531250
0.09552001953125
-0.13104248046875
-0.09960937500000
-0.11932373046875
-0.13067626953125
0.05822753906250
-0.16320800781250
0.01794433593750
-0.10388183593750
-0.07208251953125
-0.14208984375000
-0.00915527343750
0.12707519531250
0.00469970703125
-0.01989746093750
-0.01025390625000
0.14776611328125
0.16906738281250
-0.06878662109375
-0.00817871093750
-0.09936523437500
0.07965087890625
0.14239501953125
-0.09619140625000
0.16131591796875
0.11871337890625
0.13385009765625
0.13494873046875
0.01947021484375
0.02593994140625
-0.04571533203125
-0.00866699218750
0.09399414062500
-0.11413574218750
0.04968261718750
0.06719970703125
-0.15252685546875
-0.02380371093750
0.15911865234375
0.03326416015625
0.07427978515625
0.15869140625000
0.16271972656250
0.07171630859375
-0.04449462890625
0.04492187500000
-0.12731933593750
0.06298828125000
0.01922607421875
0.09020996093750
0.06103515625000
-0.06463623046875
-0.13012695312500
0.14727783203125
-0.15148925781250
0.14813232421875
0.06896972656250
0.07141113281250
-0.07910156250000
0.13000488281250
-0.07305908203125
0.14184570312500
-0.09497070312500
-0.12023925781250
0.10217285156250
-0.13580322265625
-0.03912353515625
-0.04669189453125
-0.04632568359375
0.06060791015625
0.09625244140625
0.17077636718750
0.01153564453125
0.04760742187500
0.10437011718750
0.06555175781250
0.01165771484375
-0.08770751953125
0.16583251953125
0.00671386718750
-0.01818847656250
0.15179443359375
0.02008056640625
0.10760498046875
0.05792236328125
0.15112304687500
-0.05218505859375
-0.10852050781250
-0.14031982421875
-0.12023925781250
-0.16491699218750
0.15753173828125
0.02203369140625
0.13879394531250
-0.15155029296875
0.08178710937500
-0.06152343750000
0.16436767578125
-0.13867187500000
-0.10034179687500
0.12322998046875
0.05084228515625
0.07995605468750
0.11914062500000
-0.04473876953125
-0.11767578125000
0.03070068359375
-0.08709716796875
0.10125732421875
0.15936279296875
0.03088378906250
0.12695312500000
-0.08758544921875
-0.15490722656250
-0.15081787109375
-0.10437011718750
0.07611083984375
0.02105712890625
-0.12194824218750
-0.06402587890625
-0.16412353515625
0.10784912109375
-0.02551269531250
0.04931640625000
-0.06726074218750
0.00494384765625
0.01293945312500
-0.04675292968750
-0.12249755859375
-0.05120849609375
0.11602783203125
-0.11163330078125
0.16503906250000
-0.03656005859375
0.00042724609375
-0.05322265625000
-0.14996337890625
-0.03649902343750
-0.04956054687500
0.04858398437500
-0.15045166015625
0.03948974609375
0.11853027343750
0.15295410156250
-0.12695312500000
0.08941650390625
-0.12927246093750
-0.16717529296875
0.10137939453125
-0.17791748046875
-0.01788330078125
0.08990478515625
-0.07574462890625
-0.13226318359375
-0.13983154296875
-0.08227539062500
0.05181884765625
-0.15051269531250
-0.16308593750000
0.13232421875000
0.13153076171875
-0.05664062500000
0.14776611328125
0.11303710937500
-0.08911132812500
-0.05364990234375
-0.14306640625000
-0.09002685546875
0.13806152343750
-0.13598632812500
-0.17462158203125
-0.08898925781250
-0.12628173828125
0.03112792968750
-0.18530273437500
0.06512451171875
0.16387939453125
0.07641601562500
-0.16229248046875
-0.11645507812500
-0.02392578125000
0.03338623046875
0.03265380859375
-0.17541503906250
0.09228515625000
-0.15936279296875
0.09497070312500
0.01538085937500
0.11669921875000
-0.02752685546875
0.00231933593750
-0.06842041015625
0.04895019531250
-0.11187744140625
-0.17443847656250
0.13934326171875
0.08282470703125
0.12249755859375
-0.04113769531250
0.12640380859375
0.08691406250000
0.01135253906250
0.11279296875000
-0.00885009765625
0.16564941406250
-0.18420410156250
