0.00305175781250
-0.01947021484375
0.00396728515625
0.00048828125000
-0.00842285156250
-0.02258300781250
0.04449462890625
-0.01080322265625
-0.02209472656250
-0.01324462890625
-0.00231933593750
-0.01190185546875
0.00561523437500
-0.01458740234375
0.00299072265625
-0.01055908203125
0.00531005859375
-0.00689697265625
-0.00805664062500
-0.00933837890625
-0.01654052734375
-0.00976562500000
0.00000000000000
-0.01049804687500
-0.01116943359375
0.00854492187500
-0.00744628906250
0.01745605468750
-0.00177001953125
0.00714111328125
-0.01531982421875
-0.00238037109375
-0.00885009765625
-0.01361083984375
-0.00128173828125
-0.01214599609375
-0.00640869140625
-0.00372314453125
-0.02490234375000
-0.01696777343750
-0.01971435546875
-0.00524902343750
-0.01287841796875
-0.00585937500000
0.00366210937500
-0.00402832031250
-0.01129150390625
0.00079345703125
-0.01409912109375
-0.00634765625000
-0.00451660156250
-0.00988769531250
-0.00573730468750
-0.01239013671875
0.00982666015625
-0.00939941406250
-0.00579833984375
-0.01129150390625
0.01898193359375
-0.01147460937500
-0.00939941406250
-0.01306152343750
-0.00952148437500
-0.01379394531250
