0.19860839843750
0.07244873046875
-0.07934570312500
0.28619384765625
-0.25012207031250
0.08013916015625
0.27166748046875
-0.17547607421875
0.01300048828125
0.07342529296875
-0.23236083984375
-0.03009033203125
0.24554443359375
-0.01623535156250
-0.01013183593750
0.12976074218750
-0.27380371093750
-0.19165039062500
0.00799560546875
-0.24145507812500
-0.27148437500000
0.19195556640625
0.23864746093750
-0.13592529296875
0.20892333984375
-0.20928955078125
-0.02117919921875
0.03521728515625
0.02587890625000
-0.16796875000000
-0.17358398437500
0.26269531250000
-0.22241210937500
-0.04968261718750
-0.13195800781250
-0.23266601562500
0.12072753906250
-0.18310546875000
0.10607910156250
0.07293701171875
-0.24035644531250
0.03570556640625
-0.09320068359375
-0.06353759765625
0.24707031250000
-0.04974365234375
0.00762939453125
-0.14538574218750
-0.21484375000000
0.09826660156250
0.06536865234375
0.03662109375000
-0.27734375000000
-0.21643066406250
0.17669677734375
0.21484375000000
-0.00708007812500
-0.10461425781250
-0.26239013671875
-0.25921630859375
0.12878417968750
0.18920898437500
-0.08172607421875
0.10540771484375
-0.10675048828125
0.13403320312500
-0.10375976562500
-0.04290771484375
0.18707275390625
0.17926025390625
0.11560058593750
0.21752929687500
0.24639892578125
-0.15417480468750
0.07611083984375
-0.23046875000000
0.24334716796875
0.12658691406250
0.02331542968750
-0.18475341796875
-0.17254638671875
0.24456787109375
-0.25244140625000
-0.12359619140625
-0.15875244140625
-0.19805908203125
0.21337890625000
0.17681884765625
0.12194824218750
0.02026367187500
0.02539062500000
0.12042236328125
-0.01928710937500
-0.20477294921875
0.21429443359375
-0.07891845703125
0.16693115234375
0.17730712890625
-0.06671142578125
-0.20709228515625
0.23394775390625
0.17364501953125
0.04846191406250
-0.16149902343750
-0.15692138671875
0.13922119140625
-0.25457763671875
-0.07604980468750
0.20202636718750
-0.02313232421875
-0.18719482421875
0.07720947265625
-0.02056884765625
0.19018554687500
-0.01684570312500
-0.09906005859375
0.21887207031250
-0.22882080078125
-0.17822265625000
-0.11291503906250
0.03118896484375
-0.23516845703125
-0.25000000000000
0.24273681640625
0.20434570312500
-0.11688232421875
0.19152832031250
-0.22058105468750
0.06567382812500
-0.20324707031250
0.15661621093750
-0.14562988281250
0.04681396484375
0.04547119140625
-0.10693359375000
-0.25109863281250
0.03436279296875
0.06268310546875
0.24096679687500
-0.15661621093750
-0.23883056640625
-0.16809082031250
0.01275634765625
0.20361328125000
0.16589355468750
0.03143310546875
0.01470947265625
0.30603027343750
-0.10937500000000
-0.08923339843750
0.06390380859375
0.27508544921875
-0.18334960937500
-0.05816650390625
-0.13916015625000
-0.25787353515625
0.15972900390625
-0.14776611328125
0.17443847656250
0.17340087890625
0.03784179687500
0.02124023437500
-0.23461914062500
0.20507812500000
0.26147460937500
-0.26721191406250
0.20666503906250
-0.03967285156250
0.21032714843750
-0.17102050781250
-0.13555908203125
0.03009033203125
-0.05737304687500
-0.04260253906250
-0.14086914062500
0.23193359375000
-0.00939941406250
-0.17944335937500
0.15008544921875
-0.28472900390625
-0.06481933593750
0.26733398437500
-0.24279785156250
-0.23822021484375
-0.07684326171875
-0.05377197265625
0.00012207031250
-0.21105957031250
-0.11328125000000
-0.10876464843750
0.02221679687500
-0.24902343750000
