0.03729248046875
-0.02593994140625
-0.00793457031250
0.01080322265625
0.04980468750000
-0.01678466796875
0.05151367187500
0.04925537109375
-0.00396728515625
0.02874755859375
-0.00708007812500
0.04730224609375
-0.05151367187500
-0.04882812500000
0.00842285156250
-0.02355957031250
0.04809570312500
-0.00494384765625
0.05181884765625
0.00390625000000
0.00000000000000
0.00982666015625
-0.04132080078125
0.04187011718750
0.00366210937500
0.05108642578125
0.01464843750000
0.05212402343750
0.03125000000000
0.01879882812500
-0.02874755859375
-0.02398681640625
0.04003906250000
0.02868652343750
0.04357910156250
0.00799560546875
-0.00860595703125
-0.05285644531250
-0.02178955078125
-0.00726318359375
-0.00799560546875
-0.00769042968750
0.06201171875000
0.01385498046875
0.01568603515625
0.02929687500000
0.04107666015625
0.05474853515625
0.04486083984375
-0.01342773437500
0.01495361328125
-0.01391601562500
-0.02337646484375
-0.00878906250000
0.03851318359375
-0.00445556640625
0.04455566406250
0.02923583984375
0.04412841796875
-0.00579833984375
0.04742431640625
0.05615234375000
-0.03320312500000
0.05352783203125
0.03369140625000
-0.06823730468750
-0.00640869140625
-0.04138183593750
-0.01715087890625
0.02362060546875
-0.02355957031250
0.03363037109375
-0.00170898437500
0.02429199218750
-0.04534912109375
-0.00872802734375
0.03668212890625
-0.00256347656250
0.04107666015625
-0.03546142578125
-0.03240966796875
0.00677490234375
0.01745605468750
-0.01379394531250
0.02746582031250
-0.00909423828125
-0.02709960937500
0.02056884765625
-0.00354003906250
0.01757812500000
0.02777099609375
-0.03631591796875
0.01989746093750
-0.00317382812500
-0.03729248046875
0.05346679687500
-0.01470947265625
-0.00311279296875
-0.00616455078125
0.00628662109375
0.04827880859375
0.01605224609375
-0.04058837890625
0.00561523437500
-0.00244140625000
0.00878906250000
-0.03497314453125
-0.05004882812500
-0.04962158203125
-0.03790283203125
-0.03900146484375
0.02459716796875
0.04748535156250
0.04882812500000
-0.04779052734375
0.03656005859375
-0.02899169921875
-0.02423095703125
-0.03033447265625
0.03814697265625
-0.04864501953125
-0.03839111328125
-0.04388427734375
0.04486083984375
0.02648925781250
0.00988769531250
-0.04364013671875
-0.05590820312500
0.05395507812500
-0.04455566406250
-0.05438232421875
-0.02966308593750
-0.00396728515625
0.04473876953125
0.02374267578125
-0.02239990234375
-0.03527832031250
0.00769042968750
-0.02502441406250
0.02685546875000
0.00653076171875
-0.02130126953125
-0.04711914062500
0.01934814453125
0.02697753906250
0.04101562500000
-0.01550292968750
0.01361083984375
-0.04339599609375
0.03790283203125
-0.05053710937500
0.00860595703125
0.00878906250000
0.00946044921875
-0.05120849609375
-0.02947998046875
-0.04351806640625
0.01898193359375
0.00073242187500
-0.03094482421875
-0.02001953125000
0.05023193359375
0.03820800781250
-0.03552246093750
-0.00659179687500
0.01977539062500
0.03338623046875
0.05126953125000
0.03472900390625
0.02990722656250
-0.03833007812500
-0.02960205078125
0.05218505859375
0.02252197265625
-0.01525878906250
0.01971435546875
-0.01403808593750
0.05364990234375
-0.02160644531250
-0.03436279296875
-0.03186035156250
0.01556396484375
0.05187988281250
-0.04919433593750
0.01892089843750
0.02716064453125
-0.01135253906250
0.02362060546875
-0.00585937500000
-0.02252197265625
0.01794433593750
0.02587890625000
0.02404785156250
0.01336669921875
0.04290771484375
0.02960205078125
-0.02954101562500
0.02172851562500
0.04235839843750
0.03533935546875
0.02990722656250
0.00750732421875
0.02770996093750
0.01519775390625
-0.03533935546875
-0.04235839843750
-0.04833984375000
-0.03204345703125
-0.01690673828125
0.04589843750000
-0.04418945312500
0.04895019531250
0.05114746093750
-0.05047607421875
0.00158691406250
-0.00415039062500
0.02398681640625
0.00469970703125
-0.04266357421875
-0.04895019531250
0.00537109375000
-0.03857421875000
-0.00085449218750
-0.05773925781250
-0.03674316406250
-0.01727294921875
-0.02996826171875
-0.02825927734375
0.00244140625000
-0.03228759765625
-0.03985595703125
-0.04498291015625
0.02203369140625
0.04772949218750
0.01623535156250
0.03070068359375
0.01782226562500
-0.02978515625000
0.02789306640625
0.03460693359375
0.01397705078125
-0.05413818359375
0.01031494140625
-0.00653076171875
0.01434326171875
0.03717041015625
0.02124023437500
-0.05328369140625
0.02593994140625
0.03448486328125
-0.01708984375000
0.02282714843750
-0.00860595703125
0.04882812500000
-0.05096435546875
-0.03314208984375
-0.04821777343750
0.02874755859375
0.02832031250000
0.02410888671875
-0.03106689453125
0.04510498046875
-0.04309082031250
-0.01623535156250
0.02087402343750
-0.02404785156250
0.00274658203125
-0.05163574218750
0.00128173828125
0.01611328125000
-0.01855468750000
-0.05072021484375
-0.03125000000000
0.00958251953125
-0.03613281250000
-0.03320312500000
-0.04119873046875
0.02307128906250
0.04254150390625
0.00665283203125
-0.01354980468750
0.01818847656250
0.02880859375000
-0.01641845703125
0.00347900390625
0.01257324218750
-0.02050781250000
-0.00012207031250
-0.04742431640625
-0.04467773437500
-0.00067138671875
0.02636718750000
0.05218505859375
-0.02215576171875
-0.00622558593750
-0.02111816406250
0.01867675781250
0.04748535156250
-0.05920410156250
-0.05859375000000
-0.04968261718750
0.02862548828125
-0.03125000000000
0.02612304687500
-0.00555419921875
0.03021240234375
0.02520751953125
0.04077148437500
0.02160644531250
0.00006103515625
0.04388427734375
-0.03839111328125
0.02410888671875
0.01287841796875
-0.05072021484375
0.01696777343750
0.00457763671875
0.01269531250000
0.00244140625000
0.02191162109375
0.05072021484375
0.03320312500000
0.02453613281250
0.05218505859375
0.03936767578125
0.02648925781250
0.04614257812500
-0.03253173828125
0.03350830078125
-0.04583740234375
0.03558349609375
-0.05664062500000
0.00030517578125
-0.04388427734375
0.05120849609375
0.02667236328125
-0.03204345703125
0.01385498046875
0.04333496093750
0.02612304687500
0.02288818359375
0.01898193359375
0.05541992187500
-0.02154541015625
0.01184082031250
-0.04882812500000
0.01928710937500
-0.05059814453125
0.02496337890625
-0.04382324218750
-0.00921630859375
0.04974365234375
0.02465820312500
0.00421142578125
-0.03308105468750
0.00689697265625
-0.00048828125000
0.00878906250000
0.03247070312500
-0.03631591796875
-0.04089355468750
0.03356933593750
-0.05926513671875
-0.02386474609375
-0.00891113281250
-0.03857421875000
-0.01879882812500
0.00653076171875
-0.01043701171875
0.03521728515625
-0.02502441406250
-0.01739501953125
0.04882812500000
-0.02996826171875
-0.00109863281250
-0.05255126953125
-0.03558349609375
0.03234863281250
-0.03216552734375
-0.01141357421875
-0.03839111328125
-0.02313232421875
0.03509521484375
0.03192138671875
0.01690673828125
0.00897216796875
-0.00311279296875
-0.00451660156250
0.04229736328125
-0.00512695312500
0.00714111328125
-0.01049804687500
-0.02380371093750
-0.04742431640625
-0.05499267578125
0.00970458984375
0.00549316406250
0.03027343750000
-0.03900146484375
0.04492187500000
-0.01483154296875
0.00408935546875
-0.00115966796875
0.04956054687500
0.02526855468750
-0.03778076171875
-0.03863525390625
0.04760742187500
-0.02020263671875
0.03686523437500
0.00354003906250
-0.03833007812500
-0.04882812500000
-0.01007080078125
-0.02270507812500
0.01239013671875
0.02923583984375
-0.02783203125000
-0.03173828125000
0.01708984375000
-0.02288818359375
-0.02624511718750
-0.01232910156250
-0.03826904296875
0.04553222656250
-0.00531005859375
-0.03344726562500
0.05212402343750
0.01989746093750
0.01312255859375
-0.03186035156250
0.04193115234375
0.03405761718750
0.01501464843750
0.06433105468750
0.01971435546875
0.02832031250000
0.05450439453125
0.04254150390625
-0.00701904296875
-0.00927734375000
-0.01519775390625
-0.02825927734375
0.04754638671875
0.05090332031250
0.01013183593750
-0.04064941406250
-0.03619384765625
0.05163574218750
-0.04907226562500
-0.02124023437500
-0.04034423828125
0.00598144531250
0.01812744140625
0.00396728515625
-0.00500488281250
-0.01617431640625
-0.00512695312500
-0.00445556640625
-0.01007080078125
0.00061035156250
0.01177978515625
-0.03753662109375
0.03985595703125
0.05151367187500
-0.00775146484375
-0.03057861328125
0.02203369140625
-0.03076171875000
-0.03637695312500
0.01861572265625
0.01110839843750
-0.03906250000000
0.00927734375000
-0.01336669921875
0.01824951171875
0.03314208984375
0.05084228515625
-0.04315185546875
0.03918457031250
0.01232910156250
-0.01354980468750
0.04614257812500
-0.05151367187500
0.03588867187500
-0.01214599609375
0.00268554687500
-0.01177978515625
0.04821777343750
-0.04412841796875
0.00531005859375
-0.00982666015625
0.01129150390625
-0.00549316406250
0.03961181640625
-0.05291748046875
0.00372314453125
-0.00512695312500
0.03674316406250
-0.02569580078125
0.02746582031250
0.03332519531250
0.03125000000000
-0.04949951171875
0.00653076171875
0.03540039062500
-0.01690673828125
0.02490234375000
-0.02386474609375
-0.02966308593750
-0.00543212890625
-0.03149414062500
0.03485107421875
-0.04016113281250
0.01147460937500
-0.02954101562500
0.04577636718750
-0.01525878906250
-0.01293945312500
-0.03399658203125
0.03704833984375
-0.03497314453125
0.03625488281250
-0.02569580078125
0.00592041015625
-0.02947998046875
-0.03503417968750
-0.01318359375000
0.00671386718750
-0.01129150390625
-0.00335693359375
0.03881835937500
-0.05401611328125
0.00872802734375
0.03674316406250
0.04400634765625
-0.02539062500000
0.01031494140625
0.01208496093750
-0.01281738281250
0.02551269531250
-0.00341796875000
0.00775146484375
-0.00360107421875
0.05035400390625
-0.03167724609375
0.03546142578125
0.02441406250000
-0.01013183593750
-0.03558349609375
0.01220703125000
0.01623535156250
0.00451660156250
-0.04351806640625
0.04675292968750
-0.04217529296875
-0.04144287109375
-0.01245117187500
-0.04882812500000
0.01489257812500
0.02960205078125
0.04217529296875
-0.01989746093750
-0.05218505859375
-0.00738525390625
0.02917480468750
0.03881835937500
-0.01556396484375
0.01129150390625
0.05236816406250
0.00781250000000
0.01135253906250
-0.03875732421875
0.04833984375000
-0.02972412109375
-0.02044677734375
-0.05145263671875
-0.03594970703125
-0.04864501953125
0.04956054687500
-0.04357910156250
0.02368164062500
-0.01074218750000
-0.02056884765625
-0.04473876953125
0.05072021484375
0.04437255859375
-0.01782226562500
0.01922607421875
-0.04504394531250
0.02496337890625
-0.03179931640625
0.03308105468750
0.04211425781250
0.03936767578125
0.01019287109375
0.03784179687500
-0.01147460937500
-0.04229736328125
-0.00561523437500
0.01019287109375
-0.04699707031250
-0.02490234375000
0.01416015625000
-0.02569580078125
0.03515625000000
-0.04656982421875
0.03558349609375
0.00793457031250
0.01458740234375
-0.00366210937500
0.00146484375000
0.02227783203125
0.04528808593750
-0.04370117187500
-0.01239013671875
-0.04052734375000
-0.03930664062500
0.05151367187500
0.00701904296875
-0.04296875000000
0.01873779296875
-0.04602050781250
-0.03845214843750
-0.03161621093750
-0.04217529296875
0.02038574218750
0.04425048828125
0.03991699218750
0.02514648437500
0.05212402343750
-0.03179931640625
-0.01196289062500
0.03118896484375
-0.00793457031250
0.04010009765625
0.02270507812500
-0.01177978515625
-0.00402832031250
-0.04345703125000
-0.01647949218750
-0.01428222656250
-0.01232910156250
-0.00140380859375
-0.02203369140625
-0.03143310546875
0.00903320312500
-0.04193115234375
-0.03088378906250
-0.00439453125000
-0.01440429687500
-0.04534912109375
0.00512695312500
-0.00134277343750
-0.02935791015625
-0.02960205078125
0.03265380859375
-0.05065917968750
-0.02148437500000
-0.00067138671875
-0.04528808593750
0.03204345703125
-0.02770996093750
0.03588867187500
-0.02166748046875
-0.01507568359375
0.02770996093750
-0.00036621093750
0.03369140625000
0.05224609375000
-0.00299072265625
0.03564453125000
0.03704833984375
-0.04736328125000
-0.02026367187500
0.04840087890625
0.02502441406250
-0.00048828125000
0.04095458984375
-0.04003906250000
0.04504394531250
-0.03607177734375
0.03234863281250
-0.01788330078125
0.01959228515625
-0.04937744140625
-0.02239990234375
-0.02178955078125
-0.00903320312500
0.04907226562500
0.02227783203125
0.03704833984375
-0.03625488281250
-0.04144287109375
-0.03436279296875
-0.02984619140625
-0.03387451171875
0.02325439453125
-0.04309082031250
-0.01519775390625
-0.02331542968750
0.02813720703125
0.00524902343750
-0.02026367187500
-0.01861572265625
0.02661132812500
-0.01037597656250
-0.00494384765625
0.02795410156250
0.02410888671875
-0.00860595703125
-0.01367187500000
0.04321289062500
0.03918457031250
-0.04913330078125
0.01055908203125
-0.00140380859375
-0.03149414062500
-0.01062011718750
-0.01245117187500
-0.02111816406250
-0.02130126953125
0.02569580078125
-0.03369140625000
-0.01550292968750
0.04852294921875
0.04595947265625
0.00000000000000
-0.03643798828125
-0.04437255859375
-0.02325439453125
-0.04400634765625
-0.04656982421875
-0.05316162109375
-0.01995849609375
-0.02008056640625
0.04687500000000
-0.01464843750000
-0.01910400390625
-0.01678466796875
-0.00061035156250
-0.05316162109375
0.00299072265625
-0.01141357421875
0.00799560546875
-0.01690673828125
-0.05279541015625
-0.05511474609375
0.02130126953125
0.04730224609375
-0.01080322265625
0.04724121093750
-0.00061035156250
-0.01672363281250
0.03472900390625
0.00262451171875
0.02819824218750
0.04583740234375
0.03961181640625
-0.02581787109375
-0.01324462890625
0.01544189453125
0.00640869140625
0.04846191406250
0.04815673828125
0.02569580078125
0.02471923828125
-0.04028320312500
0.02374267578125
-0.04193115234375
0.03131103515625
-0.05615234375000
-0.00146484375000
-0.00500488281250
-0.05401611328125
0.02276611328125
-0.03540039062500
-0.06481933593750
-0.03631591796875
-0.01824951171875
0.00628662109375
-0.03039550781250
-0.01898193359375
-0.05450439453125
0.04235839843750
0.00720214843750
0.02026367187500
0.02941894531250
0.04418945312500
-0.03002929687500
-0.03912353515625
-0.03997802734375
0.02502441406250
-0.02630615234375
-0.01489257812500
-0.06085205078125
-0.05963134765625
0.03057861328125
0.00091552734375
-0.00183105468750
-0.00225830078125
-0.04913330078125
0.05010986328125
0.02148437500000
-0.01031494140625
-0.02398681640625
-0.04608154296875
0.02716064453125
0.00970458984375
0.03582763671875
0.00701904296875
-0.01123046875000
0.03533935546875
0.04156494140625
-0.03173828125000
0.00805664062500
0.03137207031250
0.00439453125000
0.05297851562500
-0.01208496093750
0.02917480468750
0.02618408203125
-0.04974365234375
0.03631591796875
0.03198242187500
0.02270507812500
0.03399658203125
-0.05334472656250
-0.03588867187500
0.01086425781250
-0.03106689453125
-0.02667236328125
-0.02612304687500
-0.01239013671875
0.03607177734375
0.00091552734375
0.01269531250000
-0.02020263671875
-0.01007080078125
0.00451660156250
-0.03753662109375
0.04669189453125
-0.04858398437500
-0.01647949218750
-0.02471923828125
0.04516601562500
-0.03979492187500
0.01446533203125
0.03228759765625
-0.03985595703125
-0.01031494140625
0.00042724609375
0.01269531250000
-0.00445556640625
-0.00701904296875
-0.03881835937500
0.02246093750000
-0.04919433593750
0.03741455078125
0.02575683593750
0.04107666015625
0.00976562500000
-0.00927734375000
-0.01312255859375
-0.04467773437500
-0.02722167968750
0.01885986328125
0.04974365234375
-0.01202392578125
-0.05194091796875
0.05499267578125
0.02893066406250
0.04925537109375
-0.04119873046875
-0.03546142578125
0.01593017578125
-0.03674316406250
0.04052734375000
0.04748535156250
0.02362060546875
0.01538085937500
-0.00207519531250
-0.02783203125000
-0.05212402343750
-0.02014160156250
-0.01641845703125
0.05352783203125
-0.01373291015625
-0.03405761718750
0.00933837890625
-0.00256347656250
-0.04730224609375
0.04333496093750
-0.00616455078125
0.03454589843750
-0.03631591796875
0.03594970703125
-0.02325439453125
-0.01135253906250
0.00402832031250
-0.04467773437500
-0.02978515625000
0.04003906250000
0.02386474609375
0.03161621093750
0.02868652343750
0.02130126953125
0.04364013671875
-0.02716064453125
0.04321289062500
-0.04687500000000
-0.02191162109375
0.02020263671875
0.02587890625000
0.03552246093750
-0.00433349609375
-0.03063964843750
0.02313232421875
0.05273437500000
-0.02911376953125
0.01208496093750
0.02862548828125
0.04327392578125
-0.04516601562500
0.02185058593750
0.01715087890625
0.01007080078125
0.04797363281250
-0.01336669921875
-0.03216552734375
-0.01324462890625
0.00903320312500
-0.05407714843750
-0.03045654296875
-0.00103759765625
-0.00775146484375
-0.02874755859375
0.00018310546875
0.00408935546875
-0.03369140625000
0.02484130859375
0.00952148437500
-0.03564453125000
-0.02270507812500
0.04425048828125
-0.00921630859375
-0.02581787109375
-0.04541015625000
0.00085449218750
0.03875732421875
0.03948974609375
-0.02209472656250
0.00805664062500
0.02825927734375
-0.01678466796875
0.01647949218750
-0.00915527343750
-0.02471923828125
0.04229736328125
0.00329589843750
-0.02282714843750
0.03234863281250
-0.04528808593750
-0.04010009765625
0.00195312500000
0.00640869140625
0.05230712890625
-0.00726318359375
-0.01025390625000
0.01110839843750
-0.00817871093750
-0.02947998046875
0.00769042968750
0.00396728515625
0.00262451171875
0.00970458984375
-0.00018310546875
-0.04248046875000
-0.03540039062500
0.01300048828125
0.03808593750000
0.00897216796875
-0.05175781250000
0.00744628906250
0.01367187500000
-0.05163574218750
0.00585937500000
-0.02587890625000
0.01513671875000
0.01251220703125
-0.03509521484375
0.00769042968750
0.04003906250000
-0.00701904296875
-0.00805664062500
0.03820800781250
0.01452636718750
-0.05035400390625
0.04522705078125
0.00311279296875
-0.04290771484375
0.01525878906250
0.04479980468750
-0.01428222656250
-0.03198242187500
0.04217529296875
0.00921630859375
0.03393554687500
-0.02954101562500
-0.02508544921875
-0.01983642578125
-0.04125976562500
-0.01434326171875
0.01745605468750
0.00756835937500
-0.03582763671875
-0.02661132812500
0.04260253906250
0.03112792968750
-0.04772949218750
-0.00427246093750
-0.00958251953125
-0.01965332031250
-0.01269531250000
-0.03869628906250
-0.03063964843750
0.01934814453125
-0.03619384765625
0.01953125000000
0.04608154296875
-0.02294921875000
0.04656982421875
-0.00286865234375
0.05456542968750
0.03881835937500
0.03613281250000
-0.00268554687500
-0.04846191406250
0.00976562500000
-0.02441406250000
-0.04437255859375
-0.01831054687500
0.02056884765625
0.03472900390625
0.01177978515625
-0.02539062500000
0.01989746093750
0.00183105468750
0.04553222656250
0.02319335937500
0.04437255859375
0.04925537109375
0.04010009765625
-0.03088378906250
0.03405761718750
0.03405761718750
-0.04669189453125
-0.00604248046875
0.03576660156250
-0.01660156250000
-0.03527832031250
0.02569580078125
0.02154541015625
-0.00653076171875
0.01434326171875
0.04772949218750
0.00067138671875
0.01153564453125
-0.02032470703125
0.01721191406250
-0.01672363281250
0.00903320312500
-0.04846191406250
-0.04974365234375
0.02026367187500
-0.04663085937500
0.00146484375000
0.01263427734375
0.01092529296875
-0.02709960937500
-0.04229736328125
-0.03338623046875
-0.03094482421875
-0.05279541015625
-0.02001953125000
-0.01397705078125
0.03930664062500
0.01263427734375
0.02154541015625
0.04064941406250
-0.04266357421875
0.03765869140625
0.00042724609375
-0.03216552734375
0.02069091796875
-0.04840087890625
0.01904296875000
0.01953125000000
0.04705810546875
0.01660156250000
-0.04296875000000
-0.03796386718750
0.02148437500000
-0.01049804687500
-0.03497314453125
0.00213623046875
-0.03826904296875
-0.01995849609375
-0.04663085937500
0.04534912109375
0.02648925781250
-0.03552246093750
-0.01629638671875
0.04724121093750
0.03948974609375
0.02752685546875
-0.01007080078125
0.00994873046875
0.03643798828125
-0.04211425781250
-0.03710937500000
-0.03765869140625
-0.01171875000000
0.00720214843750
0.02288818359375
-0.03588867187500
0.03448486328125
-0.01928710937500
0.00854492187500
0.00067138671875
0.03393554687500
-0.00915527343750
0.00274658203125
0.01068115234375
0.00286865234375
0.04534912109375
-0.02087402343750
0.03112792968750
-0.01226806640625
-0.02655029296875
0.01885986328125
-0.03009033203125
0.03375244140625
-0.04858398437500
-0.03784179687500
0.03503417968750
0.03387451171875
-0.00854492187500
-0.02795410156250
0.00811767578125
0.04846191406250
-0.01892089843750
0.03399658203125
0.00109863281250
0.03552246093750
-0.01757812500000
-0.03472900390625
-0.03900146484375
-0.00805664062500
0.01300048828125
0.03271484375000
0.04040527343750
0.02502441406250
-0.00140380859375
-0.03350830078125
0.01495361328125
0.03784179687500
-0.03717041015625
0.05279541015625
0.03417968750000
-0.04302978515625
0.01574707031250
-0.02026367187500
0.04510498046875
0.02203369140625
-0.03894042968750
-0.04644775390625
0.02496337890625
-0.04418945312500
0.04309082031250
-0.01910400390625
-0.04553222656250
0.02728271484375
0.02111816406250
0.04064941406250
0.02270507812500
-0.00183105468750
-0.04571533203125
-0.00421142578125
0.02526855468750
-0.01000976562500
-0.00756835937500
0.05279541015625
-0.02697753906250
0.01403808593750
-0.04455566406250
-0.02740478515625
-0.02746582031250
0.00811767578125
0.01385498046875
-0.04791259765625
-0.00549316406250
0.02545166015625
0.02844238281250
-0.01251220703125
0.01629638671875
0.04632568359375
-0.03918457031250
-0.01086425781250
0.03375244140625
0.00079345703125
0.04962158203125
0.02178955078125
-0.03594970703125
-0.05084228515625
-0.01257324218750
0.02874755859375
0.05334472656250
0.01544189453125
0.02001953125000
-0.00537109375000
-0.02331542968750
-0.00341796875000
0.04382324218750
0.03094482421875
-0.03216552734375
-0.05065917968750
-0.05114746093750
0.00097656250000
-0.00598144531250
-0.04174804687500
-0.04791259765625
-0.01477050781250
0.03710937500000
-0.01446533203125
0.01879882812500
0.03063964843750
0.01867675781250
0.02160644531250
-0.01416015625000
0.03137207031250
0.02612304687500
-0.05828857421875
0.03826904296875
-0.05151367187500
-0.05035400390625
0.00891113281250
0.03735351562500
0.00177001953125
0.02746582031250
0.00616455078125
-0.01940917968750
-0.04772949218750
0.00189208984375
-0.00537109375000
-0.02716064453125
0.00695800781250
-0.04107666015625
0.03601074218750
-0.00225830078125
-0.00976562500000
-0.02105712890625
-0.02630615234375
-0.02758789062500
0.03338623046875
-0.00830078125000
0.04864501953125
0.05072021484375
-0.03527832031250
0.03942871093750
0.05291748046875
0.03594970703125
0.04827880859375
-0.01123046875000
0.02728271484375
-0.00646972656250
0.00164794921875
-0.05261230468750
-0.04058837890625
-0.01263427734375
-0.00372314453125
0.01165771484375
0.01641845703125
-0.02825927734375
-0.04321289062500
0.05334472656250
0.05004882812500
-0.02911376953125
0.01007080078125
0.02282714843750
0.04577636718750
-0.04748535156250
-0.02362060546875
-0.02984619140625
0.04010009765625
0.00476074218750
-0.00396728515625
0.01879882812500
-0.05725097656250
-0.01239013671875
-0.02117919921875
-0.05169677734375
-0.00115966796875
-0.00195312500000
-0.00854492187500
0.02795410156250
0.02355957031250
-0.00585937500000
0.01599121093750
-0.02166748046875
0.01214599609375
-0.01910400390625
-0.03027343750000
-0.01171875000000
-0.04583740234375
-0.03143310546875
0.04205322265625
0.04010009765625
-0.02355957031250
-0.05090332031250
-0.03131103515625
-0.02264404296875
-0.03442382812500
0.02185058593750
-0.00634765625000
-0.00512695312500
-0.03552246093750
0.00518798828125
-0.00933837890625
-0.03515625000000
0.02337646484375
-0.02679443359375
0.03900146484375
0.04138183593750
-0.03466796875000
-0.01531982421875
-0.02362060546875
0.02301025390625
-0.01287841796875
-0.03424072265625
-0.01623535156250
-0.01660156250000
0.03515625000000
-0.02392578125000
0.04760742187500
-0.04479980468750
-0.01879882812500
-0.02288818359375
0.01116943359375
0.04785156250000
-0.01904296875000
0.01379394531250
-0.01910400390625
-0.00335693359375
0.00292968750000
-0.02819824218750
-0.00616455078125
0.04492187500000
0.02722167968750
-0.00714111328125
0.03369140625000
-0.03015136718750
-0.02636718750000
0.03100585937500
0.00836181640625
-0.02545166015625
0.01770019531250
-0.03759765625000
-0.01086425781250
0.02264404296875
0.02081298828125
0.04992675781250
0.01593017578125
0.05206298828125
-0.03863525390625
-0.00762939453125
0.00988769531250
-0.01806640625000
0.03594970703125
0.02935791015625
0.03668212890625
0.03900146484375
0.02349853515625
0.01904296875000
0.01342773437500
0.00390625000000
-0.04400634765625
0.00268554687500
-0.03900146484375
0.01055908203125
-0.01757812500000
-0.03118896484375
-0.05065917968750
0.04272460937500
0.02703857421875
0.01177978515625
-0.01477050781250
-0.00317382812500
0.00305175781250
0.04205322265625
0.03076171875000
0.00335693359375
-0.01678466796875
-0.02685546875000
-0.04791259765625
0.02667236328125
-0.01055908203125
-0.05328369140625
-0.03936767578125
-0.03063964843750
0.03625488281250
-0.03204345703125
0.01605224609375
0.02270507812500
0.02563476562500
-0.03076171875000
0.03320312500000
-0.03936767578125
-0.00268554687500
-0.05023193359375
-0.01745605468750
-0.03448486328125
-0.02026367187500
0.01593017578125
0.03497314453125
-0.00732421875000
0.03887939453125
-0.01800537109375
0.04705810546875
0.04309082031250
-0.03344726562500
-0.00982666015625
-0.02465820312500
-0.01446533203125
-0.00543212890625
-0.04669189453125
0.04357910156250
-0.04266357421875
0.01568603515625
-0.01977539062500
0.03125000000000
-0.01995849609375
-0.01770019531250
0.01342773437500
-0.02783203125000
0.04443359375000
-0.00994873046875
-0.00897216796875
0.04785156250000
-0.00506591796875
0.03784179687500
0.05487060546875
0.04809570312500
-0.04034423828125
-0.03381347656250
0.01757812500000
0.00225830078125
-0.02453613281250
-0.04504394531250
0.01519775390625
-0.01586914062500
-0.04327392578125
0.00146484375000
-0.00177001953125
-0.04644775390625
0.02954101562500
0.01501464843750
0.01123046875000
-0.00891113281250
-0.03247070312500
0.04547119140625
0.04107666015625
-0.01763916015625
0.04547119140625
0.03063964843750
0.02288818359375
-0.00866699218750
0.03002929687500
-0.02813720703125
-0.03643798828125
0.02471923828125
-0.01867675781250
0.04626464843750
-0.00708007812500
-0.02264404296875
-0.04736328125000
0.01116943359375
0.01690673828125
-0.04290771484375
0.01428222656250
-0.01824951171875
-0.01446533203125
0.02246093750000
-0.03387451171875
0.00366210937500
0.01751708984375
-0.01654052734375
0.02111816406250
-0.01873779296875
0.04058837890625
-0.00714111328125
0.01928710937500
-0.04864501953125
0.02783203125000
-0.00756835937500
-0.02575683593750
0.03179931640625
-0.02648925781250
0.03814697265625
-0.05346679687500
-0.03393554687500
0.03857421875000
-0.03088378906250
-0.00012207031250
0.00103759765625
0.02374267578125
-0.02026367187500
0.02593994140625
0.02648925781250
-0.00366210937500
-0.00024414062500
0.02893066406250
-0.03887939453125
0.04943847656250
-0.00482177734375
0.03643798828125
-0.04388427734375
-0.03125000000000
0.02679443359375
0.01110839843750
-0.00476074218750
0.00970458984375
0.02258300781250
-0.00823974609375
0.03070068359375
0.01263427734375
0.01092529296875
0.02355957031250
0.05828857421875
-0.03564453125000
0.04650878906250
-0.04144287109375
-0.00079345703125
-0.01965332031250
0.01281738281250
0.00250244140625
0.01428222656250
0.04150390625000
0.00555419921875
0.05737304687500
0.00311279296875
-0.01995849609375
0.02044677734375
-0.02923583984375
-0.03643798828125
0.03576660156250
-0.03643798828125
-0.03118896484375
0.01000976562500
-0.01684570312500
-0.00201416015625
-0.05035400390625
0.00134277343750
-0.03192138671875
0.00402832031250
-0.01049804687500
-0.00598144531250
0.02313232421875
-0.00854492187500
-0.03753662109375
-0.02545166015625
-0.04827880859375
0.00555419921875
-0.00909423828125
-0.02075195312500
-0.01275634765625
0.01184082031250
0.01855468750000
-0.04907226562500
-0.01086425781250
-0.03070068359375
-0.04431152343750
-0.05108642578125
-0.03698730468750
-0.02416992187500
-0.03533935546875
-0.03454589843750
0.04327392578125
-0.00555419921875
0.02124023437500
-0.01171875000000
-0.00665283203125
-0.00213623046875
0.03765869140625
-0.02978515625000
0.04382324218750
0.03100585937500
-0.01324462890625
-0.00439453125000
-0.01916503906250
0.00781250000000
-0.05249023437500
-0.01184082031250
-0.02929687500000
0.02258300781250
-0.00665283203125
0.04638671875000
-0.05157470703125
-0.03155517578125
-0.04571533203125
0.04351806640625
-0.04205322265625
0.02307128906250
-0.01080322265625
-0.03265380859375
-0.00469970703125
-0.01898193359375
0.00860595703125
0.04376220703125
-0.03631591796875
0.02819824218750
-0.04211425781250
0.03552246093750
-0.02709960937500
0.03662109375000
0.03607177734375
0.01068115234375
0.01031494140625
-0.00958251953125
-0.02545166015625
-0.00762939453125
0.02142333984375
0.03381347656250
-0.00805664062500
-0.02001953125000
0.01629638671875
-0.01770019531250
0.00592041015625
0.00646972656250
-0.02911376953125
0.05377197265625
-0.05114746093750
-0.01641845703125
-0.02569580078125
0.03106689453125
-0.00207519531250
-0.03588867187500
-0.03869628906250
0.00537109375000
-0.05249023437500
0.03112792968750
0.02111816406250
-0.02551269531250
-0.00140380859375
0.01641845703125
-0.00164794921875
0.01043701171875
-0.00408935546875
0.02972412109375
0.02490234375000
-0.05126953125000
-0.01025390625000
0.02398681640625
0.00164794921875
-0.05157470703125
0.01330566406250
0.00280761718750
-0.00006103515625
0.02429199218750
-0.04852294921875
0.01690673828125
0.00866699218750
-0.02075195312500
-0.03521728515625
0.04772949218750
0.01434326171875
0.04608154296875
-0.00775146484375
-0.01739501953125
0.04846191406250
0.02856445312500
-0.02844238281250
-0.04577636718750
0.02636718750000
-0.02380371093750
0.02075195312500
0.01556396484375
-0.04980468750000
-0.01312255859375
-0.02606201171875
-0.00952148437500
0.01281738281250
0.02587890625000
-0.03094482421875
0.00372314453125
-0.02337646484375
-0.01470947265625
0.01770019531250
-0.03582763671875
0.02874755859375
-0.02398681640625
-0.02801513671875
-0.01019287109375
-0.03582763671875
0.05151367187500
0.01580810546875
-0.05023193359375
0.03399658203125
0.03826904296875
-0.01647949218750
-0.04699707031250
-0.03063964843750
-0.02191162109375
-0.02264404296875
0.00286865234375
-0.02178955078125
-0.02386474609375
-0.02429199218750
0.02478027343750
0.04895019531250
0.00994873046875
-0.02124023437500
0.02734375000000
0.04840087890625
0.01983642578125
-0.02789306640625
0.05554199218750
0.04418945312500
0.01141357421875
0.00750732421875
-0.00622558593750
0.01550292968750
0.00689697265625
-0.02062988281250
-0.03039550781250
0.03222656250000
-0.04565429687500
-0.00134277343750
-0.04620361328125
0.04052734375000
-0.02416992187500
-0.02728271484375
0.00775146484375
-0.05163574218750
0.01281738281250
0.04553222656250
0.03063964843750
0.03930664062500
-0.03265380859375
0.03912353515625
-0.04199218750000
0.02319335937500
-0.03601074218750
0.00683593750000
0.03540039062500
-0.02288818359375
-0.01928710937500
0.00000000000000
0.03417968750000
-0.02264404296875
-0.00958251953125
-0.02783203125000
0.01470947265625
0.02954101562500
0.01281738281250
0.05206298828125
0.01727294921875
-0.04504394531250
0.02227783203125
-0.01892089843750
-0.01507568359375
-0.01074218750000
0.04779052734375
-0.02941894531250
0.00921630859375
-0.02642822265625
-0.02691650390625
0.04992675781250
0.03515625000000
-0.01281738281250
0.03070068359375
-0.02917480468750
0.00720214843750
0.01690673828125
0.01959228515625
0.01544189453125
0.00177001953125
-0.01184082031250
-0.01275634765625
-0.02075195312500
0.01916503906250
0.04412841796875
-0.02246093750000
0.00585937500000
-0.03198242187500
-0.03967285156250
-0.03790283203125
-0.02325439453125
0.04815673828125
0.04663085937500
0.02954101562500
0.01373291015625
-0.00848388671875
-0.01477050781250
0.04785156250000
0.02966308593750
-0.00872802734375
0.04052734375000
-0.03070068359375
-0.04364013671875
-0.02032470703125
-0.00354003906250
0.03283691406250
-0.04589843750000
-0.00915527343750
-0.03167724609375
0.00134277343750
-0.02972412109375
0.03979492187500
0.04809570312500
-0.04455566406250
0.00524902343750
-0.04321289062500
0.02117919921875
-0.03955078125000
0.05236816406250
0.02496337890625
0.04193115234375
-0.03991699218750
0.02569580078125
-0.03198242187500
0.05328369140625
0.04626464843750
-0.02612304687500
0.05291748046875
-0.03112792968750
0.04992675781250
0.01324462890625
0.05151367187500
-0.01483154296875
-0.04870605468750
-0.04962158203125
-0.03833007812500
-0.03887939453125
-0.05053710937500
-0.01757812500000
-0.02111816406250
0.02453613281250
0.02941894531250
0.02313232421875
-0.00823974609375
-0.00952148437500
-0.02313232421875
-0.02655029296875
-0.01074218750000
-0.02221679687500
0.03314208984375
0.01116943359375
0.00512695312500
0.00744628906250
-0.05316162109375
-0.01477050781250
-0.00823974609375
0.00561523437500
-0.04608154296875
-0.01971435546875
-0.02044677734375
-0.03802490234375
-0.01007080078125
-0.03527832031250
0.04150390625000
0.04644775390625
0.04730224609375
0.01763916015625
0.02172851562500
0.00939941406250
-0.00274658203125
0.01574707031250
0.05187988281250
-0.02746582031250
0.02014160156250
0.02899169921875
-0.03344726562500
-0.01135253906250
0.01879882812500
0.03485107421875
-0.03460693359375
0.02044677734375
0.01660156250000
0.03118896484375
0.01599121093750
-0.00732421875000
-0.06262207031250
0.03979492187500
0.02307128906250
0.04217529296875
-0.02447509765625
-0.04901123046875
0.01452636718750
0.02374267578125
-0.03216552734375
0.02117919921875
0.02423095703125
0.01287841796875
-0.03509521484375
0.03710937500000
-0.02618408203125
0.01660156250000
0.03540039062500
-0.03833007812500
-0.04534912109375
0.01251220703125
-0.03991699218750
-0.02404785156250
0.02905273437500
-0.04760742187500
-0.00366210937500
-0.05377197265625
0.00140380859375
-0.01971435546875
-0.04992675781250
0.02386474609375
0.02880859375000
0.03948974609375
0.03576660156250
0.02117919921875
-0.02526855468750
-0.03997802734375
-0.04199218750000
0.01135253906250
0.04809570312500
-0.03558349609375
0.00885009765625
0.03100585937500
-0.00299072265625
0.04211425781250
-0.03308105468750
0.04754638671875
0.00286865234375
0.02032470703125
0.00305175781250
0.03771972656250
-0.02252197265625
-0.03570556640625
0.03302001953125
-0.00268554687500
-0.01245117187500
-0.02880859375000
0.02087402343750
-0.04071044921875
-0.02124023437500
-0.02062988281250
0.01489257812500
0.02331542968750
-0.01751708984375
0.05383300781250
0.03411865234375
0.04156494140625
-0.02593994140625
0.02508544921875
-0.04028320312500
0.01477050781250
-0.00701904296875
0.03704833984375
-0.00634765625000
-0.02374267578125
-0.03796386718750
0.03961181640625
0.02575683593750
0.05267333984375
-0.05328369140625
0.00250244140625
-0.02386474609375
0.01452636718750
-0.03521728515625
-0.02825927734375
-0.05310058593750
-0.01324462890625
-0.01391601562500
0.05273437500000
0.03668212890625
-0.03778076171875
0.02185058593750
0.01666259765625
-0.05004882812500
0.02563476562500
-0.00793457031250
0.02447509765625
0.02703857421875
-0.01379394531250
0.02081298828125
-0.02502441406250
-0.03063964843750
0.00061035156250
-0.03448486328125
-0.02825927734375
-0.01458740234375
0.02014160156250
0.01403808593750
-0.01446533203125
-0.00646972656250
-0.02600097656250
-0.05273437500000
0.01434326171875
0.03228759765625
-0.04321289062500
0.02307128906250
0.03155517578125
-0.01123046875000
0.04095458984375
0.03424072265625
0.01147460937500
-0.01196289062500
0.00708007812500
-0.04473876953125
0.02075195312500
-0.01599121093750
0.02947998046875
0.03735351562500
-0.05023193359375
-0.01312255859375
0.03204345703125
-0.00665283203125
0.03033447265625
-0.01910400390625
-0.03521728515625
0.03741455078125
-0.04748535156250
-0.00433349609375
0.04376220703125
0.05285644531250
-0.02825927734375
-0.01531982421875
0.04089355468750
0.00585937500000
-0.02911376953125
-0.04443359375000
0.01147460937500
-0.01605224609375
0.03552246093750
0.03656005859375
0.04333496093750
0.03601074218750
-0.03167724609375
0.01318359375000
-0.03143310546875
-0.00256347656250
-0.02960205078125
-0.02294921875000
-0.03601074218750
-0.02178955078125
-0.02246093750000
0.04425048828125
-0.04309082031250
-0.01892089843750
0.03247070312500
0.03051757812500
0.04864501953125
-0.00488281250000
-0.01184082031250
0.00720214843750
-0.03833007812500
-0.00421142578125
-0.05334472656250
0.04748535156250
0.00402832031250
0.03143310546875
-0.01037597656250
0.03967285156250
-0.04669189453125
-0.03808593750000
-0.01495361328125
-0.00494384765625
0.04113769531250
-0.00048828125000
-0.00323486328125
-0.02532958984375
0.04089355468750
-0.04168701171875
0.02136230468750
0.04608154296875
-0.03588867187500
0.00189208984375
0.01318359375000
0.00958251953125
-0.05023193359375
-0.05352783203125
-0.02465820312500
-0.00408935546875
0.02490234375000
-0.01098632812500
0.00207519531250
0.01721191406250
0.00976562500000
-0.00592041015625
0.01470947265625
-0.03216552734375
-0.04608154296875
0.05212402343750
-0.03106689453125
0.04248046875000
0.02416992187500
0.03710937500000
-0.00732421875000
-0.02844238281250
-0.03765869140625
-0.05059814453125
-0.03320312500000
0.02703857421875
0.04858398437500
-0.04809570312500
-0.02636718750000
0.03533935546875
0.02978515625000
-0.05200195312500
0.03869628906250
0.01177978515625
-0.01654052734375
0.03063964843750
-0.04541015625000
0.02984619140625
-0.01684570312500
0.03247070312500
0.03887939453125
-0.01214599609375
0.00140380859375
0.04425048828125
-0.02905273437500
0.03375244140625
-0.05395507812500
-0.01330566406250
-0.00939941406250
0.00036621093750
0.02093505859375
0.02374267578125
-0.02789306640625
0.00964355468750
-0.00872802734375
-0.03350830078125
-0.01373291015625
0.03295898437500
0.00061035156250
0.00347900390625
-0.00982666015625
0.05242919921875
0.03979492187500
0.02661132812500
0.02429199218750
-0.01483154296875
0.01037597656250
-0.04913330078125
0.01098632812500
-0.01574707031250
-0.02899169921875
0.03430175781250
-0.02423095703125
0.03198242187500
0.00964355468750
0.03814697265625
0.02911376953125
0.00335693359375
-0.04968261718750
-0.01892089843750
0.04565429687500
-0.00244140625000
0.03662109375000
-0.01916503906250
0.02392578125000
-0.00592041015625
0.00372314453125
0.01257324218750
-0.04266357421875
0.05163574218750
0.03631591796875
0.01403808593750
-0.01953125000000
0.04382324218750
-0.02911376953125
-0.02691650390625
-0.01721191406250
-0.00189208984375
-0.00714111328125
-0.02288818359375
-0.04284667968750
0.04498291015625
0.02392578125000
-0.01574707031250
-0.03088378906250
-0.04290771484375
-0.01525878906250
0.02191162109375
-0.04809570312500
0.00610351562500
0.00585937500000
0.02374267578125
-0.03448486328125
-0.03845214843750
-0.03082275390625
0.01257324218750
-0.02386474609375
-0.01953125000000
0.03283691406250
0.00628662109375
0.00762939453125
-0.04937744140625
-0.05145263671875
-0.03167724609375
0.03741455078125
-0.05157470703125
0.04833984375000
-0.04083251953125
-0.02203369140625
-0.00677490234375
-0.01538085937500
0.03295898437500
0.00616455078125
-0.02471923828125
0.04534912109375
0.02978515625000
-0.01782226562500
0.00897216796875
0.02911376953125
0.04052734375000
0.03552246093750
-0.04003906250000
0.03704833984375
0.03051757812500
0.00579833984375
-0.00311279296875
-0.00402832031250
-0.04034423828125
0.00518798828125
0.04992675781250
-0.02130126953125
-0.01391601562500
-0.04400634765625
-0.02264404296875
0.01464843750000
0.02453613281250
-0.03851318359375
0.01086425781250
-0.01312255859375
-0.02770996093750
-0.01904296875000
-0.03002929687500
-0.00787353515625
0.02288818359375
-0.02105712890625
0.02099609375000
0.03668212890625
-0.02056884765625
0.04730224609375
-0.00726318359375
-0.03442382812500
-0.04437255859375
0.00354003906250
0.04931640625000
0.04040527343750
-0.02777099609375
-0.00695800781250
0.01940917968750
-0.00781250000000
-0.02795410156250
0.04846191406250
0.00512695312500
0.05224609375000
0.01928710937500
-0.04687500000000
0.02880859375000
-0.02484130859375
-0.01928710937500
-0.01049804687500
-0.02691650390625
0.02557373046875
-0.00616455078125
-0.01428222656250
0.04577636718750
0.00799560546875
0.05358886718750
-0.05181884765625
0.02056884765625
-0.04260253906250
0.01916503906250
0.00512695312500
-0.02532958984375
0.00103759765625
-0.05212402343750
0.03424072265625
-0.00665283203125
0.01562500000000
0.04663085937500
-0.01660156250000
0.02008056640625
0.01306152343750
-0.04711914062500
-0.04827880859375
-0.04248046875000
-0.03302001953125
-0.00592041015625
0.04803466796875
-0.02960205078125
0.02978515625000
0.03900146484375
0.02838134765625
-0.01416015625000
0.01989746093750
0.01007080078125
-0.00305175781250
-0.00384521484375
-0.03936767578125
-0.00195312500000
-0.03247070312500
0.00683593750000
-0.05047607421875
0.04736328125000
-0.01574707031250
0.00744628906250
-0.00958251953125
0.05084228515625
0.03851318359375
-0.03948974609375
-0.02563476562500
-0.00982666015625
-0.00299072265625
0.04571533203125
-0.00708007812500
-0.02850341796875
0.01757812500000
0.03741455078125
0.00537109375000
0.04028320312500
0.00457763671875
-0.02752685546875
0.05273437500000
-0.02349853515625
0.00262451171875
-0.04876708984375
-0.04772949218750
0.00598144531250
0.03509521484375
-0.05285644531250
0.02185058593750
0.00537109375000
0.01544189453125
-0.00769042968750
-0.01232910156250
0.04254150390625
-0.05657958984375
0.00512695312500
-0.04876708984375
0.04748535156250
0.01635742187500
0.01763916015625
-0.04583740234375
0.04748535156250
0.02136230468750
-0.00598144531250
0.00256347656250
0.02056884765625
-0.04211425781250
0.01257324218750
0.01556396484375
-0.01220703125000
-0.01342773437500
0.03198242187500
-0.04895019531250
0.04339599609375
-0.04663085937500
0.05395507812500
-0.02990722656250
-0.03314208984375
-0.02191162109375
0.02362060546875
-0.02124023437500
0.03753662109375
0.03137207031250
-0.03533935546875
-0.04669189453125
-0.00756835937500
0.02441406250000
0.01135253906250
-0.05035400390625
0.03588867187500
0.04876708984375
0.01635742187500
0.02404785156250
-0.01727294921875
-0.03521728515625
-0.01007080078125
0.02716064453125
0.01232910156250
0.00244140625000
0.03363037109375
0.03668212890625
-0.00646972656250
-0.01147460937500
0.02380371093750
-0.01666259765625
0.02526855468750
-0.02832031250000
0.03515625000000
-0.01611328125000
-0.03009033203125
0.00708007812500
0.02691650390625
-0.05310058593750
0.01007080078125
-0.01940917968750
-0.00555419921875
-0.01757812500000
-0.05407714843750
0.01184082031250
-0.05169677734375
-0.00994873046875
0.00799560546875
0.02929687500000
0.00518798828125
-0.05053710937500
-0.01397705078125
-0.03295898437500
0.02087402343750
-0.03704833984375
0.04064941406250
-0.02587890625000
0.01452636718750
0.03686523437500
-0.03588867187500
-0.00018310546875
0.05206298828125
0.01635742187500
0.03820800781250
-0.05194091796875
0.03735351562500
-0.04895019531250
0.04730224609375
0.04138183593750
0.03619384765625
-0.00708007812500
-0.01654052734375
-0.02722167968750
-0.04132080078125
-0.05352783203125
0.02380371093750
0.04235839843750
-0.04559326171875
0.04248046875000
-0.01690673828125
-0.00897216796875
-0.00183105468750
-0.02319335937500
0.01452636718750
0.03558349609375
0.03863525390625
0.00146484375000
-0.01818847656250
-0.01226806640625
-0.01696777343750
0.01562500000000
0.04132080078125
0.02185058593750
-0.03698730468750
-0.01452636718750
-0.04028320312500
0.01892089843750
0.03784179687500
-0.02478027343750
-0.02429199218750
-0.04949951171875
0.03582763671875
0.01660156250000
-0.01751708984375
-0.05194091796875
-0.01330566406250
-0.02905273437500
-0.01538085937500
-0.04742431640625
0.02496337890625
0.05340576171875
0.02203369140625
0.00817871093750
0.03070068359375
-0.01928710937500
0.03857421875000
-0.02874755859375
-0.04022216796875
-0.00762939453125
0.04455566406250
0.04101562500000
0.01428222656250
-0.05163574218750
-0.04125976562500
-0.03192138671875
-0.01617431640625
0.04937744140625
-0.02301025390625
0.01525878906250
0.05334472656250
-0.03051757812500
0.02282714843750
0.03259277343750
-0.00964355468750
0.03015136718750
-0.01513671875000
0.04669189453125
-0.01373291015625
0.04321289062500
0.04547119140625
-0.00848388671875
0.01269531250000
-0.04528808593750
-0.00079345703125
0.00256347656250
0.00622558593750
-0.02227783203125
0.00042724609375
0.02490234375000
-0.01690673828125
-0.03308105468750
0.05316162109375
-0.03723144531250
0.05261230468750
-0.04486083984375
-0.01037597656250
0.03466796875000
-0.05200195312500
-0.03820800781250
-0.00817871093750
0.01361083984375
-0.02844238281250
-0.04290771484375
0.00927734375000
0.03179931640625
-0.01611328125000
0.04443359375000
0.03765869140625
-0.02703857421875
0.05340576171875
0.05090332031250
-0.04608154296875
0.02935791015625
-0.04522705078125
-0.02319335937500
-0.02691650390625
-0.03277587890625
0.04321289062500
-0.04681396484375
-0.00219726562500
-0.04870605468750
0.02685546875000
0.02465820312500
0.04132080078125
0.04577636718750
-0.01116943359375
0.00354003906250
-0.02789306640625
-0.03985595703125
-0.00744628906250
-0.05206298828125
0.05157470703125
0.03106689453125
0.02423095703125
0.01159667968750
-0.04852294921875
0.04681396484375
0.01104736328125
-0.01715087890625
-0.01220703125000
-0.05291748046875
-0.06048583984375
0.02728271484375
0.04711914062500
0.03863525390625
-0.04815673828125
0.01568603515625
-0.02539062500000
0.04699707031250
-0.00799560546875
0.03662109375000
-0.00628662109375
-0.02050781250000
0.03253173828125
0.00854492187500
0.01281738281250
0.04406738281250
-0.05383300781250
-0.03839111328125
-0.04260253906250
0.01440429687500
0.02850341796875
-0.05303955078125
0.01867675781250
0.01794433593750
0.02532958984375
-0.02789306640625
0.00170898437500
0.04663085937500
-0.00952148437500
0.04809570312500
0.02770996093750
0.01470947265625
-0.03826904296875
0.00976562500000
-0.01416015625000
0.00579833984375
0.05163574218750
-0.01147460937500
-0.03247070312500
0.02209472656250
0.03094482421875
0.00946044921875
0.01910400390625
0.03515625000000
0.04211425781250
-0.03912353515625
-0.04229736328125
0.01190185546875
0.01763916015625
-0.03009033203125
0.02838134765625
0.00903320312500
0.00054931640625
0.02258300781250
-0.00274658203125
0.00457763671875
0.01300048828125
-0.01617431640625
0.03588867187500
-0.00323486328125
-0.05041503906250
0.00769042968750
-0.03320312500000
-0.04840087890625
0.01861572265625
0.03515625000000
-0.02770996093750
-0.04736328125000
0.04943847656250
-0.03411865234375
-0.02099609375000
0.04064941406250
0.01586914062500
-0.04821777343750
-0.03851318359375
0.02740478515625
0.02227783203125
-0.01696777343750
-0.04803466796875
0.01361083984375
-0.03631591796875
0.05297851562500
0.03106689453125
0.00646972656250
-0.02160644531250
0.00866699218750
-0.01483154296875
-0.01586914062500
0.03405761718750
0.03521728515625
-0.03643798828125
0.02313232421875
0.00341796875000
-0.01574707031250
0.03240966796875
-0.00360107421875
0.04608154296875
-0.00549316406250
-0.00579833984375
0.02667236328125
0.02404785156250
-0.04119873046875
-0.02423095703125
-0.01763916015625
-0.05120849609375
0.01892089843750
0.00000000000000
-0.03259277343750
0.03430175781250
-0.01074218750000
0.02569580078125
0.00769042968750
-0.01013183593750
-0.02246093750000
-0.02398681640625
0.03839111328125
-0.03021240234375
-0.01031494140625
0.04901123046875
-0.00457763671875
0.05053710937500
0.04467773437500
0.00329589843750
0.04016113281250
-0.03338623046875
-0.03436279296875
-0.01947021484375
-0.05297851562500
0.03491210937500
0.01635742187500
0.00292968750000
0.00976562500000
0.04632568359375
-0.02478027343750
-0.04003906250000
0.04553222656250
-0.04864501953125
-0.03192138671875
0.03521728515625
-0.04882812500000
0.02069091796875
-0.05285644531250
0.00561523437500
-0.01940917968750
0.03625488281250
-0.03570556640625
0.04956054687500
0.00213623046875
-0.01861572265625
0.01348876953125
-0.03942871093750
-0.01635742187500
-0.04687500000000
0.05816650390625
0.00946044921875
0.04327392578125
-0.05029296875000
0.00640869140625
-0.00427246093750
-0.01202392578125
-0.01409912109375
0.00531005859375
-0.00152587890625
-0.03137207031250
0.01824951171875
-0.00463867187500
0.00958251953125
0.04467773437500
0.03967285156250
-0.00433349609375
0.03643798828125
-0.04382324218750
-0.03552246093750
-0.05841064453125
-0.04498291015625
0.04071044921875
-0.04528808593750
-0.01458740234375
-0.00408935546875
-0.02502441406250
-0.00982666015625
-0.04217529296875
0.03637695312500
0.03308105468750
0.03924560546875
-0.03485107421875
-0.01782226562500
0.00830078125000
0.01019287109375
-0.01281738281250
-0.04431152343750
-0.04815673828125
-0.02008056640625
0.03546142578125
-0.01672363281250
-0.04644775390625
0.01934814453125
0.05102539062500
-0.05126953125000
-0.04547119140625
-0.01745605468750
0.04638671875000
0.01019287109375
0.01495361328125
0.02764892578125
0.01104736328125
-0.00012207031250
0.00616455078125
0.05413818359375
-0.05273437500000
-0.03570556640625
-0.03021240234375
0.04437255859375
-0.03649902343750
-0.04675292968750
-0.04003906250000
0.03491210937500
-0.03137207031250
-0.01043701171875
-0.00878906250000
-0.00341796875000
-0.00476074218750
0.03686523437500
-0.00073242187500
0.05133056640625
-0.02813720703125
-0.04132080078125
-0.01879882812500
-0.02911376953125
-0.02587890625000
0.01599121093750
-0.00659179687500
-0.01190185546875
0.02154541015625
-0.04364013671875
0.04125976562500
0.05303955078125
-0.02526855468750
-0.04498291015625
0.04144287109375
0.05212402343750
0.02252197265625
0.03356933593750
-0.03149414062500
-0.03240966796875
-0.03179931640625
-0.03088378906250
0.04321289062500
0.01196289062500
0.01544189453125
-0.04089355468750
-0.00457763671875
0.05371093750000
0.02917480468750
0.01910400390625
0.02563476562500
0.00006103515625
0.02471923828125
0.03045654296875
-0.04095458984375
-0.02252197265625
0.01885986328125
0.01025390625000
0.02203369140625
-0.03240966796875
0.00738525390625
-0.04168701171875
0.02398681640625
0.03570556640625
-0.00744628906250
0.04620361328125
-0.00939941406250
0.01928710937500
0.05102539062500
-0.04693603515625
-0.03381347656250
0.00781250000000
0.02752685546875
0.03106689453125
0.04846191406250
-0.00830078125000
0.02313232421875
-0.01062011718750
0.04400634765625
-0.00354003906250
0.03613281250000
-0.04827880859375
-0.00225830078125
0.05200195312500
-0.00659179687500
-0.01489257812500
-0.01812744140625
-0.01947021484375
-0.02404785156250
-0.02581787109375
-0.00872802734375
0.05645751953125
-0.05249023437500
-0.02380371093750
-0.02758789062500
0.02490234375000
0.04461669921875
-0.01007080078125
-0.00878906250000
0.05194091796875
-0.04235839843750
0.03375244140625
-0.01007080078125
0.03289794921875
0.04687500000000
0.04223632812500
-0.04418945312500
-0.04193115234375
0.03265380859375
0.01696777343750
-0.04125976562500
-0.02069091796875
0.03082275390625
-0.01873779296875
-0.03460693359375
0.02960205078125
0.01245117187500
-0.03118896484375
-0.00903320312500
0.02905273437500
-0.04107666015625
0.04290771484375
0.03088378906250
-0.03198242187500
0.02081298828125
-0.03112792968750
-0.02990722656250
-0.01062011718750
-0.03936767578125
-0.01605224609375
-0.05895996093750
0.04522705078125
0.00769042968750
0.04577636718750
0.04095458984375
-0.01257324218750
-0.02954101562500
-0.05242919921875
-0.04840087890625
-0.03375244140625
-0.04791259765625
0.03234863281250
0.04937744140625
-0.00103759765625
0.02038574218750
-0.00793457031250
-0.01025390625000
-0.00347900390625
0.02093505859375
0.00585937500000
0.04547119140625
0.01757812500000
-0.03607177734375
-0.01721191406250
0.03430175781250
0.00939941406250
-0.02630615234375
0.04449462890625
-0.04077148437500
-0.00659179687500
-0.01983642578125
0.01470947265625
-0.00299072265625
-0.03625488281250
-0.04681396484375
0.04620361328125
0.02716064453125
0.03509521484375
-0.04223632812500
-0.00134277343750
0.02307128906250
0.01629638671875
0.03558349609375
0.02117919921875
-0.02490234375000
-0.05096435546875
-0.03875732421875
-0.01458740234375
0.02081298828125
0.00231933593750
-0.02331542968750
-0.03076171875000
-0.00665283203125
-0.01489257812500
0.02050781250000
-0.03497314453125
-0.00439453125000
-0.04199218750000
-0.00823974609375
-0.02142333984375
-0.04351806640625
-0.00109863281250
-0.04638671875000
0.00732421875000
0.01025390625000
-0.02093505859375
0.04589843750000
0.01422119140625
-0.04943847656250
-0.04754638671875
0.01843261718750
-0.04943847656250
-0.01379394531250
0.04675292968750
0.01550292968750
-0.03558349609375
0.04943847656250
-0.02764892578125
-0.03350830078125
-0.04351806640625
0.03405761718750
-0.02960205078125
-0.05072021484375
0.02416992187500
0.01373291015625
0.00598144531250
-0.02685546875000
0.04614257812500
-0.01263427734375
0.04968261718750
0.00408935546875
-0.00329589843750
-0.04949951171875
0.01000976562500
-0.02502441406250
-0.05041503906250
-0.04547119140625
0.00433349609375
-0.02923583984375
-0.00976562500000
0.00036621093750
-0.02166748046875
-0.04748535156250
0.04498291015625
0.04730224609375
-0.02105712890625
0.00415039062500
-0.00219726562500
0.02703857421875
-0.03790283203125
-0.02600097656250
0.04980468750000
0.00952148437500
0.01287841796875
0.02777099609375
0.05212402343750
0.02465820312500
-0.00378417968750
-0.03930664062500
0.04284667968750
0.03173828125000
0.03204345703125
-0.02160644531250
-0.00714111328125
0.02722167968750
-0.00396728515625
-0.04016113281250
-0.01593017578125
0.03381347656250
-0.04992675781250
-0.01885986328125
0.03057861328125
-0.05151367187500
0.05236816406250
0.00506591796875
0.02917480468750
-0.03533935546875
-0.01580810546875
0.03247070312500
0.00073242187500
0.05181884765625
0.03045654296875
0.03314208984375
0.03460693359375
-0.02325439453125
-0.01245117187500
-0.04260253906250
-0.00024414062500
-0.03985595703125
-0.03527832031250
0.00891113281250
0.05242919921875
-0.01892089843750
-0.01470947265625
-0.04864501953125
-0.05017089843750
0.00982666015625
-0.01574707031250
-0.01654052734375
0.03228759765625
0.00964355468750
-0.02429199218750
0.05047607421875
0.02508544921875
-0.01995849609375
0.01977539062500
-0.02618408203125
-0.02441406250000
0.04431152343750
-0.00018310546875
-0.00115966796875
0.02124023437500
0.01391601562500
0.03399658203125
-0.00311279296875
0.04663085937500
-0.03338623046875
0.00500488281250
0.02001953125000
-0.02337646484375
0.01934814453125
0.02789306640625
-0.03082275390625
0.02020263671875
-0.00787353515625
0.03302001953125
0.02050781250000
-0.05065917968750
0.00048828125000
-0.03930664062500
0.02673339843750
0.03741455078125
0.00878906250000
-0.04461669921875
-0.01635742187500
-0.01025390625000
0.01470947265625
0.01086425781250
-0.05346679687500
-0.01739501953125
-0.01043701171875
0.00665283203125
0.01879882812500
-0.00671386718750
0.03924560546875
-0.03063964843750
0.00701904296875
-0.00518798828125
-0.01086425781250
-0.02276611328125
-0.03710937500000
0.02093505859375
-0.00500488281250
-0.01434326171875
-0.00549316406250
0.00610351562500
0.03991699218750
0.02056884765625
-0.02758789062500
0.02386474609375
0.00494384765625
-0.00921630859375
-0.02301025390625
0.02496337890625
0.01068115234375
-0.02575683593750
0.04705810546875
0.03045654296875
0.01037597656250
0.05108642578125
0.04602050781250
-0.01910400390625
-0.00653076171875
-0.02264404296875
0.03967285156250
0.02349853515625
-0.02532958984375
0.01196289062500
-0.01617431640625
0.04669189453125
-0.03411865234375
0.02331542968750
0.03845214843750
0.00897216796875
-0.05334472656250
-0.01354980468750
-0.00262451171875
0.03631591796875
0.02941894531250
0.02600097656250
0.04406738281250
0.01177978515625
0.03607177734375
-0.02600097656250
-0.02581787109375
-0.03704833984375
0.03161621093750
-0.04333496093750
0.02233886718750
0.02819824218750
0.01409912109375
0.01715087890625
-0.00366210937500
0.01745605468750
0.03521728515625
0.00866699218750
-0.02990722656250
0.03369140625000
0.03967285156250
-0.02185058593750
-0.01702880859375
0.02496337890625
0.03381347656250
0.00085449218750
0.02008056640625
-0.00506591796875
0.01757812500000
-0.03881835937500
0.03375244140625
0.03656005859375
-0.01080322265625
-0.01428222656250
-0.04736328125000
0.03906250000000
0.03906250000000
-0.01965332031250
0.00970458984375
-0.02935791015625
-0.03857421875000
0.03649902343750
0.02587890625000
-0.01873779296875
-0.01013183593750
-0.00787353515625
-0.05236816406250
-0.02880859375000
-0.02899169921875
-0.04663085937500
-0.05255126953125
-0.02416992187500
-0.02075195312500
-0.00415039062500
-0.02435302734375
-0.03802490234375
0.01306152343750
0.02001953125000
0.00854492187500
0.00134277343750
-0.02746582031250
0.02148437500000
0.00177001953125
-0.04510498046875
0.01129150390625
-0.03790283203125
-0.00775146484375
0.01367187500000
-0.02532958984375
0.03784179687500
-0.00695800781250
0.04272460937500
0.02758789062500
0.04351806640625
-0.00115966796875
0.00848388671875
0.03771972656250
0.03179931640625
-0.00384521484375
0.02221679687500
-0.03662109375000
0.03778076171875
0.03479003906250
-0.04211425781250
-0.01306152343750
-0.04974365234375
-0.01647949218750
0.03930664062500
0.03765869140625
-0.03637695312500
0.00701904296875
0.02136230468750
-0.02453613281250
0.03021240234375
-0.04498291015625
0.02374267578125
0.01416015625000
-0.00360107421875
-0.00561523437500
-0.04516601562500
0.03204345703125
0.01208496093750
0.03472900390625
0.03833007812500
0.00579833984375
0.00927734375000
-0.01422119140625
-0.05853271484375
-0.04425048828125
-0.02215576171875
0.00354003906250
-0.04327392578125
0.01416015625000
0.04541015625000
0.00695800781250
0.03051757812500
-0.04785156250000
-0.02819824218750
0.05175781250000
0.05255126953125
0.02355957031250
-0.02819824218750
0.03955078125000
0.02606201171875
0.02856445312500
-0.00836181640625
-0.03588867187500
0.05194091796875
0.04162597656250
-0.02874755859375
0.00146484375000
0.01806640625000
0.05291748046875
-0.04156494140625
0.00915527343750
-0.04162597656250
0.00561523437500
0.02893066406250
-0.04058837890625
-0.04888916015625
-0.05102539062500
-0.00732421875000
0.02447509765625
0.02008056640625
-0.04290771484375
0.02575683593750
-0.00964355468750
-0.05120849609375
-0.02471923828125
-0.00860595703125
-0.03936767578125
-0.01214599609375
0.00195312500000
-0.02459716796875
0.04461669921875
-0.05035400390625
-0.05334472656250
0.01873779296875
0.02581787109375
0.04461669921875
-0.00531005859375
-0.00665283203125
0.02166748046875
-0.01373291015625
0.05047607421875
-0.05548095703125
-0.00665283203125
0.04803466796875
0.04125976562500
-0.02978515625000
-0.05120849609375
-0.01947021484375
-0.04852294921875
-0.03442382812500
0.04150390625000
-0.03735351562500
0.02618408203125
0.00262451171875
0.00122070312500
0.03228759765625
0.01763916015625
-0.01458740234375
-0.03979492187500
0.04040527343750
-0.00134277343750
-0.03796386718750
-0.04638671875000
0.04626464843750
0.03210449218750
-0.03167724609375
0.02929687500000
0.00030517578125
-0.04504394531250
0.03521728515625
0.02288818359375
0.00598144531250
-0.04113769531250
0.02288818359375
0.01794433593750
-0.05316162109375
-0.04620361328125
-0.01690673828125
0.01733398437500
-0.03143310546875
-0.03875732421875
-0.04309082031250
-0.00012207031250
0.00988769531250
0.01031494140625
-0.03015136718750
-0.00256347656250
0.04254150390625
0.04302978515625
0.00848388671875
0.00964355468750
0.04498291015625
-0.03247070312500
-0.03723144531250
0.00476074218750
0.00207519531250
-0.03851318359375
0.03399658203125
0.01403808593750
-0.00604248046875
-0.02484130859375
0.05957031250000
-0.03558349609375
0.05926513671875
0.02111816406250
0.02130126953125
0.04919433593750
-0.01940917968750
0.02783203125000
0.01623535156250
0.04687500000000
-0.02130126953125
0.04052734375000
-0.01843261718750
0.02813720703125
0.01129150390625
0.01226806640625
-0.02886962890625
-0.03002929687500
0.00146484375000
-0.03765869140625
0.03411865234375
0.02172851562500
0.04565429687500
0.03198242187500
0.01092529296875
-0.00921630859375
0.00030517578125
0.04766845703125
0.02789306640625
0.03625488281250
0.00439453125000
0.03601074218750
0.01434326171875
-0.00512695312500
0.01544189453125
-0.03881835937500
-0.01660156250000
0.04241943359375
-0.01446533203125
0.03515625000000
-0.01501464843750
0.04571533203125
0.00061035156250
0.01708984375000
-0.01556396484375
0.03179931640625
-0.01312255859375
-0.03808593750000
-0.03179931640625
0.05773925781250
-0.04284667968750
-0.01025390625000
0.04766845703125
0.02899169921875
-0.00793457031250
-0.04321289062500
0.01379394531250
0.02380371093750
-0.04022216796875
-0.04040527343750
-0.02044677734375
-0.02441406250000
0.03588867187500
-0.00659179687500
0.03179931640625
-0.01672363281250
0.00329589843750
0.04223632812500
-0.05578613281250
0.01464843750000
0.02337646484375
0.01531982421875
0.00146484375000
-0.00238037109375
0.04559326171875
0.04742431640625
0.04595947265625
0.03851318359375
0.00250244140625
-0.05389404296875
-0.04138183593750
-0.02343750000000
-0.00646972656250
0.02825927734375
-0.02539062500000
-0.00103759765625
0.00933837890625
0.04711914062500
0.03613281250000
0.02825927734375
0.04254150390625
-0.00659179687500
-0.01678466796875
0.04888916015625
0.01904296875000
0.01995849609375
-0.04797363281250
-0.02014160156250
-0.04101562500000
0.03143310546875
0.04119873046875
0.03601074218750
0.00097656250000
-0.03509521484375
-0.04931640625000
-0.00720214843750
-0.02050781250000
-0.01220703125000
0.01000976562500
-0.02398681640625
0.02416992187500
-0.02429199218750
0.00561523437500
-0.01098632812500
-0.01837158203125
-0.03363037109375
-0.01947021484375
0.00811767578125
-0.01641845703125
-0.05255126953125
0.04351806640625
-0.01501464843750
-0.04010009765625
-0.01904296875000
-0.01220703125000
-0.02056884765625
-0.01989746093750
-0.02471923828125
-0.00695800781250
0.01116943359375
0.03497314453125
-0.05297851562500
-0.01123046875000
0.01110839843750
-0.02020263671875
-0.00921630859375
-0.03417968750000
-0.01757812500000
-0.02148437500000
-0.03338623046875
-0.01702880859375
0.03436279296875
-0.04888916015625
0.02709960937500
-0.04089355468750
0.03479003906250
-0.01214599609375
-0.03271484375000
0.01531982421875
0.00732421875000
-0.02593994140625
0.04772949218750
0.01251220703125
-0.00311279296875
-0.04693603515625
-0.01477050781250
0.03869628906250
0.05023193359375
0.05194091796875
-0.00384521484375
-0.02911376953125
-0.02166748046875
-0.00744628906250
0.04351806640625
0.02380371093750
0.00097656250000
0.03118896484375
-0.00488281250000
-0.02490234375000
0.03112792968750
-0.01483154296875
-0.01586914062500
-0.02270507812500
-0.02618408203125
0.01245117187500
0.04925537109375
-0.00646972656250
0.01678466796875
0.01416015625000
-0.00469970703125
-0.01397705078125
-0.04425048828125
0.02136230468750
-0.02307128906250
0.00860595703125
-0.01025390625000
0.02191162109375
0.03448486328125
-0.03228759765625
0.01708984375000
-0.00115966796875
0.02416992187500
0.00134277343750
0.04351806640625
-0.04138183593750
0.05334472656250
-0.01196289062500
-0.03601074218750
0.01403808593750
0.04718017578125
-0.00524902343750
0.01062011718750
0.01708984375000
-0.02874755859375
-0.00567626953125
-0.02227783203125
0.03729248046875
0.04486083984375
-0.03601074218750
0.01153564453125
-0.01898193359375
-0.00140380859375
-0.03570556640625
-0.01550292968750
-0.00408935546875
-0.00616455078125
-0.02832031250000
0.04821777343750
0.02313232421875
-0.00195312500000
0.01068115234375
0.05004882812500
-0.03759765625000
-0.02239990234375
0.00799560546875
0.00189208984375
-0.03002929687500
-0.05444335937500
-0.01812744140625
0.04339599609375
-0.01202392578125
0.02679443359375
-0.03106689453125
0.00366210937500
-0.00659179687500
-0.01635742187500
0.00939941406250
-0.04791259765625
0.00982666015625
-0.04736328125000
0.03338623046875
-0.02325439453125
-0.01464843750000
-0.02716064453125
0.04370117187500
0.03765869140625
-0.01806640625000
0.00854492187500
0.01763916015625
-0.01678466796875
-0.02062988281250
-0.04034423828125
-0.01824951171875
0.05145263671875
-0.00421142578125
-0.01220703125000
0.04852294921875
-0.04644775390625
0.00885009765625
0.00988769531250
-0.03686523437500
-0.01544189453125
-0.00091552734375
-0.02447509765625
0.01910400390625
-0.03216552734375
-0.02435302734375
-0.02087402343750
-0.03009033203125
0.00292968750000
-0.03875732421875
0.01306152343750
-0.04852294921875
0.05242919921875
-0.02557373046875
0.00653076171875
-0.05200195312500
-0.03894042968750
-0.04449462890625
-0.04284667968750
-0.00665283203125
0.05419921875000
0.03540039062500
-0.04614257812500
-0.04663085937500
-0.04235839843750
0.03643798828125
-0.01818847656250
-0.05078125000000
-0.02252197265625
-0.02374267578125
-0.00097656250000
-0.01544189453125
0.01959228515625
0.01049804687500
-0.02075195312500
0.04559326171875
0.00061035156250
0.05261230468750
-0.01660156250000
-0.01806640625000
-0.02331542968750
-0.02087402343750
-0.01849365234375
0.02862548828125
-0.01483154296875
0.02014160156250
-0.02404785156250
0.01080322265625
0.04205322265625
-0.02777099609375
-0.04650878906250
-0.00360107421875
-0.01000976562500
0.03350830078125
-0.03991699218750
0.03430175781250
-0.01727294921875
-0.02862548828125
-0.02508544921875
0.03991699218750
0.04071044921875
-0.01092529296875
-0.04528808593750
0.01654052734375
0.04992675781250
0.04998779296875
-0.03106689453125
0.01641845703125
0.03332519531250
0.02111816406250
-0.03002929687500
0.03277587890625
-0.04516601562500
0.00323486328125
0.00805664062500
-0.05096435546875
-0.02380371093750
-0.01879882812500
-0.01660156250000
-0.00268554687500
0.05163574218750
-0.01947021484375
-0.04040527343750
-0.00122070312500
-0.00512695312500
0.00787353515625
-0.01605224609375
-0.01171875000000
0.04547119140625
-0.04437255859375
0.01367187500000
-0.00537109375000
0.04437255859375
0.02581787109375
-0.04248046875000
-0.02673339843750
-0.02233886718750
0.04010009765625
-0.00653076171875
-0.03167724609375
0.01641845703125
0.02459716796875
-0.00030517578125
-0.04412841796875
0.00775146484375
-0.01989746093750
0.01385498046875
-0.01751708984375
-0.03002929687500
0.02899169921875
-0.03381347656250
0.01586914062500
0.02838134765625
0.00659179687500
-0.02697753906250
0.04852294921875
0.04742431640625
0.03375244140625
0.04241943359375
0.01055908203125
0.05096435546875
0.01202392578125
-0.01818847656250
-0.04028320312500
0.03991699218750
0.04882812500000
0.04254150390625
-0.02380371093750
-0.02551269531250
0.00543212890625
-0.05297851562500
0.02716064453125
0.02984619140625
-0.00103759765625
-0.00671386718750
-0.05267333984375
0.04040527343750
0.00744628906250
-0.04931640625000
-0.04583740234375
0.00634765625000
0.03662109375000
-0.02160644531250
-0.01464843750000
0.02642822265625
0.00970458984375
0.01037597656250
-0.01647949218750
0.01605224609375
-0.04040527343750
-0.02801513671875
0.01251220703125
0.02874755859375
0.02435302734375
0.04339599609375
0.04516601562500
-0.03375244140625
-0.02484130859375
0.03857421875000
0.05206298828125
0.01031494140625
0.05255126953125
0.04803466796875
-0.02325439453125
0.01513671875000
0.02929687500000
0.01800537109375
0.01574707031250
-0.02008056640625
-0.02630615234375
0.02404785156250
-0.02294921875000
0.01019287109375
-0.02728271484375
-0.02777099609375
-0.04425048828125
0.01141357421875
-0.03112792968750
-0.00317382812500
-0.03552246093750
-0.03778076171875
0.03637695312500
-0.01367187500000
0.04321289062500
-0.01757812500000
0.04388427734375
0.00811767578125
-0.04418945312500
0.02160644531250
-0.03344726562500
-0.02404785156250
0.00482177734375
0.03546142578125
-0.04272460937500
-0.03497314453125
0.02856445312500
-0.03814697265625
0.03698730468750
-0.03057861328125
-0.05316162109375
0.04510498046875
-0.04235839843750
-0.01336669921875
-0.00170898437500
-0.04888916015625
0.02868652343750
0.00958251953125
-0.04937744140625
-0.04998779296875
0.04583740234375
0.01434326171875
-0.04394531250000
0.04846191406250
0.01647949218750
-0.02703857421875
-0.01263427734375
-0.02954101562500
-0.02154541015625
0.03271484375000
-0.00946044921875
0.03900146484375
-0.02905273437500
0.02380371093750
-0.00573730468750
-0.01684570312500
0.03765869140625
-0.02819824218750
-0.05712890625000
-0.03448486328125
-0.04376220703125
0.02990722656250
0.04351806640625
-0.01196289062500
-0.02252197265625
0.01507568359375
-0.04217529296875
-0.00927734375000
0.00726318359375
-0.01446533203125
0.01837158203125
0.05236816406250
0.04278564453125
0.02075195312500
0.00659179687500
0.00158691406250
-0.01666259765625
-0.01989746093750
-0.03314208984375
-0.03515625000000
0.01043701171875
0.03784179687500
-0.04388427734375
0.03985595703125
-0.00250244140625
-0.00787353515625
-0.01293945312500
-0.02301025390625
0.01672363281250
0.01770019531250
-0.03503417968750
-0.01641845703125
0.04473876953125
-0.03729248046875
-0.04705810546875
-0.02685546875000
-0.02813720703125
-0.04119873046875
0.01788330078125
0.05004882812500
-0.03363037109375
0.01696777343750
0.01733398437500
-0.03833007812500
0.00311279296875
0.04022216796875
0.01458740234375
-0.02893066406250
-0.02148437500000
-0.04644775390625
0.02563476562500
0.00286865234375
0.00018310546875
-0.02514648437500
-0.02990722656250
-0.03259277343750
0.00494384765625
0.04516601562500
-0.00659179687500
0.03576660156250
-0.05688476562500
0.02551269531250
-0.03491210937500
0.01104736328125
0.03479003906250
0.00036621093750
-0.03424072265625
0.02764892578125
-0.04235839843750
-0.05395507812500
0.01544189453125
0.00000000000000
0.02673339843750
0.02001953125000
-0.01910400390625
-0.03039550781250
0.04687500000000
-0.00683593750000
-0.00311279296875
0.04364013671875
0.01464843750000
0.00964355468750
-0.03729248046875
0.00177001953125
0.00640869140625
-0.02624511718750
-0.01458740234375
-0.00250244140625
0.00183105468750
-0.01959228515625
0.02551269531250
0.00531005859375
0.01220703125000
-0.00494384765625
0.05554199218750
0.03857421875000
0.04461669921875
-0.00042724609375
0.04473876953125
0.05242919921875
0.00140380859375
0.04486083984375
0.04534912109375
-0.00628662109375
-0.00360107421875
-0.04125976562500
0.02935791015625
0.04119873046875
0.01788330078125
-0.01531982421875
-0.00390625000000
-0.02185058593750
-0.02868652343750
-0.00909423828125
0.05096435546875
0.02770996093750
-0.00866699218750
-0.00933837890625
-0.02679443359375
-0.03582763671875
-0.00421142578125
0.04351806640625
-0.01147460937500
0.00268554687500
-0.04290771484375
0.00811767578125
-0.02770996093750
-0.04461669921875
0.02691650390625
0.05340576171875
-0.02697753906250
-0.02349853515625
-0.02136230468750
-0.04284667968750
0.04461669921875
0.05108642578125
-0.03662109375000
-0.03057861328125
-0.01794433593750
-0.00262451171875
0.03051757812500
0.01116943359375
-0.01629638671875
-0.01959228515625
0.01849365234375
-0.04809570312500
-0.02410888671875
0.03515625000000
0.01123046875000
-0.01782226562500
0.01623535156250
-0.03637695312500
0.03234863281250
0.03741455078125
0.02221679687500
-0.04779052734375
0.02380371093750
-0.01226806640625
0.02917480468750
-0.00122070312500
-0.04339599609375
-0.01080322265625
-0.04760742187500
0.03259277343750
0.05255126953125
0.00567626953125
-0.01617431640625
-0.00250244140625
0.01531982421875
-0.00500488281250
-0.01519775390625
-0.01690673828125
0.00146484375000
0.00823974609375
-0.00689697265625
0.05017089843750
0.01647949218750
-0.01086425781250
0.04766845703125
-0.03442382812500
-0.03033447265625
-0.00555419921875
0.00646972656250
-0.00036621093750
-0.04266357421875
0.04724121093750
0.03717041015625
-0.04504394531250
0.02441406250000
-0.00610351562500
0.01531982421875
0.02636718750000
-0.01635742187500
-0.04620361328125
0.02886962890625
-0.04138183593750
0.04858398437500
0.04095458984375
0.00909423828125
0.02636718750000
0.05187988281250
0.03985595703125
-0.00170898437500
-0.01074218750000
0.00903320312500
-0.00903320312500
0.00079345703125
-0.02947998046875
0.03149414062500
0.02539062500000
0.03509521484375
-0.01867675781250
-0.00238037109375
-0.02203369140625
0.02905273437500
0.04925537109375
0.01464843750000
-0.04199218750000
-0.03894042968750
-0.05029296875000
-0.02752685546875
0.03845214843750
0.02850341796875
-0.03601074218750
-0.00366210937500
-0.03222656250000
-0.04132080078125
-0.02819824218750
0.02081298828125
-0.01123046875000
-0.00726318359375
-0.01977539062500
-0.02923583984375
0.01025390625000
0.04809570312500
-0.01660156250000
0.01959228515625
-0.03778076171875
-0.04827880859375
0.01635742187500
0.00817871093750
0.00085449218750
-0.00878906250000
-0.01147460937500
0.00439453125000
-0.02581787109375
0.01171875000000
-0.03607177734375
0.03643798828125
-0.02667236328125
0.02392578125000
-0.01763916015625
-0.02593994140625
0.01702880859375
0.04821777343750
0.01770019531250
-0.03643798828125
-0.03826904296875
-0.01550292968750
-0.00054931640625
-0.03173828125000
0.04211425781250
-0.03765869140625
-0.05895996093750
0.01513671875000
0.05682373046875
0.03002929687500
-0.01904296875000
0.02136230468750
0.01843261718750
0.00799560546875
0.01654052734375
0.00506591796875
0.02453613281250
0.05731201171875
0.04321289062500
0.06182861328125
-0.04797363281250
-0.04217529296875
0.02288818359375
-0.04809570312500
0.03991699218750
-0.00244140625000
-0.00286865234375
-0.02917480468750
-0.03155517578125
0.02062988281250
0.01074218750000
-0.03704833984375
-0.02209472656250
0.05450439453125
0.02203369140625
-0.00982666015625
-0.00463867187500
0.01434326171875
0.02117919921875
0.05828857421875
0.05938720703125
0.04974365234375
-0.00115966796875
0.02697753906250
-0.01306152343750
-0.03900146484375
-0.02160644531250
-0.01861572265625
-0.03430175781250
0.03851318359375
0.00671386718750
-0.03057861328125
-0.02062988281250
-0.05963134765625
-0.02062988281250
0.02600097656250
0.03283691406250
-0.03839111328125
0.01312255859375
-0.03454589843750
0.00152587890625
-0.00274658203125
-0.00903320312500
-0.03497314453125
0.02471923828125
-0.04870605468750
-0.03253173828125
0.01623535156250
0.02728271484375
0.00073242187500
0.01379394531250
-0.01165771484375
-0.00054931640625
0.05096435546875
0.02679443359375
-0.00158691406250
0.00073242187500
-0.03942871093750
-0.01983642578125
-0.01348876953125
0.03277587890625
-0.01501464843750
0.02282714843750
-0.03057861328125
-0.00616455078125
0.00152587890625
-0.05114746093750
-0.03308105468750
-0.03497314453125
-0.02703857421875
-0.02874755859375
-0.04608154296875
-0.03753662109375
-0.00292968750000
-0.04095458984375
0.02441406250000
0.03497314453125
-0.02691650390625
-0.01092529296875
-0.05480957031250
-0.04559326171875
0.03668212890625
0.03582763671875
0.00646972656250
-0.00744628906250
0.04803466796875
0.04302978515625
0.01983642578125
0.01123046875000
-0.04260253906250
-0.03155517578125
0.02203369140625
0.01959228515625
0.01672363281250
0.03363037109375
0.04553222656250
0.03320312500000
0.04406738281250
0.02453613281250
-0.01824951171875
-0.03479003906250
-0.02020263671875
-0.00335693359375
-0.00494384765625
-0.02056884765625
0.02362060546875
0.01409912109375
-0.01184082031250
0.03198242187500
-0.03613281250000
-0.00292968750000
-0.02795410156250
-0.03118896484375
0.02087402343750
-0.01928710937500
-0.00292968750000
-0.03802490234375
-0.04229736328125
-0.00695800781250
0.02880859375000
0.02630615234375
-0.02606201171875
-0.02813720703125
-0.04925537109375
0.03881835937500
-0.00305175781250
-0.02288818359375
0.05285644531250
-0.04895019531250
0.04797363281250
0.04681396484375
0.00726318359375
0.03454589843750
-0.04992675781250
-0.02465820312500
-0.00982666015625
-0.01977539062500
-0.01293945312500
0.02453613281250
0.05377197265625
-0.05249023437500
-0.02264404296875
-0.00250244140625
-0.00848388671875
0.00482177734375
-0.01556396484375
-0.02593994140625
0.03778076171875
0.01501464843750
-0.03887939453125
-0.00561523437500
0.00640869140625
-0.03588867187500
0.00579833984375
-0.05670166015625
0.03033447265625
0.04785156250000
-0.04724121093750
0.03863525390625
-0.03881835937500
0.02172851562500
0.00488281250000
-0.00616455078125
0.04272460937500
0.05212402343750
-0.04504394531250
0.04296875000000
0.02227783203125
0.01403808593750
-0.04498291015625
-0.04736328125000
-0.02185058593750
-0.04559326171875
0.00933837890625
-0.03741455078125
0.04217529296875
0.00958251953125
0.04229736328125
-0.00659179687500
0.01232910156250
-0.03338623046875
-0.00469970703125
-0.00891113281250
0.01770019531250
-0.02362060546875
0.02362060546875
0.01208496093750
-0.02703857421875
0.00970458984375
-0.02612304687500
-0.00042724609375
-0.00787353515625
-0.02380371093750
0.04956054687500
-0.05419921875000
-0.05419921875000
0.04925537109375
0.02709960937500
0.04388427734375
0.04864501953125
0.03784179687500
-0.03857421875000
0.03497314453125
-0.01434326171875
-0.00152587890625
0.00775146484375
-0.01184082031250
0.04559326171875
0.02093505859375
0.03564453125000
-0.04809570312500
-0.03802490234375
0.02752685546875
-0.04571533203125
-0.02142333984375
-0.01947021484375
-0.04431152343750
-0.00079345703125
0.03833007812500
-0.02502441406250
-0.00695800781250
-0.04949951171875
-0.04760742187500
0.03656005859375
0.00561523437500
0.04626464843750
0.01837158203125
0.00158691406250
0.00238037109375
-0.05395507812500
-0.04437255859375
-0.01306152343750
-0.00280761718750
0.02520751953125
-0.04968261718750
-0.04461669921875
0.04608154296875
0.00952148437500
-0.02471923828125
-0.02105712890625
-0.04803466796875
-0.01202392578125
-0.02416992187500
0.02227783203125
-0.01202392578125
0.00054931640625
0.00628662109375
-0.04339599609375
-0.03601074218750
0.03082275390625
-0.00634765625000
0.04516601562500
0.03015136718750
0.03900146484375
-0.01953125000000
-0.04779052734375
-0.00506591796875
0.05584716796875
0.04461669921875
-0.00653076171875
0.03680419921875
0.01861572265625
-0.01629638671875
-0.00384521484375
-0.00390625000000
-0.02703857421875
-0.00964355468750
0.01562500000000
0.01184082031250
-0.01684570312500
0.03851318359375
-0.05358886718750
0.04675292968750
-0.00140380859375
-0.04284667968750
-0.01922607421875
0.00109863281250
-0.05358886718750
0.04199218750000
0.00360107421875
0.02093505859375
0.00970458984375
0.00915527343750
0.04345703125000
-0.02050781250000
-0.03735351562500
0.01092529296875
-0.00048828125000
0.01800537109375
0.02410888671875
-0.02630615234375
-0.04284667968750
0.01391601562500
0.03979492187500
-0.05175781250000
0.00012207031250
-0.04986572265625
0.02008056640625
-0.01672363281250
0.03033447265625
-0.05566406250000
0.01458740234375
0.03643798828125
-0.04602050781250
-0.02062988281250
-0.05029296875000
0.03009033203125
-0.02069091796875
-0.00494384765625
0.03448486328125
0.01995849609375
-0.00518798828125
-0.03143310546875
0.02990722656250
-0.03491210937500
-0.01580810546875
0.04467773437500
0.01586914062500
0.01690673828125
0.01782226562500
-0.04382324218750
-0.00042724609375
-0.04791259765625
0.01300048828125
-0.03387451171875
-0.04638671875000
-0.01184082031250
-0.01916503906250
0.02465820312500
-0.04382324218750
-0.00396728515625
0.02612304687500
-0.01062011718750
0.01147460937500
0.01257324218750
0.03460693359375
-0.05664062500000
-0.00262451171875
-0.00994873046875
-0.05035400390625
-0.00396728515625
0.04394531250000
-0.01031494140625
-0.00012207031250
0.03930664062500
-0.05029296875000
0.05383300781250
-0.04138183593750
0.01269531250000
0.01110839843750
-0.02172851562500
-0.02056884765625
0.04754638671875
-0.03674316406250
0.04168701171875
-0.05010986328125
0.04577636718750
-0.05706787109375
-0.01690673828125
0.00878906250000
0.04498291015625
-0.03686523437500
0.03912353515625
-0.01220703125000
0.01110839843750
0.03051757812500
-0.03912353515625
0.03668212890625
-0.05242919921875
0.03601074218750
0.01440429687500
0.03326416015625
0.00695800781250
-0.01104736328125
-0.03070068359375
0.01306152343750
0.04315185546875
-0.01806640625000
0.03820800781250
0.02844238281250
-0.02044677734375
0.04553222656250
-0.00366210937500
0.01892089843750
0.02966308593750
-0.01922607421875
-0.00476074218750
0.00067138671875
0.01428222656250
0.04650878906250
-0.01177978515625
0.03393554687500
-0.01153564453125
-0.00018310546875
0.02844238281250
0.05322265625000
0.02423095703125
0.04974365234375
0.03167724609375
-0.00482177734375
-0.00482177734375
0.04315185546875
0.02667236328125
-0.04107666015625
-0.00048828125000
-0.04107666015625
-0.02996826171875
-0.03399658203125
0.00634765625000
-0.00109863281250
-0.02557373046875
0.02795410156250
-0.01983642578125
-0.00628662109375
0.02117919921875
-0.00262451171875
0.02069091796875
-0.03198242187500
0.02789306640625
-0.00946044921875
0.02661132812500
0.00811767578125
-0.01062011718750
-0.01342773437500
-0.02453613281250
0.04217529296875
0.02838134765625
0.03094482421875
0.01483154296875
-0.02624511718750
-0.04711914062500
-0.01232910156250
0.04113769531250
0.03063964843750
-0.03906250000000
-0.00396728515625
-0.02703857421875
-0.03417968750000
-0.02185058593750
-0.01220703125000
0.01837158203125
-0.00915527343750
-0.04846191406250
-0.04833984375000
0.00518798828125
-0.00347900390625
-0.03106689453125
-0.03210449218750
0.01397705078125
-0.00537109375000
-0.00646972656250
-0.02270507812500
0.02832031250000
0.04907226562500
-0.03649902343750
0.00012207031250
-0.02020263671875
-0.00628662109375
0.03967285156250
-0.01629638671875
0.01678466796875
0.03216552734375
-0.00152587890625
-0.05169677734375
-0.05462646484375
0.00732421875000
0.04840087890625
-0.04797363281250
-0.01702880859375
-0.01580810546875
0.00488281250000
0.04675292968750
0.00933837890625
0.05639648437500
0.01635742187500
-0.04144287109375
0.02972412109375
0.03979492187500
-0.05041503906250
0.01806640625000
-0.02008056640625
0.04571533203125
0.01379394531250
-0.04754638671875
-0.04071044921875
0.04675292968750
-0.01525878906250
-0.04431152343750
0.01153564453125
0.04809570312500
0.01007080078125
-0.05462646484375
-0.02880859375000
-0.03955078125000
0.00476074218750
-0.00451660156250
0.03723144531250
-0.01611328125000
0.04711914062500
-0.01281738281250
0.02600097656250
0.02618408203125
-0.04443359375000
0.00323486328125
-0.02661132812500
0.01507568359375
-0.02313232421875
-0.02539062500000
0.04046630859375
-0.00378417968750
-0.01654052734375
0.03948974609375
-0.01715087890625
0.04028320312500
-0.01483154296875
-0.03900146484375
0.02868652343750
-0.01727294921875
-0.02429199218750
0.00799560546875
-0.00799560546875
0.05065917968750
-0.00030517578125
0.05212402343750
0.03771972656250
0.03479003906250
0.02899169921875
-0.01092529296875
0.02331542968750
0.03613281250000
0.00958251953125
-0.00433349609375
-0.03674316406250
0.03503417968750
-0.00549316406250
-0.05499267578125
-0.03143310546875
0.01159667968750
-0.01959228515625
-0.00323486328125
0.04687500000000
0.02172851562500
-0.03179931640625
0.00427246093750
0.04046630859375
0.01916503906250
0.05242919921875
0.04925537109375
-0.04052734375000
0.02258300781250
-0.00433349609375
-0.03314208984375
0.01171875000000
-0.00708007812500
-0.00842285156250
-0.00286865234375
-0.02978515625000
0.03796386718750
-0.03002929687500
0.05249023437500
0.05175781250000
-0.00793457031250
0.01086425781250
0.01446533203125
-0.00451660156250
0.01092529296875
0.01727294921875
0.00445556640625
-0.02276611328125
-0.02941894531250
0.00238037109375
-0.01562500000000
0.03649902343750
-0.04180908203125
-0.00872802734375
-0.00463867187500
0.02435302734375
-0.04937744140625
-0.05346679687500
0.02081298828125
0.00317382812500
-0.00103759765625
-0.02093505859375
-0.02288818359375
-0.04803466796875
-0.03070068359375
-0.04516601562500
-0.03308105468750
0.01953125000000
0.05163574218750
0.02331542968750
-0.01361083984375
-0.01177978515625
-0.04260253906250
0.02673339843750
0.01171875000000
0.04644775390625
-0.02581787109375
-0.01983642578125
-0.01977539062500
-0.04504394531250
-0.01623535156250
0.04699707031250
0.04663085937500
-0.03063964843750
-0.01214599609375
0.03851318359375
-0.00781250000000
0.01507568359375
-0.00231933593750
-0.01580810546875
-0.00042724609375
0.00897216796875
0.01568603515625
-0.01574707031250
-0.04693603515625
0.02246093750000
-0.01507568359375
0.00054931640625
-0.04431152343750
0.04595947265625
0.04003906250000
-0.00396728515625
0.00994873046875
0.01013183593750
-0.01306152343750
0.03894042968750
-0.04187011718750
0.03210449218750
0.00799560546875
-0.01660156250000
-0.00427246093750
0.03240966796875
-0.00854492187500
-0.02880859375000
0.00811767578125
0.00769042968750
-0.02124023437500
0.05444335937500
0.03137207031250
-0.04956054687500
0.03259277343750
-0.02539062500000
-0.04992675781250
-0.00476074218750
0.00067138671875
0.02899169921875
-0.03759765625000
-0.04644775390625
-0.01104736328125
-0.01171875000000
-0.04296875000000
0.00341796875000
0.01660156250000
0.02276611328125
-0.02081298828125
-0.00653076171875
-0.00128173828125
-0.02215576171875
0.03851318359375
0.02899169921875
-0.02667236328125
0.03649902343750
0.01519775390625
-0.01647949218750
0.02313232421875
0.02612304687500
-0.04211425781250
0.04876708984375
0.02459716796875
-0.03875732421875
-0.04498291015625
-0.03601074218750
-0.01574707031250
-0.03295898437500
0.02880859375000
0.01275634765625
0.01721191406250
-0.05273437500000
-0.00262451171875
-0.03289794921875
-0.00506591796875
-0.03131103515625
-0.05212402343750
-0.01336669921875
0.01312255859375
-0.05230712890625
0.01068115234375
0.04211425781250
-0.00231933593750
0.00885009765625
-0.02337646484375
0.03753662109375
0.01104736328125
0.03039550781250
0.03527832031250
-0.03546142578125
-0.02947998046875
0.01013183593750
-0.03802490234375
-0.02008056640625
-0.03369140625000
-0.01373291015625
0.01843261718750
0.01483154296875
-0.00457763671875
-0.05438232421875
-0.04718017578125
0.01776123046875
-0.02819824218750
-0.05224609375000
0.04870605468750
0.01257324218750
-0.01397705078125
-0.02703857421875
0.01196289062500
0.00378417968750
-0.03765869140625
-0.00933837890625
0.03009033203125
-0.04632568359375
-0.05426025390625
-0.00988769531250
-0.03674316406250
0.00927734375000
-0.03100585937500
-0.00921630859375
-0.00170898437500
-0.04559326171875
-0.01226806640625
-0.01953125000000
-0.00646972656250
0.02502441406250
0.02850341796875
-0.02233886718750
0.02154541015625
0.02569580078125
-0.00653076171875
0.00006103515625
-0.00543212890625
0.01654052734375
-0.03369140625000
0.01037597656250
-0.05834960937500
-0.03265380859375
0.01489257812500
0.00231933593750
-0.03375244140625
-0.04504394531250
-0.03106689453125
-0.05487060546875
0.02142333984375
-0.04278564453125
-0.01184082031250
-0.02789306640625
-0.01715087890625
-0.01885986328125
0.00366210937500
-0.04693603515625
0.04278564453125
-0.03521728515625
-0.00726318359375
0.02423095703125
0.04010009765625
-0.01177978515625
-0.02478027343750
-0.04010009765625
-0.04211425781250
0.01184082031250
-0.01055908203125
0.02960205078125
0.04681396484375
0.01049804687500
0.00408935546875
-0.02239990234375
0.03430175781250
-0.02221679687500
-0.01086425781250
0.00817871093750
0.00524902343750
-0.02618408203125
0.04766845703125
0.00311279296875
-0.02673339843750
0.01721191406250
0.00708007812500
0.01940917968750
0.03747558593750
-0.03247070312500
-0.01733398437500
0.00030517578125
0.02569580078125
-0.00262451171875
-0.03717041015625
0.03479003906250
-0.02392578125000
0.01361083984375
0.05157470703125
-0.00567626953125
0.00958251953125
0.01165771484375
0.04760742187500
0.00616455078125
0.03625488281250
-0.04180908203125
-0.03057861328125
0.03979492187500
0.04138183593750
0.04431152343750
-0.00848388671875
-0.02545166015625
-0.03759765625000
-0.02172851562500
0.04058837890625
0.02478027343750
-0.05102539062500
0.04669189453125
-0.02587890625000
0.02490234375000
0.01403808593750
-0.05187988281250
-0.04101562500000
-0.02545166015625
-0.04461669921875
-0.01708984375000
-0.02923583984375
-0.01300048828125
0.04351806640625
-0.01568603515625
0.00640869140625
0.01226806640625
0.04028320312500
0.00274658203125
0.02520751953125
0.04663085937500
0.02349853515625
-0.00134277343750
-0.03582763671875
0.01611328125000
-0.02520751953125
-0.02130126953125
-0.03881835937500
0.03973388671875
-0.03582763671875
-0.03869628906250
-0.01867675781250
-0.05364990234375
-0.01660156250000
-0.00579833984375
-0.04266357421875
-0.01855468750000
-0.00463867187500
0.03723144531250
0.01177978515625
-0.02014160156250
-0.05267333984375
0.05310058593750
0.03558349609375
-0.05181884765625
0.03308105468750
0.04559326171875
0.01812744140625
-0.01385498046875
0.03698730468750
0.01739501953125
0.03851318359375
-0.04626464843750
0.04730224609375
0.02563476562500
-0.03253173828125
-0.04058837890625
-0.04614257812500
-0.01458740234375
-0.04333496093750
-0.03082275390625
0.04479980468750
-0.03448486328125
-0.04602050781250
-0.02111816406250
0.04852294921875
-0.02136230468750
-0.04931640625000
0.00714111328125
0.03338623046875
-0.05401611328125
-0.00457763671875
-0.01373291015625
-0.01184082031250
-0.04565429687500
0.03839111328125
-0.03393554687500
-0.03265380859375
-0.01000976562500
0.04022216796875
-0.01068115234375
0.04425048828125
0.01208496093750
-0.01208496093750
0.01446533203125
-0.04266357421875
-0.05554199218750
-0.01837158203125
0.01373291015625
0.02911376953125
-0.02789306640625
0.03967285156250
-0.03326416015625
-0.05352783203125
-0.00653076171875
0.03686523437500
-0.03033447265625
-0.00585937500000
-0.01184082031250
0.02062988281250
0.04827880859375
0.01123046875000
-0.05297851562500
-0.04595947265625
-0.01824951171875
-0.02667236328125
-0.01092529296875
-0.04425048828125
-0.01226806640625
-0.05206298828125
-0.04028320312500
0.02691650390625
-0.05328369140625
0.04962158203125
0.02349853515625
-0.03747558593750
0.04730224609375
-0.00762939453125
0.03198242187500
-0.00146484375000
0.05035400390625
-0.01354980468750
-0.03485107421875
-0.05249023437500
-0.03460693359375
-0.02856445312500
-0.01068115234375
0.04760742187500
0.01715087890625
0.03790283203125
-0.05004882812500
0.05523681640625
-0.03436279296875
0.03985595703125
-0.03863525390625
-0.03326416015625
-0.02362060546875
0.01348876953125
-0.01940917968750
-0.04150390625000
-0.02587890625000
-0.05175781250000
-0.02160644531250
-0.03497314453125
-0.03564453125000
0.03039550781250
0.02954101562500
0.04260253906250
0.01306152343750
0.03802490234375
-0.04742431640625
-0.00592041015625
-0.04382324218750
0.04748535156250
-0.01312255859375
0.02410888671875
0.02233886718750
-0.02001953125000
0.00622558593750
0.00817871093750
-0.00604248046875
-0.03540039062500
-0.01593017578125
0.03607177734375
-0.04541015625000
-0.04541015625000
-0.02404785156250
-0.00836181640625
-0.04193115234375
0.01104736328125
0.04718017578125
-0.02691650390625
0.02026367187500
-0.01287841796875
0.02673339843750
0.03424072265625
-0.04064941406250
0.00885009765625
-0.02081298828125
0.05035400390625
-0.05633544921875
-0.04528808593750
-0.02105712890625
-0.02349853515625
0.03704833984375
0.01196289062500
0.00970458984375
0.00872802734375
0.00738525390625
-0.00750732421875
0.01513671875000
0.00000000000000
0.00805664062500
0.02703857421875
0.00390625000000
-0.00878906250000
0.02874755859375
-0.04071044921875
0.00598144531250
-0.02435302734375
-0.05407714843750
-0.01678466796875
-0.05090332031250
-0.01489257812500
-0.04760742187500
-0.04870605468750
0.01660156250000
-0.05029296875000
0.02062988281250
-0.01202392578125
-0.02368164062500
0.05108642578125
0.00677490234375
0.01544189453125
-0.04736328125000
-0.01220703125000
-0.05090332031250
-0.00775146484375
0.01489257812500
0.01928710937500
0.00225830078125
0.01788330078125
-0.04382324218750
-0.05340576171875
0.00146484375000
-0.00054931640625
0.04711914062500
0.01318359375000
-0.02514648437500
-0.02795410156250
0.01324462890625
-0.00714111328125
-0.05938720703125
-0.03002929687500
-0.02026367187500
0.00640869140625
0.00012207031250
-0.00708007812500
0.03332519531250
0.00689697265625
-0.05120849609375
0.03698730468750
-0.05334472656250
0.02716064453125
0.03192138671875
0.03472900390625
0.01538085937500
-0.03619384765625
-0.00701904296875
-0.01232910156250
-0.00573730468750
-0.02716064453125
0.00921630859375
-0.05694580078125
0.01928710937500
-0.04577636718750
-0.01098632812500
-0.00781250000000
-0.00366210937500
-0.00872802734375
0.02209472656250
0.03881835937500
0.04614257812500
0.01885986328125
-0.00292968750000
0.02545166015625
-0.03747558593750
0.00872802734375
0.04864501953125
0.02844238281250
-0.01202392578125
-0.04711914062500
0.05273437500000
0.02972412109375
-0.02075195312500
-0.02551269531250
0.04321289062500
-0.01293945312500
-0.05279541015625
0.03747558593750
-0.03381347656250
0.03247070312500
0.01043701171875
0.03088378906250
0.05554199218750
-0.05297851562500
0.02661132812500
0.03887939453125
0.01361083984375
0.01812744140625
-0.01495361328125
0.00500488281250
-0.03881835937500
0.01831054687500
-0.01770019531250
0.02716064453125
0.01171875000000
0.03057861328125
-0.00323486328125
0.03509521484375
0.01611328125000
0.04467773437500
0.03771972656250
-0.01715087890625
0.00201416015625
0.01062011718750
-0.01629638671875
-0.00408935546875
0.03417968750000
-0.00225830078125
0.04357910156250
0.04400634765625
0.04693603515625
-0.04498291015625
0.03759765625000
0.00750732421875
-0.00024414062500
-0.02716064453125
0.02239990234375
0.04925537109375
-0.00115966796875
-0.02313232421875
-0.04931640625000
0.04187011718750
-0.04138183593750
0.01080322265625
0.05804443359375
0.01763916015625
-0.03057861328125
0.02075195312500
0.01550292968750
-0.01678466796875
0.01385498046875
-0.01239013671875
-0.05230712890625
0.04534912109375
0.02294921875000
0.01660156250000
-0.01513671875000
0.04681396484375
0.04492187500000
0.00219726562500
0.04510498046875
-0.00482177734375
-0.00311279296875
0.04199218750000
0.04412841796875
0.01824951171875
0.01452636718750
-0.00836181640625
0.02288818359375
0.04669189453125
0.05297851562500
-0.02581787109375
-0.04327392578125
0.00817871093750
0.02246093750000
0.02355957031250
-0.05200195312500
0.00451660156250
0.01031494140625
0.01306152343750
-0.04412841796875
0.01745605468750
-0.05633544921875
-0.03558349609375
0.02899169921875
-0.01300048828125
-0.05242919921875
-0.05102539062500
0.00482177734375
-0.02636718750000
0.02343750000000
-0.01550292968750
-0.01928710937500
-0.05236816406250
-0.00048828125000
0.00408935546875
0.01971435546875
0.00262451171875
0.00518798828125
0.01745605468750
-0.03088378906250
0.01855468750000
0.02563476562500
-0.00726318359375
0.00250244140625
0.02313232421875
-0.01623535156250
-0.02471923828125
-0.01605224609375
-0.00524902343750
0.01800537109375
0.03100585937500
0.04907226562500
0.05114746093750
-0.01605224609375
-0.03161621093750
0.00451660156250
0.03118896484375
-0.04882812500000
-0.00799560546875
0.04943847656250
0.00524902343750
-0.05145263671875
0.02539062500000
0.00061035156250
-0.00164794921875
0.02722167968750
0.05084228515625
0.01281738281250
0.04626464843750
0.02575683593750
-0.03948974609375
-0.03387451171875
-0.03802490234375
-0.04663085937500
-0.05285644531250
0.01159667968750
0.03424072265625
0.00738525390625
0.02001953125000
0.01678466796875
0.00665283203125
-0.04882812500000
0.00085449218750
-0.04760742187500
0.02142333984375
-0.00415039062500
0.00347900390625
-0.02709960937500
-0.00408935546875
0.03082275390625
0.02667236328125
0.02850341796875
-0.02514648437500
-0.03338623046875
-0.02941894531250
0.00256347656250
-0.04089355468750
-0.01068115234375
-0.00781250000000
0.01696777343750
0.00408935546875
0.02239990234375
0.03063964843750
-0.01354980468750
-0.00048828125000
0.03033447265625
-0.02655029296875
0.04113769531250
0.04998779296875
0.02697753906250
0.04779052734375
-0.00732421875000
0.01611328125000
-0.00366210937500
-0.01617431640625
0.02185058593750
0.04882812500000
-0.03277587890625
0.02331542968750
0.03112792968750
-0.01904296875000
-0.00476074218750
0.02362060546875
-0.02807617187500
0.00469970703125
0.04034423828125
0.03442382812500
0.01293945312500
-0.00024414062500
0.00750732421875
0.04180908203125
-0.04107666015625
0.05090332031250
-0.01342773437500
-0.02990722656250
0.04309082031250
0.04101562500000
-0.04992675781250
-0.03570556640625
-0.01141357421875
0.01672363281250
0.04614257812500
0.04461669921875
-0.03021240234375
-0.00311279296875
0.02856445312500
0.01354980468750
-0.02947998046875
-0.03137207031250
0.02764892578125
0.04644775390625
0.01617431640625
-0.02947998046875
-0.04870605468750
-0.02655029296875
-0.01751708984375
0.02307128906250
-0.05633544921875
-0.05792236328125
0.02911376953125
0.02691650390625
0.02996826171875
0.00903320312500
0.03405761718750
-0.01721191406250
-0.00524902343750
-0.02447509765625
-0.01190185546875
-0.02435302734375
-0.05407714843750
-0.00628662109375
-0.00958251953125
0.01190185546875
0.02215576171875
0.02929687500000
-0.03918457031250
-0.03826904296875
0.04583740234375
0.03051757812500
-0.01574707031250
0.03704833984375
-0.04370117187500
-0.04852294921875
-0.04248046875000
0.04931640625000
0.05163574218750
0.02612304687500
-0.03375244140625
-0.04577636718750
-0.03399658203125
0.02630615234375
-0.00842285156250
-0.03546142578125
0.01428222656250
0.04016113281250
0.03588867187500
-0.00677490234375
0.01678466796875
-0.01940917968750
-0.02697753906250
0.04217529296875
-0.04577636718750
-0.00140380859375
-0.00665283203125
0.01379394531250
-0.01672363281250
-0.00585937500000
-0.02465820312500
0.00543212890625
-0.01501464843750
-0.03765869140625
-0.03802490234375
0.02288818359375
-0.00006103515625
0.02947998046875
-0.04125976562500
0.02813720703125
-0.01977539062500
-0.01733398437500
-0.02655029296875
-0.01947021484375
-0.00048828125000
0.01733398437500
-0.05004882812500
-0.05316162109375
0.02978515625000
-0.03588867187500
0.03973388671875
0.04980468750000
0.04315185546875
-0.04321289062500
-0.00024414062500
-0.04376220703125
0.03033447265625
-0.04724121093750
0.01342773437500
0.01885986328125
0.03588867187500
-0.00408935546875
0.04394531250000
0.01696777343750
-0.02838134765625
0.03851318359375
0.00781250000000
-0.03070068359375
0.00109863281250
-0.02874755859375
-0.03765869140625
0.00476074218750
0.01263427734375
-0.00225830078125
0.00531005859375
0.03375244140625
0.03033447265625
0.02020263671875
-0.00115966796875
-0.00213623046875
-0.02429199218750
0.05114746093750
-0.03027343750000
0.02905273437500
-0.02642822265625
0.05255126953125
0.00231933593750
0.04449462890625
0.02697753906250
-0.04626464843750
0.00128173828125
0.01507568359375
-0.02160644531250
-0.02050781250000
-0.02087402343750
0.01916503906250
0.00421142578125
-0.03033447265625
0.02844238281250
-0.04437255859375
0.04931640625000
0.00830078125000
-0.02362060546875
0.01348876953125
-0.01568603515625
0.03991699218750
0.05236816406250
0.02246093750000
-0.00415039062500
-0.00543212890625
0.03479003906250
0.03771972656250
-0.02423095703125
0.00982666015625
0.01257324218750
-0.04833984375000
0.01153564453125
0.00213623046875
0.03240966796875
-0.01275634765625
0.05126953125000
0.03247070312500
-0.01525878906250
0.03924560546875
0.01904296875000
-0.05145263671875
0.01123046875000
0.04486083984375
-0.00244140625000
0.03515625000000
-0.03625488281250
-0.01214599609375
-0.03796386718750
-0.02691650390625
0.01910400390625
0.02972412109375
-0.04962158203125
-0.02362060546875
0.03912353515625
-0.04315185546875
-0.00714111328125
0.03149414062500
-0.02032470703125
0.01025390625000
-0.03540039062500
-0.04425048828125
0.03106689453125
0.03356933593750
-0.04010009765625
0.00622558593750
-0.02349853515625
-0.05133056640625
-0.02813720703125
0.01293945312500
-0.05456542968750
0.03765869140625
-0.00714111328125
-0.04028320312500
-0.03765869140625
-0.00427246093750
0.03063964843750
0.00366210937500
-0.04754638671875
-0.00634765625000
-0.02575683593750
-0.03839111328125
-0.02465820312500
0.02606201171875
-0.00915527343750
0.00183105468750
0.02996826171875
0.04840087890625
-0.01696777343750
-0.00769042968750
-0.00445556640625
-0.04040527343750
-0.04156494140625
-0.00756835937500
-0.04656982421875
-0.00720214843750
0.02954101562500
0.00250244140625
0.02960205078125
-0.01470947265625
-0.03948974609375
-0.04724121093750
0.00585937500000
0.01977539062500
-0.00164794921875
0.01599121093750
-0.02557373046875
-0.02227783203125
-0.05090332031250
0.05090332031250
-0.01599121093750
-0.04528808593750
-0.00207519531250
-0.00500488281250
-0.03533935546875
-0.03228759765625
-0.01470947265625
0.04614257812500
0.03009033203125
0.03741455078125
0.00091552734375
-0.01531982421875
-0.02764892578125
0.00213623046875
0.04431152343750
-0.00286865234375
0.03424072265625
-0.04974365234375
-0.00939941406250
0.01690673828125
0.00805664062500
-0.02111816406250
0.03613281250000
-0.02832031250000
0.04760742187500
-0.01300048828125
-0.04315185546875
-0.01550292968750
0.05407714843750
-0.02917480468750
0.05157470703125
0.01525878906250
-0.01812744140625
0.03393554687500
0.05267333984375
-0.02661132812500
-0.00476074218750
0.02630615234375
